=== Run information ===

Scheme:weka.classifiers.trees.RandomTree -K 0 -M 1.0 -S 1
Relation:     USD_CAD_tr
Instances:    1250
Attributes:   11
              0
              1
              2
              3
              4
              5
              6
              7
              8
              9
              Class
Test mode:user supplied test set: size unknown (reading incrementally)

=== Classifier model (full training set) ===


RandomTree
==========

4 = -5 : -4 (1/0)
4 = -4
|   1 = -5 : -5 (0/0)
|   1 = -4 : -5 (0/0)
|   1 = -3 : -3 (1/0)
|   1 = -2 : -5 (0/0)
|   1 = -1 : -5 (1/0)
|   1 = 0 : -5 (1/0)
|   1 = 1 : -5 (0/0)
|   1 = 2 : -5 (0/0)
|   1 = 3 : -5 (0/0)
|   1 = 4 : -5 (0/0)
|   1 = 5 : -5 (0/0)
4 = -3
|   9 = -5 : -5 (1/0)
|   9 = -4
|   |   0 = -5 : -5 (0/0)
|   |   0 = -4 : -5 (0/0)
|   |   0 = -3 : -5 (0/0)
|   |   0 = -2 : -5 (0/0)
|   |   0 = -1 : -5 (1/0)
|   |   0 = 0 : -3 (1/0)
|   |   0 = 1 : -5 (0/0)
|   |   0 = 2 : -5 (0/0)
|   |   0 = 3 : -5 (0/0)
|   |   0 = 4 : -5 (0/0)
|   |   0 = 5 : -5 (0/0)
|   9 = -3
|   |   3 = -5 : -5 (0/0)
|   |   3 = -4 : -5 (0/0)
|   |   3 = -3
|   |   |   0 = -5 : -5 (0/0)
|   |   |   0 = -4 : -5 (0/0)
|   |   |   0 = -3 : -5 (0/0)
|   |   |   0 = -2 : -5 (0/0)
|   |   |   0 = -1 : -3 (1/0)
|   |   |   0 = 0 : -4 (1/0)
|   |   |   0 = 1 : -5 (0/0)
|   |   |   0 = 2 : -5 (0/0)
|   |   |   0 = 3 : -5 (0/0)
|   |   |   0 = 4 : -5 (0/0)
|   |   |   0 = 5 : -5 (0/0)
|   |   3 = -2
|   |   |   5 = -5 : -5 (0/0)
|   |   |   5 = -4 : -5 (0/0)
|   |   |   5 = -3
|   |   |   |   0 = -5 : -5 (0/0)
|   |   |   |   0 = -4 : -5 (0/0)
|   |   |   |   0 = -3 : -5 (0/0)
|   |   |   |   0 = -2 : -5 (0/0)
|   |   |   |   0 = -1 : -3 (1/0)
|   |   |   |   0 = 0
|   |   |   |   |   7 = -5 : -5 (0/0)
|   |   |   |   |   7 = -4 : -5 (0/0)
|   |   |   |   |   7 = -3 : -2 (1/0)
|   |   |   |   |   7 = -2 : -3 (1/0)
|   |   |   |   |   7 = -1 : -5 (0/0)
|   |   |   |   |   7 = 0 : -5 (0/0)
|   |   |   |   |   7 = 1 : -5 (0/0)
|   |   |   |   |   7 = 2 : -5 (0/0)
|   |   |   |   |   7 = 3 : -5 (0/0)
|   |   |   |   |   7 = 4 : -5 (0/0)
|   |   |   |   |   7 = 5 : -5 (0/0)
|   |   |   |   0 = 1 : -5 (0/0)
|   |   |   |   0 = 2 : -5 (0/0)
|   |   |   |   0 = 3 : -5 (0/0)
|   |   |   |   0 = 4 : -5 (0/0)
|   |   |   |   0 = 5 : -5 (0/0)
|   |   |   5 = -2 : -3 (1/0)
|   |   |   5 = -1 : -5 (0/0)
|   |   |   5 = 0 : -5 (0/0)
|   |   |   5 = 1 : -5 (0/0)
|   |   |   5 = 2 : -5 (0/0)
|   |   |   5 = 3 : -5 (0/0)
|   |   |   5 = 4 : -5 (0/0)
|   |   |   5 = 5 : -5 (0/0)
|   |   3 = -1 : -5 (0/0)
|   |   3 = 0 : -5 (0/0)
|   |   3 = 1 : -5 (0/0)
|   |   3 = 2 : -5 (0/0)
|   |   3 = 3 : -5 (0/0)
|   |   3 = 4 : -5 (0/0)
|   |   3 = 5 : -5 (0/0)
|   9 = -2 : -5 (0/0)
|   9 = -1
|   |   5 = -5 : -5 (0/0)
|   |   5 = -4 : -5 (0/0)
|   |   5 = -3 : 1 (1/0)
|   |   5 = -2 : -2 (1/0)
|   |   5 = -1 : 0 (1/0)
|   |   5 = 0 : -5 (0/0)
|   |   5 = 1 : -5 (0/0)
|   |   5 = 2 : -5 (0/0)
|   |   5 = 3 : -5 (0/0)
|   |   5 = 4 : -5 (0/0)
|   |   5 = 5 : -5 (0/0)
|   9 = 0 : -1 (1/0)
|   9 = 1 : -5 (0/0)
|   9 = 2 : -5 (0/0)
|   9 = 3 : -5 (0/0)
|   9 = 4 : -5 (0/0)
|   9 = 5 : -5 (0/0)
4 = -2
|   7 = -5 : -4 (1/0)
|   7 = -4
|   |   3 = -5 : -5 (0/0)
|   |   3 = -4 : -5 (0/0)
|   |   3 = -3 : -5 (0/0)
|   |   3 = -2
|   |   |   1 = -5 : -5 (0/0)
|   |   |   1 = -4 : -5 (0/0)
|   |   |   1 = -3 : -5 (0/0)
|   |   |   1 = -2 : -4 (2/0)
|   |   |   1 = -1
|   |   |   |   9 = -5 : -5 (1/0)
|   |   |   |   9 = -4 : -4 (1/0)
|   |   |   |   9 = -3 : -4 (1/0)
|   |   |   |   9 = -2 : -5 (0/0)
|   |   |   |   9 = -1 : -5 (0/0)
|   |   |   |   9 = 0 : -5 (0/0)
|   |   |   |   9 = 1 : -5 (0/0)
|   |   |   |   9 = 2 : -5 (0/0)
|   |   |   |   9 = 3 : -5 (0/0)
|   |   |   |   9 = 4 : -5 (0/0)
|   |   |   |   9 = 5 : -5 (0/0)
|   |   |   1 = 0 : -5 (0/0)
|   |   |   1 = 1 : -5 (0/0)
|   |   |   1 = 2 : -5 (0/0)
|   |   |   1 = 3 : -5 (0/0)
|   |   |   1 = 4 : -5 (0/0)
|   |   |   1 = 5 : -5 (0/0)
|   |   3 = -1
|   |   |   1 = -5 : -5 (0/0)
|   |   |   1 = -4 : -5 (0/0)
|   |   |   1 = -3 : -5 (0/0)
|   |   |   1 = -2 : -5 (0/0)
|   |   |   1 = -1 : -1 (1/0)
|   |   |   1 = 0 : -4 (1/0)
|   |   |   1 = 1 : -5 (0/0)
|   |   |   1 = 2 : -5 (0/0)
|   |   |   1 = 3 : -5 (0/0)
|   |   |   1 = 4 : -5 (0/0)
|   |   |   1 = 5 : -5 (0/0)
|   |   3 = 0 : -5 (0/0)
|   |   3 = 1 : -5 (0/0)
|   |   3 = 2 : -5 (0/0)
|   |   3 = 3 : -5 (0/0)
|   |   3 = 4 : -5 (0/0)
|   |   3 = 5 : -5 (0/0)
|   7 = -3
|   |   9 = -5 : -5 (0/0)
|   |   9 = -4
|   |   |   6 = -5 : -5 (0/0)
|   |   |   6 = -4 : -5 (0/0)
|   |   |   6 = -3
|   |   |   |   5 = -5 : -5 (0/0)
|   |   |   |   5 = -4 : -5 (0/0)
|   |   |   |   5 = -3 : -5 (1/0)
|   |   |   |   5 = -2
|   |   |   |   |   1 = -5 : -5 (0/0)
|   |   |   |   |   1 = -4 : -5 (0/0)
|   |   |   |   |   1 = -3 : -5 (0/0)
|   |   |   |   |   1 = -2 : -5 (0/0)
|   |   |   |   |   1 = -1 : -5 (2/0)
|   |   |   |   |   1 = 0 : -4 (1/0)
|   |   |   |   |   1 = 1 : -5 (0/0)
|   |   |   |   |   1 = 2 : -5 (0/0)
|   |   |   |   |   1 = 3 : -5 (0/0)
|   |   |   |   |   1 = 4 : -5 (0/0)
|   |   |   |   |   1 = 5 : -5 (0/0)
|   |   |   |   5 = -1 : -5 (0/0)
|   |   |   |   5 = 0 : -5 (0/0)
|   |   |   |   5 = 1 : -5 (0/0)
|   |   |   |   5 = 2 : -5 (0/0)
|   |   |   |   5 = 3 : -5 (0/0)
|   |   |   |   5 = 4 : -5 (0/0)
|   |   |   |   5 = 5 : -5 (0/0)
|   |   |   6 = -2 : -3 (1/0)
|   |   |   6 = -1 : -5 (0/0)
|   |   |   6 = 0 : -5 (0/0)
|   |   |   6 = 1 : -5 (0/0)
|   |   |   6 = 2 : -5 (0/0)
|   |   |   6 = 3 : -5 (0/0)
|   |   |   6 = 4 : -5 (0/0)
|   |   |   6 = 5 : -5 (0/0)
|   |   9 = -3
|   |   |   6 = -5 : -5 (0/0)
|   |   |   6 = -4 : -5 (0/0)
|   |   |   6 = -3
|   |   |   |   2 = -5 : -5 (0/0)
|   |   |   |   2 = -4 : -5 (0/0)
|   |   |   |   2 = -3 : -5 (0/0)
|   |   |   |   2 = -2 : -3 (4/0)
|   |   |   |   2 = -1
|   |   |   |   |   3 = -5 : -5 (0/0)
|   |   |   |   |   3 = -4 : -5 (0/0)
|   |   |   |   |   3 = -3 : -5 (0/0)
|   |   |   |   |   3 = -2
|   |   |   |   |   |   8 = -5 : -5 (0/0)
|   |   |   |   |   |   8 = -4 : -5 (0/0)
|   |   |   |   |   |   8 = -3
|   |   |   |   |   |   |   1 = -5 : -5 (0/0)
|   |   |   |   |   |   |   1 = -4 : -5 (0/0)
|   |   |   |   |   |   |   1 = -3 : -5 (0/0)
|   |   |   |   |   |   |   1 = -2 : -5 (0/0)
|   |   |   |   |   |   |   1 = -1 : -3 (1/0)
|   |   |   |   |   |   |   1 = 0 : -5 (1/0)
|   |   |   |   |   |   |   1 = 1 : -5 (0/0)
|   |   |   |   |   |   |   1 = 2 : -5 (0/0)
|   |   |   |   |   |   |   1 = 3 : -5 (0/0)
|   |   |   |   |   |   |   1 = 4 : -5 (0/0)
|   |   |   |   |   |   |   1 = 5 : -5 (0/0)
|   |   |   |   |   |   8 = -2 : -3 (1/0)
|   |   |   |   |   |   8 = -1 : -5 (0/0)
|   |   |   |   |   |   8 = 0 : -5 (0/0)
|   |   |   |   |   |   8 = 1 : -5 (0/0)
|   |   |   |   |   |   8 = 2 : -5 (0/0)
|   |   |   |   |   |   8 = 3 : -5 (0/0)
|   |   |   |   |   |   8 = 4 : -5 (0/0)
|   |   |   |   |   |   8 = 5 : -5 (0/0)
|   |   |   |   |   3 = -1 : -3 (1/0)
|   |   |   |   |   3 = 0 : -5 (0/0)
|   |   |   |   |   3 = 1 : -5 (0/0)
|   |   |   |   |   3 = 2 : -5 (0/0)
|   |   |   |   |   3 = 3 : -5 (0/0)
|   |   |   |   |   3 = 4 : -5 (0/0)
|   |   |   |   |   3 = 5 : -5 (0/0)
|   |   |   |   2 = 0 : -5 (0/0)
|   |   |   |   2 = 1 : -5 (0/0)
|   |   |   |   2 = 2 : -5 (0/0)
|   |   |   |   2 = 3 : -5 (0/0)
|   |   |   |   2 = 4 : -5 (0/0)
|   |   |   |   2 = 5 : -5 (0/0)
|   |   |   6 = -2 : -3 (4/0)
|   |   |   6 = -1 : -5 (0/0)
|   |   |   6 = 0 : -5 (0/0)
|   |   |   6 = 1 : -5 (0/0)
|   |   |   6 = 2 : -5 (0/0)
|   |   |   6 = 3 : -5 (0/0)
|   |   |   6 = 4 : -5 (0/0)
|   |   |   6 = 5 : -5 (0/0)
|   |   9 = -2
|   |   |   8 = -5 : -5 (0/0)
|   |   |   8 = -4 : -5 (0/0)
|   |   |   8 = -3 : -2 (4/0)
|   |   |   8 = -2
|   |   |   |   0 = -5 : -5 (0/0)
|   |   |   |   0 = -4 : -5 (0/0)
|   |   |   |   0 = -3 : -5 (0/0)
|   |   |   |   0 = -2 : -5 (0/0)
|   |   |   |   0 = -1 : -2 (1/0)
|   |   |   |   0 = 0
|   |   |   |   |   3 = -5 : -5 (0/0)
|   |   |   |   |   3 = -4 : -5 (0/0)
|   |   |   |   |   3 = -3 : -3 (1/0)
|   |   |   |   |   3 = -2
|   |   |   |   |   |   6 = -5 : -5 (0/0)
|   |   |   |   |   |   6 = -4 : -5 (0/0)
|   |   |   |   |   |   6 = -3 : -1 (1/0)
|   |   |   |   |   |   6 = -2 : -3 (1/0)
|   |   |   |   |   |   6 = -1 : -5 (0/0)
|   |   |   |   |   |   6 = 0 : -5 (0/0)
|   |   |   |   |   |   6 = 1 : -5 (0/0)
|   |   |   |   |   |   6 = 2 : -5 (0/0)
|   |   |   |   |   |   6 = 3 : -5 (0/0)
|   |   |   |   |   |   6 = 4 : -5 (0/0)
|   |   |   |   |   |   6 = 5 : -5 (0/0)
|   |   |   |   |   3 = -1 : -2 (1/0)
|   |   |   |   |   3 = 0 : -5 (0/0)
|   |   |   |   |   3 = 1 : -5 (0/0)
|   |   |   |   |   3 = 2 : -5 (0/0)
|   |   |   |   |   3 = 3 : -5 (0/0)
|   |   |   |   |   3 = 4 : -5 (0/0)
|   |   |   |   |   3 = 5 : -5 (0/0)
|   |   |   |   0 = 1 : -5 (0/0)
|   |   |   |   0 = 2 : -5 (0/0)
|   |   |   |   0 = 3 : -5 (0/0)
|   |   |   |   0 = 4 : -5 (0/0)
|   |   |   |   0 = 5 : -5 (0/0)
|   |   |   8 = -1 : -1 (1/0)
|   |   |   8 = 0 : -5 (0/0)
|   |   |   8 = 1 : -5 (0/0)
|   |   |   8 = 2 : -5 (0/0)
|   |   |   8 = 3 : -5 (0/0)
|   |   |   8 = 4 : -5 (0/0)
|   |   |   8 = 5 : -5 (0/0)
|   |   9 = -1 : 0 (1/0)
|   |   9 = 0 : -5 (0/0)
|   |   9 = 1 : -5 (0/0)
|   |   9 = 2 : -5 (0/0)
|   |   9 = 3 : -5 (0/0)
|   |   9 = 4 : -5 (0/0)
|   |   9 = 5 : -5 (0/0)
|   7 = -2
|   |   1 = -5 : -5 (0/0)
|   |   1 = -4 : -5 (0/0)
|   |   1 = -3 : -5 (0/0)
|   |   1 = -2
|   |   |   0 = -5 : -5 (0/0)
|   |   |   0 = -4 : -5 (0/0)
|   |   |   0 = -3 : -5 (0/0)
|   |   |   0 = -2 : -5 (0/0)
|   |   |   0 = -1 : -2 (3/0)
|   |   |   0 = 0 : -1 (1/0)
|   |   |   0 = 1 : -5 (0/0)
|   |   |   0 = 2 : -5 (0/0)
|   |   |   0 = 3 : -5 (0/0)
|   |   |   0 = 4 : -5 (0/0)
|   |   |   0 = 5 : -5 (0/0)
|   |   1 = -1
|   |   |   6 = -5 : -5 (0/0)
|   |   |   6 = -4 : -5 (0/0)
|   |   |   6 = -3
|   |   |   |   0 = -5 : -5 (0/0)
|   |   |   |   0 = -4 : -5 (0/0)
|   |   |   |   0 = -3 : -5 (0/0)
|   |   |   |   0 = -2 : -5 (0/0)
|   |   |   |   0 = -1
|   |   |   |   |   3 = -5 : -5 (0/0)
|   |   |   |   |   3 = -4 : -5 (0/0)
|   |   |   |   |   3 = -3 : -5 (0/0)
|   |   |   |   |   3 = -2 : -2 (1/0)
|   |   |   |   |   3 = -1
|   |   |   |   |   |   2 = -5 : -5 (0/0)
|   |   |   |   |   |   2 = -4 : -5 (0/0)
|   |   |   |   |   |   2 = -3 : -5 (0/0)
|   |   |   |   |   |   2 = -2 : -1 (1/0)
|   |   |   |   |   |   2 = -1 : -2 (1/0)
|   |   |   |   |   |   2 = 0 : -5 (0/0)
|   |   |   |   |   |   2 = 1 : -5 (0/0)
|   |   |   |   |   |   2 = 2 : -5 (0/0)
|   |   |   |   |   |   2 = 3 : -5 (0/0)
|   |   |   |   |   |   2 = 4 : -5 (0/0)
|   |   |   |   |   |   2 = 5 : -5 (0/0)
|   |   |   |   |   3 = 0 : -5 (0/0)
|   |   |   |   |   3 = 1 : -5 (0/0)
|   |   |   |   |   3 = 2 : -5 (0/0)
|   |   |   |   |   3 = 3 : -5 (0/0)
|   |   |   |   |   3 = 4 : -5 (0/0)
|   |   |   |   |   3 = 5 : -5 (0/0)
|   |   |   |   0 = 0 : -1 (1/0)
|   |   |   |   0 = 1 : -5 (0/0)
|   |   |   |   0 = 2 : -5 (0/0)
|   |   |   |   0 = 3 : -5 (0/0)
|   |   |   |   0 = 4 : -5 (0/0)
|   |   |   |   0 = 5 : -5 (0/0)
|   |   |   6 = -2
|   |   |   |   8 = -5 : -5 (0/0)
|   |   |   |   8 = -4 : -5 (0/0)
|   |   |   |   8 = -3 : -3 (1/0)
|   |   |   |   8 = -2
|   |   |   |   |   2 = -5 : -5 (0/0)
|   |   |   |   |   2 = -4 : -5 (0/0)
|   |   |   |   |   2 = -3 : -5 (0/0)
|   |   |   |   |   2 = -2
|   |   |   |   |   |   3 = -5 : -5 (0/0)
|   |   |   |   |   |   3 = -4 : -5 (0/0)
|   |   |   |   |   |   3 = -3 : -5 (0/0)
|   |   |   |   |   |   3 = -2
|   |   |   |   |   |   |   0 = -5 : -5 (0/0)
|   |   |   |   |   |   |   0 = -4 : -5 (0/0)
|   |   |   |   |   |   |   0 = -3 : -5 (0/0)
|   |   |   |   |   |   |   0 = -2 : -5 (0/0)
|   |   |   |   |   |   |   0 = -1 : -2 (1/0)
|   |   |   |   |   |   |   0 = 0 : -1 (1/0)
|   |   |   |   |   |   |   0 = 1 : -5 (0/0)
|   |   |   |   |   |   |   0 = 2 : -5 (0/0)
|   |   |   |   |   |   |   0 = 3 : -5 (0/0)
|   |   |   |   |   |   |   0 = 4 : -5 (0/0)
|   |   |   |   |   |   |   0 = 5 : -5 (0/0)
|   |   |   |   |   |   3 = -1 : -2 (1/0)
|   |   |   |   |   |   3 = 0 : -5 (0/0)
|   |   |   |   |   |   3 = 1 : -5 (0/0)
|   |   |   |   |   |   3 = 2 : -5 (0/0)
|   |   |   |   |   |   3 = 3 : -5 (0/0)
|   |   |   |   |   |   3 = 4 : -5 (0/0)
|   |   |   |   |   |   3 = 5 : -5 (0/0)
|   |   |   |   |   2 = -1
|   |   |   |   |   |   9 = -5 : -5 (0/0)
|   |   |   |   |   |   9 = -4 : -5 (0/0)
|   |   |   |   |   |   9 = -3 : -3 (3/1)
|   |   |   |   |   |   9 = -2
|   |   |   |   |   |   |   3 = -5 : -5 (0/0)
|   |   |   |   |   |   |   3 = -4 : -5 (0/0)
|   |   |   |   |   |   |   3 = -3 : -5 (0/0)
|   |   |   |   |   |   |   3 = -2 : -2 (1/0)
|   |   |   |   |   |   |   3 = -1
|   |   |   |   |   |   |   |   0 = -5 : -5 (0/0)
|   |   |   |   |   |   |   |   0 = -4 : -5 (0/0)
|   |   |   |   |   |   |   |   0 = -3 : -5 (0/0)
|   |   |   |   |   |   |   |   0 = -2 : -5 (0/0)
|   |   |   |   |   |   |   |   0 = -1 : -3 (1/0)
|   |   |   |   |   |   |   |   0 = 0 : -2 (5/3)
|   |   |   |   |   |   |   |   0 = 1 : -5 (0/0)
|   |   |   |   |   |   |   |   0 = 2 : -5 (0/0)
|   |   |   |   |   |   |   |   0 = 3 : -5 (0/0)
|   |   |   |   |   |   |   |   0 = 4 : -5 (0/0)
|   |   |   |   |   |   |   |   0 = 5 : -5 (0/0)
|   |   |   |   |   |   |   3 = 0 : -5 (0/0)
|   |   |   |   |   |   |   3 = 1 : -5 (0/0)
|   |   |   |   |   |   |   3 = 2 : -5 (0/0)
|   |   |   |   |   |   |   3 = 3 : -5 (0/0)
|   |   |   |   |   |   |   3 = 4 : -5 (0/0)
|   |   |   |   |   |   |   3 = 5 : -5 (0/0)
|   |   |   |   |   |   9 = -1 : -1 (1/0)
|   |   |   |   |   |   9 = 0 : -5 (0/0)
|   |   |   |   |   |   9 = 1 : -5 (0/0)
|   |   |   |   |   |   9 = 2 : -5 (0/0)
|   |   |   |   |   |   9 = 3 : -5 (0/0)
|   |   |   |   |   |   9 = 4 : -5 (0/0)
|   |   |   |   |   |   9 = 5 : -5 (0/0)
|   |   |   |   |   2 = 0 : -5 (0/0)
|   |   |   |   |   2 = 1 : -5 (0/0)
|   |   |   |   |   2 = 2 : -5 (0/0)
|   |   |   |   |   2 = 3 : -5 (0/0)
|   |   |   |   |   2 = 4 : -5 (0/0)
|   |   |   |   |   2 = 5 : -5 (0/0)
|   |   |   |   8 = -1
|   |   |   |   |   2 = -5 : -5 (0/0)
|   |   |   |   |   2 = -4 : -5 (0/0)
|   |   |   |   |   2 = -3 : -5 (0/0)
|   |   |   |   |   2 = -2 : -2 (1/0)
|   |   |   |   |   2 = -1
|   |   |   |   |   |   9 = -5 : -5 (0/0)
|   |   |   |   |   |   9 = -4 : -5 (0/0)
|   |   |   |   |   |   9 = -3 : -5 (0/0)
|   |   |   |   |   |   9 = -2 : 0 (1/0)
|   |   |   |   |   |   9 = -1 : -1 (2/0)
|   |   |   |   |   |   9 = 0 : -5 (0/0)
|   |   |   |   |   |   9 = 1 : -5 (0/0)
|   |   |   |   |   |   9 = 2 : -5 (0/0)
|   |   |   |   |   |   9 = 3 : -5 (0/0)
|   |   |   |   |   |   9 = 4 : -5 (0/0)
|   |   |   |   |   |   9 = 5 : -5 (0/0)
|   |   |   |   |   2 = 0 : -5 (0/0)
|   |   |   |   |   2 = 1 : -5 (0/0)
|   |   |   |   |   2 = 2 : -5 (0/0)
|   |   |   |   |   2 = 3 : -5 (0/0)
|   |   |   |   |   2 = 4 : -5 (0/0)
|   |   |   |   |   2 = 5 : -5 (0/0)
|   |   |   |   8 = 0 : -5 (0/0)
|   |   |   |   8 = 1 : -5 (0/0)
|   |   |   |   8 = 2 : -5 (0/0)
|   |   |   |   8 = 3 : -5 (0/0)
|   |   |   |   8 = 4 : -5 (0/0)
|   |   |   |   8 = 5 : -5 (0/0)
|   |   |   6 = -1
|   |   |   |   9 = -5 : -5 (0/0)
|   |   |   |   9 = -4 : -5 (0/0)
|   |   |   |   9 = -3 : -5 (0/0)
|   |   |   |   9 = -2
|   |   |   |   |   0 = -5 : -5 (0/0)
|   |   |   |   |   0 = -4 : -5 (0/0)
|   |   |   |   |   0 = -3 : -5 (0/0)
|   |   |   |   |   0 = -2 : -5 (0/0)
|   |   |   |   |   0 = -1 : -3 (1/0)
|   |   |   |   |   0 = 0 : -2 (3/0)
|   |   |   |   |   0 = 1 : -5 (0/0)
|   |   |   |   |   0 = 2 : -5 (0/0)
|   |   |   |   |   0 = 3 : -5 (0/0)
|   |   |   |   |   0 = 4 : -5 (0/0)
|   |   |   |   |   0 = 5 : -5 (0/0)
|   |   |   |   9 = -1
|   |   |   |   |   0 = -5 : -5 (0/0)
|   |   |   |   |   0 = -4 : -5 (0/0)
|   |   |   |   |   0 = -3 : -5 (0/0)
|   |   |   |   |   0 = -2 : -5 (0/0)
|   |   |   |   |   0 = -1 : 0 (1/0)
|   |   |   |   |   0 = 0 : -2 (1/0)
|   |   |   |   |   0 = 1 : -5 (0/0)
|   |   |   |   |   0 = 2 : -5 (0/0)
|   |   |   |   |   0 = 3 : -5 (0/0)
|   |   |   |   |   0 = 4 : -5 (0/0)
|   |   |   |   |   0 = 5 : -5 (0/0)
|   |   |   |   9 = 0 : -5 (0/0)
|   |   |   |   9 = 1 : -5 (0/0)
|   |   |   |   9 = 2 : -5 (0/0)
|   |   |   |   9 = 3 : -5 (0/0)
|   |   |   |   9 = 4 : -5 (0/0)
|   |   |   |   9 = 5 : -5 (0/0)
|   |   |   6 = 0 : -5 (0/0)
|   |   |   6 = 1 : -5 (0/0)
|   |   |   6 = 2 : -5 (0/0)
|   |   |   6 = 3 : -5 (0/0)
|   |   |   6 = 4 : -5 (0/0)
|   |   |   6 = 5 : -5 (0/0)
|   |   1 = 0
|   |   |   9 = -5 : -5 (0/0)
|   |   |   9 = -4 : -4 (1/0)
|   |   |   9 = -3 : -3 (3/0)
|   |   |   9 = -2
|   |   |   |   5 = -5 : -5 (0/0)
|   |   |   |   5 = -4 : -5 (0/0)
|   |   |   |   5 = -3 : -5 (0/0)
|   |   |   |   5 = -2
|   |   |   |   |   0 = -5 : -5 (0/0)
|   |   |   |   |   0 = -4 : -5 (0/0)
|   |   |   |   |   0 = -3 : -5 (0/0)
|   |   |   |   |   0 = -2 : -5 (0/0)
|   |   |   |   |   0 = -1
|   |   |   |   |   |   6 = -5 : -5 (0/0)
|   |   |   |   |   |   6 = -4 : -5 (0/0)
|   |   |   |   |   |   6 = -3 : -1 (1/0)
|   |   |   |   |   |   6 = -2
|   |   |   |   |   |   |   3 = -5 : -5 (0/0)
|   |   |   |   |   |   |   3 = -4 : -5 (0/0)
|   |   |   |   |   |   |   3 = -3 : -5 (0/0)
|   |   |   |   |   |   |   3 = -2 : -2 (1/0)
|   |   |   |   |   |   |   3 = -1 : -3 (1/0)
|   |   |   |   |   |   |   3 = 0 : -5 (0/0)
|   |   |   |   |   |   |   3 = 1 : -5 (0/0)
|   |   |   |   |   |   |   3 = 2 : -5 (0/0)
|   |   |   |   |   |   |   3 = 3 : -5 (0/0)
|   |   |   |   |   |   |   3 = 4 : -5 (0/0)
|   |   |   |   |   |   |   3 = 5 : -5 (0/0)
|   |   |   |   |   |   6 = -1 : -5 (0/0)
|   |   |   |   |   |   6 = 0 : -5 (0/0)
|   |   |   |   |   |   6 = 1 : -5 (0/0)
|   |   |   |   |   |   6 = 2 : -5 (0/0)
|   |   |   |   |   |   6 = 3 : -5 (0/0)
|   |   |   |   |   |   6 = 4 : -5 (0/0)
|   |   |   |   |   |   6 = 5 : -5 (0/0)
|   |   |   |   |   0 = 0
|   |   |   |   |   |   3 = -5 : -5 (0/0)
|   |   |   |   |   |   3 = -4 : -5 (0/0)
|   |   |   |   |   |   3 = -3 : -5 (0/0)
|   |   |   |   |   |   3 = -2 : -2 (2/1)
|   |   |   |   |   |   3 = -1 : -3 (1/0)
|   |   |   |   |   |   3 = 0 : -5 (0/0)
|   |   |   |   |   |   3 = 1 : -5 (0/0)
|   |   |   |   |   |   3 = 2 : -5 (0/0)
|   |   |   |   |   |   3 = 3 : -5 (0/0)
|   |   |   |   |   |   3 = 4 : -5 (0/0)
|   |   |   |   |   |   3 = 5 : -5 (0/0)
|   |   |   |   |   0 = 1 : -1 (1/0)
|   |   |   |   |   0 = 2 : -5 (0/0)
|   |   |   |   |   0 = 3 : -5 (0/0)
|   |   |   |   |   0 = 4 : -5 (0/0)
|   |   |   |   |   0 = 5 : -5 (0/0)
|   |   |   |   5 = -1 : -2 (4/0)
|   |   |   |   5 = 0 : -5 (0/0)
|   |   |   |   5 = 1 : -5 (0/0)
|   |   |   |   5 = 2 : -5 (0/0)
|   |   |   |   5 = 3 : -5 (0/0)
|   |   |   |   5 = 4 : -5 (0/0)
|   |   |   |   5 = 5 : -5 (0/0)
|   |   |   9 = -1
|   |   |   |   2 = -5 : -5 (0/0)
|   |   |   |   2 = -4 : -5 (0/0)
|   |   |   |   2 = -3 : -5 (0/0)
|   |   |   |   2 = -2 : -5 (0/0)
|   |   |   |   2 = -1 : -1 (2/0)
|   |   |   |   2 = 0
|   |   |   |   |   0 = -5 : -5 (0/0)
|   |   |   |   |   0 = -4 : -5 (0/0)
|   |   |   |   |   0 = -3 : -5 (0/0)
|   |   |   |   |   0 = -2 : -5 (0/0)
|   |   |   |   |   0 = -1 : -1 (1/0)
|   |   |   |   |   0 = 0 : -2 (1/0)
|   |   |   |   |   0 = 1 : -5 (0/0)
|   |   |   |   |   0 = 2 : -5 (0/0)
|   |   |   |   |   0 = 3 : -5 (0/0)
|   |   |   |   |   0 = 4 : -5 (0/0)
|   |   |   |   |   0 = 5 : -5 (0/0)
|   |   |   |   2 = 1 : -5 (0/0)
|   |   |   |   2 = 2 : -5 (0/0)
|   |   |   |   2 = 3 : -5 (0/0)
|   |   |   |   2 = 4 : -5 (0/0)
|   |   |   |   2 = 5 : -5 (0/0)
|   |   |   9 = 0 : -5 (0/0)
|   |   |   9 = 1 : -5 (0/0)
|   |   |   9 = 2 : -5 (0/0)
|   |   |   9 = 3 : -5 (0/0)
|   |   |   9 = 4 : -5 (0/0)
|   |   |   9 = 5 : -5 (0/0)
|   |   1 = 1 : -3 (1/0)
|   |   1 = 2 : -5 (0/0)
|   |   1 = 3 : -5 (0/0)
|   |   1 = 4 : -5 (0/0)
|   |   1 = 5 : -5 (0/0)
|   7 = -1
|   |   9 = -5 : -5 (0/0)
|   |   9 = -4 : -5 (0/0)
|   |   9 = -3 : -5 (0/0)
|   |   9 = -2
|   |   |   2 = -5 : -5 (0/0)
|   |   |   2 = -4 : -5 (0/0)
|   |   |   2 = -3 : -5 (0/0)
|   |   |   2 = -2 : -1 (3/0)
|   |   |   2 = -1
|   |   |   |   3 = -5 : -5 (0/0)
|   |   |   |   3 = -4 : -5 (0/0)
|   |   |   |   3 = -3 : -5 (0/0)
|   |   |   |   3 = -2 : -2 (2/0)
|   |   |   |   3 = -1
|   |   |   |   |   0 = -5 : -5 (0/0)
|   |   |   |   |   0 = -4 : -5 (0/0)
|   |   |   |   |   0 = -3 : -5 (0/0)
|   |   |   |   |   0 = -2 : -5 (0/0)
|   |   |   |   |   0 = -1 : -3 (1/0)
|   |   |   |   |   0 = 0 : -2 (1/0)
|   |   |   |   |   0 = 1 : -5 (0/0)
|   |   |   |   |   0 = 2 : -5 (0/0)
|   |   |   |   |   0 = 3 : -5 (0/0)
|   |   |   |   |   0 = 4 : -5 (0/0)
|   |   |   |   |   0 = 5 : -5 (0/0)
|   |   |   |   3 = 0 : -5 (0/0)
|   |   |   |   3 = 1 : -5 (0/0)
|   |   |   |   3 = 2 : -5 (0/0)
|   |   |   |   3 = 3 : -5 (0/0)
|   |   |   |   3 = 4 : -5 (0/0)
|   |   |   |   3 = 5 : -5 (0/0)
|   |   |   2 = 0 : -2 (1/0)
|   |   |   2 = 1 : -5 (0/0)
|   |   |   2 = 2 : -5 (0/0)
|   |   |   2 = 3 : -5 (0/0)
|   |   |   2 = 4 : -5 (0/0)
|   |   |   2 = 5 : -5 (0/0)
|   |   9 = -1
|   |   |   5 = -5 : -5 (0/0)
|   |   |   5 = -4 : -5 (0/0)
|   |   |   5 = -3 : -5 (0/0)
|   |   |   5 = -2
|   |   |   |   2 = -5 : -5 (0/0)
|   |   |   |   2 = -4 : -5 (0/0)
|   |   |   |   2 = -3 : -5 (0/0)
|   |   |   |   2 = -2 : -2 (1/0)
|   |   |   |   2 = -1
|   |   |   |   |   0 = -5 : -5 (0/0)
|   |   |   |   |   0 = -4 : -5 (0/0)
|   |   |   |   |   0 = -3 : -5 (0/0)
|   |   |   |   |   0 = -2 : -5 (0/0)
|   |   |   |   |   0 = -1
|   |   |   |   |   |   6 = -5 : -5 (0/0)
|   |   |   |   |   |   6 = -4 : -5 (0/0)
|   |   |   |   |   |   6 = -3 : -5 (0/0)
|   |   |   |   |   |   6 = -2 : -1 (1/0)
|   |   |   |   |   |   6 = -1 : -2 (1/0)
|   |   |   |   |   |   6 = 0 : -5 (0/0)
|   |   |   |   |   |   6 = 1 : -5 (0/0)
|   |   |   |   |   |   6 = 2 : -5 (0/0)
|   |   |   |   |   |   6 = 3 : -5 (0/0)
|   |   |   |   |   |   6 = 4 : -5 (0/0)
|   |   |   |   |   |   6 = 5 : -5 (0/0)
|   |   |   |   |   0 = 0 : -1 (1/0)
|   |   |   |   |   0 = 1 : -5 (0/0)
|   |   |   |   |   0 = 2 : -5 (0/0)
|   |   |   |   |   0 = 3 : -5 (0/0)
|   |   |   |   |   0 = 4 : -5 (0/0)
|   |   |   |   |   0 = 5 : -5 (0/0)
|   |   |   |   2 = 0 : -1 (1/0)
|   |   |   |   2 = 1 : -5 (0/0)
|   |   |   |   2 = 2 : -5 (0/0)
|   |   |   |   2 = 3 : -5 (0/0)
|   |   |   |   2 = 4 : -5 (0/0)
|   |   |   |   2 = 5 : -5 (0/0)
|   |   |   5 = -1 : -1 (3/0)
|   |   |   5 = 0 : -5 (0/0)
|   |   |   5 = 1 : -5 (0/0)
|   |   |   5 = 2 : -5 (0/0)
|   |   |   5 = 3 : -5 (0/0)
|   |   |   5 = 4 : -5 (0/0)
|   |   |   5 = 5 : -5 (0/0)
|   |   9 = 0
|   |   |   1 = -5 : -5 (0/0)
|   |   |   1 = -4 : -5 (0/0)
|   |   |   1 = -3 : -5 (0/0)
|   |   |   1 = -2 : -5 (0/0)
|   |   |   1 = -1
|   |   |   |   5 = -5 : -5 (0/0)
|   |   |   |   5 = -4 : -5 (0/0)
|   |   |   |   5 = -3 : -5 (0/0)
|   |   |   |   5 = -2 : 0 (1/0)
|   |   |   |   5 = -1
|   |   |   |   |   0 = -5 : -5 (0/0)
|   |   |   |   |   0 = -4 : -5 (0/0)
|   |   |   |   |   0 = -3 : -5 (0/0)
|   |   |   |   |   0 = -2 : -5 (0/0)
|   |   |   |   |   0 = -1 : -2 (1/0)
|   |   |   |   |   0 = 0 : 1 (1/0)
|   |   |   |   |   0 = 1 : -5 (0/0)
|   |   |   |   |   0 = 2 : -5 (0/0)
|   |   |   |   |   0 = 3 : -5 (0/0)
|   |   |   |   |   0 = 4 : -5 (0/0)
|   |   |   |   |   0 = 5 : -5 (0/0)
|   |   |   |   5 = 0 : -5 (0/0)
|   |   |   |   5 = 1 : -5 (0/0)
|   |   |   |   5 = 2 : -5 (0/0)
|   |   |   |   5 = 3 : -5 (0/0)
|   |   |   |   5 = 4 : -5 (0/0)
|   |   |   |   5 = 5 : -5 (0/0)
|   |   |   1 = 0
|   |   |   |   2 = -5 : -5 (0/0)
|   |   |   |   2 = -4 : -5 (0/0)
|   |   |   |   2 = -3 : -5 (0/0)
|   |   |   |   2 = -2 : -5 (0/0)
|   |   |   |   2 = -1
|   |   |   |   |   0 = -5 : -5 (0/0)
|   |   |   |   |   0 = -4 : -5 (0/0)
|   |   |   |   |   0 = -3 : -5 (0/0)
|   |   |   |   |   0 = -2 : -5 (0/0)
|   |   |   |   |   0 = -1 : -5 (0/0)
|   |   |   |   |   0 = 0 : 0 (1/0)
|   |   |   |   |   0 = 1 : -1 (1/0)
|   |   |   |   |   0 = 2 : -5 (0/0)
|   |   |   |   |   0 = 3 : -5 (0/0)
|   |   |   |   |   0 = 4 : -5 (0/0)
|   |   |   |   |   0 = 5 : -5 (0/0)
|   |   |   |   2 = 0 : -1 (2/0)
|   |   |   |   2 = 1 : -5 (0/0)
|   |   |   |   2 = 2 : -5 (0/0)
|   |   |   |   2 = 3 : -5 (0/0)
|   |   |   |   2 = 4 : -5 (0/0)
|   |   |   |   2 = 5 : -5 (0/0)
|   |   |   1 = 1 : -5 (0/0)
|   |   |   1 = 2 : -5 (0/0)
|   |   |   1 = 3 : -5 (0/0)
|   |   |   1 = 4 : -5 (0/0)
|   |   |   1 = 5 : -5 (0/0)
|   |   9 = 1 : 0 (1/0)
|   |   9 = 2 : -5 (0/0)
|   |   9 = 3 : -5 (0/0)
|   |   9 = 4 : -5 (0/0)
|   |   9 = 5 : -5 (0/0)
|   7 = 0
|   |   8 = -5 : -5 (0/0)
|   |   8 = -4 : -5 (0/0)
|   |   8 = -3 : -5 (0/0)
|   |   8 = -2 : -1 (1/0)
|   |   8 = -1 : -1 (2/0)
|   |   8 = 0
|   |   |   0 = -5 : -5 (0/0)
|   |   |   0 = -4 : -5 (0/0)
|   |   |   0 = -3 : -5 (0/0)
|   |   |   0 = -2 : -5 (0/0)
|   |   |   0 = -1 : -1 (1/0)
|   |   |   0 = 0 : 0 (2/0)
|   |   |   0 = 1 : -5 (0/0)
|   |   |   0 = 2 : -5 (0/0)
|   |   |   0 = 3 : -5 (0/0)
|   |   |   0 = 4 : -5 (0/0)
|   |   |   0 = 5 : -5 (0/0)
|   |   8 = 1 : -5 (0/0)
|   |   8 = 2 : -5 (0/0)
|   |   8 = 3 : -5 (0/0)
|   |   8 = 4 : -5 (0/0)
|   |   8 = 5 : -5 (0/0)
|   7 = 1 : 1 (1/0)
|   7 = 2 : -5 (0/0)
|   7 = 3 : -5 (0/0)
|   7 = 4 : -5 (0/0)
|   7 = 5 : -5 (0/0)
4 = -1
|   8 = -5 : -5 (0/0)
|   8 = -4 : -5 (3/0)
|   8 = -3
|   |   6 = -5 : -5 (0/0)
|   |   6 = -4 : -5 (0/0)
|   |   6 = -3
|   |   |   2 = -5 : -5 (0/0)
|   |   |   2 = -4 : -5 (0/0)
|   |   |   2 = -3 : -5 (0/0)
|   |   |   2 = -2 : -5 (0/0)
|   |   |   2 = -1 : -2 (1/0)
|   |   |   2 = 0 : -3 (1/0)
|   |   |   2 = 1 : -5 (0/0)
|   |   |   2 = 2 : -5 (0/0)
|   |   |   2 = 3 : -5 (0/0)
|   |   |   2 = 4 : -5 (0/0)
|   |   |   2 = 5 : -5 (0/0)
|   |   6 = -2
|   |   |   9 = -5 : -5 (1/0)
|   |   |   9 = -4 : -5 (0/0)
|   |   |   9 = -3
|   |   |   |   0 = -5 : -5 (0/0)
|   |   |   |   0 = -4 : -5 (0/0)
|   |   |   |   0 = -3 : -5 (0/0)
|   |   |   |   0 = -2 : -5 (0/0)
|   |   |   |   0 = -1 : -2 (2/0)
|   |   |   |   0 = 0
|   |   |   |   |   2 = -5 : -5 (0/0)
|   |   |   |   |   2 = -4 : -5 (0/0)
|   |   |   |   |   2 = -3 : -5 (0/0)
|   |   |   |   |   2 = -2 : -5 (0/0)
|   |   |   |   |   2 = -1
|   |   |   |   |   |   1 = -5 : -5 (0/0)
|   |   |   |   |   |   1 = -4 : -5 (0/0)
|   |   |   |   |   |   1 = -3 : -5 (0/0)
|   |   |   |   |   |   1 = -2 : -5 (0/0)
|   |   |   |   |   |   1 = -1
|   |   |   |   |   |   |   3 = -5 : -5 (0/0)
|   |   |   |   |   |   |   3 = -4 : -5 (0/0)
|   |   |   |   |   |   |   3 = -3 : -5 (0/0)
|   |   |   |   |   |   |   3 = -2 : -4 (1/0)
|   |   |   |   |   |   |   3 = -1 : -3 (2/0)
|   |   |   |   |   |   |   3 = 0 : -5 (0/0)
|   |   |   |   |   |   |   3 = 1 : -5 (0/0)
|   |   |   |   |   |   |   3 = 2 : -5 (0/0)
|   |   |   |   |   |   |   3 = 3 : -5 (0/0)
|   |   |   |   |   |   |   3 = 4 : -5 (0/0)
|   |   |   |   |   |   |   3 = 5 : -5 (0/0)
|   |   |   |   |   |   1 = 0 : -4 (1/0)
|   |   |   |   |   |   1 = 1 : -5 (0/0)
|   |   |   |   |   |   1 = 2 : -5 (0/0)
|   |   |   |   |   |   1 = 3 : -5 (0/0)
|   |   |   |   |   |   1 = 4 : -5 (0/0)
|   |   |   |   |   |   1 = 5 : -5 (0/0)
|   |   |   |   |   2 = 0
|   |   |   |   |   |   3 = -5 : -5 (0/0)
|   |   |   |   |   |   3 = -4 : -5 (0/0)
|   |   |   |   |   |   3 = -3 : -5 (0/0)
|   |   |   |   |   |   3 = -2 : -5 (0/0)
|   |   |   |   |   |   3 = -1 : -4 (2/1)
|   |   |   |   |   |   3 = 0
|   |   |   |   |   |   |   5 = -5 : -5 (0/0)
|   |   |   |   |   |   |   5 = -4 : -5 (0/0)
|   |   |   |   |   |   |   5 = -3 : -5 (0/0)
|   |   |   |   |   |   |   5 = -2 : -3 (1/0)
|   |   |   |   |   |   |   5 = -1 : -2 (1/0)
|   |   |   |   |   |   |   5 = 0 : -5 (0/0)
|   |   |   |   |   |   |   5 = 1 : -5 (0/0)
|   |   |   |   |   |   |   5 = 2 : -5 (0/0)
|   |   |   |   |   |   |   5 = 3 : -5 (0/0)
|   |   |   |   |   |   |   5 = 4 : -5 (0/0)
|   |   |   |   |   |   |   5 = 5 : -5 (0/0)
|   |   |   |   |   |   3 = 1 : -2 (1/0)
|   |   |   |   |   |   3 = 2 : -5 (0/0)
|   |   |   |   |   |   3 = 3 : -5 (0/0)
|   |   |   |   |   |   3 = 4 : -5 (0/0)
|   |   |   |   |   |   3 = 5 : -5 (0/0)
|   |   |   |   |   2 = 1 : -5 (0/0)
|   |   |   |   |   2 = 2 : -5 (0/0)
|   |   |   |   |   2 = 3 : -5 (0/0)
|   |   |   |   |   2 = 4 : -5 (0/0)
|   |   |   |   |   2 = 5 : -5 (0/0)
|   |   |   |   0 = 1 : -5 (0/0)
|   |   |   |   0 = 2 : -5 (0/0)
|   |   |   |   0 = 3 : -5 (0/0)
|   |   |   |   0 = 4 : -5 (0/0)
|   |   |   |   0 = 5 : -5 (0/0)
|   |   |   9 = -2 : -3 (1/0)
|   |   |   9 = -1 : -5 (0/0)
|   |   |   9 = 0 : -5 (0/0)
|   |   |   9 = 1 : -5 (0/0)
|   |   |   9 = 2 : -5 (0/0)
|   |   |   9 = 3 : -5 (0/0)
|   |   |   9 = 4 : -5 (0/0)
|   |   |   9 = 5 : -5 (0/0)
|   |   6 = -1 : -3 (1/0)
|   |   6 = 0 : -5 (0/0)
|   |   6 = 1 : -5 (0/0)
|   |   6 = 2 : -5 (0/0)
|   |   6 = 3 : -5 (0/0)
|   |   6 = 4 : -5 (0/0)
|   |   6 = 5 : -5 (0/0)
|   8 = -2
|   |   9 = -5 : -5 (0/0)
|   |   9 = -4 : -5 (0/0)
|   |   9 = -3
|   |   |   1 = -5 : -5 (0/0)
|   |   |   1 = -4 : -5 (0/0)
|   |   |   1 = -3 : -5 (0/0)
|   |   |   1 = -2 : -5 (0/0)
|   |   |   1 = -1
|   |   |   |   2 = -5 : -5 (0/0)
|   |   |   |   2 = -4 : -5 (0/0)
|   |   |   |   2 = -3 : -5 (0/0)
|   |   |   |   2 = -2 : -5 (0/0)
|   |   |   |   2 = -1
|   |   |   |   |   5 = -5 : -5 (0/0)
|   |   |   |   |   5 = -4 : -5 (0/0)
|   |   |   |   |   5 = -3 : -5 (0/0)
|   |   |   |   |   5 = -2 : -3 (1/0)
|   |   |   |   |   5 = -1 : -4 (1/0)
|   |   |   |   |   5 = 0 : -5 (0/0)
|   |   |   |   |   5 = 1 : -5 (0/0)
|   |   |   |   |   5 = 2 : -5 (0/0)
|   |   |   |   |   5 = 3 : -5 (0/0)
|   |   |   |   |   5 = 4 : -5 (0/0)
|   |   |   |   |   5 = 5 : -5 (0/0)
|   |   |   |   2 = 0 : -3 (1/0)
|   |   |   |   2 = 1 : -5 (0/0)
|   |   |   |   2 = 2 : -5 (0/0)
|   |   |   |   2 = 3 : -5 (0/0)
|   |   |   |   2 = 4 : -5 (0/0)
|   |   |   |   2 = 5 : -5 (0/0)
|   |   |   1 = 0
|   |   |   |   0 = -5 : -5 (0/0)
|   |   |   |   0 = -4 : -5 (0/0)
|   |   |   |   0 = -3 : -5 (0/0)
|   |   |   |   0 = -2 : -5 (0/0)
|   |   |   |   0 = -1
|   |   |   |   |   2 = -5 : -5 (0/0)
|   |   |   |   |   2 = -4 : -5 (0/0)
|   |   |   |   |   2 = -3 : -5 (0/0)
|   |   |   |   |   2 = -2 : -5 (0/0)
|   |   |   |   |   2 = -1 : -3 (1/0)
|   |   |   |   |   2 = 0 : -2 (1/0)
|   |   |   |   |   2 = 1 : -5 (0/0)
|   |   |   |   |   2 = 2 : -5 (0/0)
|   |   |   |   |   2 = 3 : -5 (0/0)
|   |   |   |   |   2 = 4 : -5 (0/0)
|   |   |   |   |   2 = 5 : -5 (0/0)
|   |   |   |   0 = 0 : -3 (5/0)
|   |   |   |   0 = 1 : -5 (0/0)
|   |   |   |   0 = 2 : -5 (0/0)
|   |   |   |   0 = 3 : -5 (0/0)
|   |   |   |   0 = 4 : -5 (0/0)
|   |   |   |   0 = 5 : -5 (0/0)
|   |   |   1 = 1 : -3 (1/0)
|   |   |   1 = 2 : -5 (0/0)
|   |   |   1 = 3 : -5 (0/0)
|   |   |   1 = 4 : -5 (0/0)
|   |   |   1 = 5 : -5 (0/0)
|   |   9 = -2
|   |   |   1 = -5 : -5 (0/0)
|   |   |   1 = -4 : -5 (0/0)
|   |   |   1 = -3 : -2 (1/0)
|   |   |   1 = -2 : -3 (1/0)
|   |   |   1 = -1
|   |   |   |   6 = -5 : -5 (0/0)
|   |   |   |   6 = -4 : -5 (0/0)
|   |   |   |   6 = -3
|   |   |   |   |   3 = -5 : -5 (0/0)
|   |   |   |   |   3 = -4 : -5 (0/0)
|   |   |   |   |   3 = -3 : -5 (0/0)
|   |   |   |   |   3 = -2 : -3 (1/0)
|   |   |   |   |   3 = -1 : -2 (1/0)
|   |   |   |   |   3 = 0 : -5 (0/0)
|   |   |   |   |   3 = 1 : -5 (0/0)
|   |   |   |   |   3 = 2 : -5 (0/0)
|   |   |   |   |   3 = 3 : -5 (0/0)
|   |   |   |   |   3 = 4 : -5 (0/0)
|   |   |   |   |   3 = 5 : -5 (0/0)
|   |   |   |   6 = -2
|   |   |   |   |   0 = -5 : -5 (0/0)
|   |   |   |   |   0 = -4 : -5 (0/0)
|   |   |   |   |   0 = -3 : -5 (0/0)
|   |   |   |   |   0 = -2 : -5 (0/0)
|   |   |   |   |   0 = -1 : -3 (2/1)
|   |   |   |   |   0 = 0
|   |   |   |   |   |   7 = -5 : -5 (0/0)
|   |   |   |   |   |   7 = -4 : -5 (0/0)
|   |   |   |   |   |   7 = -3 : -2 (1/0)
|   |   |   |   |   |   7 = -2 : -1 (1/0)
|   |   |   |   |   |   7 = -1 : -5 (0/0)
|   |   |   |   |   |   7 = 0 : -5 (0/0)
|   |   |   |   |   |   7 = 1 : -5 (0/0)
|   |   |   |   |   |   7 = 2 : -5 (0/0)
|   |   |   |   |   |   7 = 3 : -5 (0/0)
|   |   |   |   |   |   7 = 4 : -5 (0/0)
|   |   |   |   |   |   7 = 5 : -5 (0/0)
|   |   |   |   |   0 = 1 : -5 (0/0)
|   |   |   |   |   0 = 2 : -5 (0/0)
|   |   |   |   |   0 = 3 : -5 (0/0)
|   |   |   |   |   0 = 4 : -5 (0/0)
|   |   |   |   |   0 = 5 : -5 (0/0)
|   |   |   |   6 = -1 : -2 (4/0)
|   |   |   |   6 = 0 : -5 (0/0)
|   |   |   |   6 = 1 : -5 (0/0)
|   |   |   |   6 = 2 : -5 (0/0)
|   |   |   |   6 = 3 : -5 (0/0)
|   |   |   |   6 = 4 : -5 (0/0)
|   |   |   |   6 = 5 : -5 (0/0)
|   |   |   1 = 0
|   |   |   |   5 = -5 : -5 (0/0)
|   |   |   |   5 = -4 : -5 (0/0)
|   |   |   |   5 = -3 : -5 (0/0)
|   |   |   |   5 = -2
|   |   |   |   |   7 = -5 : -5 (0/0)
|   |   |   |   |   7 = -4 : -5 (0/0)
|   |   |   |   |   7 = -3 : -5 (0/0)
|   |   |   |   |   7 = -2 : -2 (8/0)
|   |   |   |   |   7 = -1
|   |   |   |   |   |   2 = -5 : -5 (0/0)
|   |   |   |   |   |   2 = -4 : -5 (0/0)
|   |   |   |   |   |   2 = -3 : -5 (0/0)
|   |   |   |   |   |   2 = -2 : -5 (0/0)
|   |   |   |   |   |   2 = -1 : -2 (2/0)
|   |   |   |   |   |   2 = 0 : -1 (1/0)
|   |   |   |   |   |   2 = 1 : -5 (0/0)
|   |   |   |   |   |   2 = 2 : -5 (0/0)
|   |   |   |   |   |   2 = 3 : -5 (0/0)
|   |   |   |   |   |   2 = 4 : -5 (0/0)
|   |   |   |   |   |   2 = 5 : -5 (0/0)
|   |   |   |   |   7 = 0 : -5 (0/0)
|   |   |   |   |   7 = 1 : -5 (0/0)
|   |   |   |   |   7 = 2 : -5 (0/0)
|   |   |   |   |   7 = 3 : -5 (0/0)
|   |   |   |   |   7 = 4 : -5 (0/0)
|   |   |   |   |   7 = 5 : -5 (0/0)
|   |   |   |   5 = -1
|   |   |   |   |   6 = -5 : -5 (0/0)
|   |   |   |   |   6 = -4 : -5 (0/0)
|   |   |   |   |   6 = -3 : -5 (0/0)
|   |   |   |   |   6 = -2
|   |   |   |   |   |   3 = -5 : -5 (0/0)
|   |   |   |   |   |   3 = -4 : -5 (0/0)
|   |   |   |   |   |   3 = -3 : -5 (0/0)
|   |   |   |   |   |   3 = -2 : -5 (0/0)
|   |   |   |   |   |   3 = -1
|   |   |   |   |   |   |   7 = -5 : -5 (0/0)
|   |   |   |   |   |   |   7 = -4 : -5 (0/0)
|   |   |   |   |   |   |   7 = -3 : -5 (0/0)
|   |   |   |   |   |   |   7 = -2
|   |   |   |   |   |   |   |   2 = -5 : -5 (0/0)
|   |   |   |   |   |   |   |   2 = -4 : -5 (0/0)
|   |   |   |   |   |   |   |   2 = -3 : -5 (0/0)
|   |   |   |   |   |   |   |   2 = -2 : -5 (0/0)
|   |   |   |   |   |   |   |   2 = -1 : -1 (4/2)
|   |   |   |   |   |   |   |   2 = 0 : -2 (2/0)
|   |   |   |   |   |   |   |   2 = 1 : -5 (0/0)
|   |   |   |   |   |   |   |   2 = 2 : -5 (0/0)
|   |   |   |   |   |   |   |   2 = 3 : -5 (0/0)
|   |   |   |   |   |   |   |   2 = 4 : -5 (0/0)
|   |   |   |   |   |   |   |   2 = 5 : -5 (0/0)
|   |   |   |   |   |   |   7 = -1 : -3 (1/0)
|   |   |   |   |   |   |   7 = 0 : -5 (0/0)
|   |   |   |   |   |   |   7 = 1 : -5 (0/0)
|   |   |   |   |   |   |   7 = 2 : -5 (0/0)
|   |   |   |   |   |   |   7 = 3 : -5 (0/0)
|   |   |   |   |   |   |   7 = 4 : -5 (0/0)
|   |   |   |   |   |   |   7 = 5 : -5 (0/0)
|   |   |   |   |   |   3 = 0 : -3 (2/0)
|   |   |   |   |   |   3 = 1 : -5 (0/0)
|   |   |   |   |   |   3 = 2 : -5 (0/0)
|   |   |   |   |   |   3 = 3 : -5 (0/0)
|   |   |   |   |   |   3 = 4 : -5 (0/0)
|   |   |   |   |   |   3 = 5 : -5 (0/0)
|   |   |   |   |   6 = -1
|   |   |   |   |   |   3 = -5 : -5 (0/0)
|   |   |   |   |   |   3 = -4 : -5 (0/0)
|   |   |   |   |   |   3 = -3 : -5 (0/0)
|   |   |   |   |   |   3 = -2 : -5 (0/0)
|   |   |   |   |   |   3 = -1
|   |   |   |   |   |   |   2 = -5 : -5 (0/0)
|   |   |   |   |   |   |   2 = -4 : -5 (0/0)
|   |   |   |   |   |   |   2 = -3 : -5 (0/0)
|   |   |   |   |   |   |   2 = -2 : -5 (0/0)
|   |   |   |   |   |   |   2 = -1 : -2 (3/0)
|   |   |   |   |   |   |   2 = 0
|   |   |   |   |   |   |   |   7 = -5 : -5 (0/0)
|   |   |   |   |   |   |   |   7 = -4 : -5 (0/0)
|   |   |   |   |   |   |   |   7 = -3 : -5 (0/0)
|   |   |   |   |   |   |   |   7 = -2
|   |   |   |   |   |   |   |   |   0 = -5 : -5 (0/0)
|   |   |   |   |   |   |   |   |   0 = -4 : -5 (0/0)
|   |   |   |   |   |   |   |   |   0 = -3 : -5 (0/0)
|   |   |   |   |   |   |   |   |   0 = -2 : -5 (0/0)
|   |   |   |   |   |   |   |   |   0 = -1 : -5 (0/0)
|   |   |   |   |   |   |   |   |   0 = 0 : -2 (3/1)
|   |   |   |   |   |   |   |   |   0 = 1 : -2 (1/0)
|   |   |   |   |   |   |   |   |   0 = 2 : -5 (0/0)
|   |   |   |   |   |   |   |   |   0 = 3 : -5 (0/0)
|   |   |   |   |   |   |   |   |   0 = 4 : -5 (0/0)
|   |   |   |   |   |   |   |   |   0 = 5 : -5 (0/0)
|   |   |   |   |   |   |   |   7 = -1 : -2 (2/0)
|   |   |   |   |   |   |   |   7 = 0 : -5 (0/0)
|   |   |   |   |   |   |   |   7 = 1 : -5 (0/0)
|   |   |   |   |   |   |   |   7 = 2 : -5 (0/0)
|   |   |   |   |   |   |   |   7 = 3 : -5 (0/0)
|   |   |   |   |   |   |   |   7 = 4 : -5 (0/0)
|   |   |   |   |   |   |   |   7 = 5 : -5 (0/0)
|   |   |   |   |   |   |   2 = 1 : -5 (0/0)
|   |   |   |   |   |   |   2 = 2 : -5 (0/0)
|   |   |   |   |   |   |   2 = 3 : -5 (0/0)
|   |   |   |   |   |   |   2 = 4 : -5 (0/0)
|   |   |   |   |   |   |   2 = 5 : -5 (0/0)
|   |   |   |   |   |   3 = 0
|   |   |   |   |   |   |   7 = -5 : -5 (0/0)
|   |   |   |   |   |   |   7 = -4 : -5 (0/0)
|   |   |   |   |   |   |   7 = -3 : -5 (0/0)
|   |   |   |   |   |   |   7 = -2
|   |   |   |   |   |   |   |   0 = -5 : -5 (0/0)
|   |   |   |   |   |   |   |   0 = -4 : -5 (0/0)
|   |   |   |   |   |   |   |   0 = -3 : -5 (0/0)
|   |   |   |   |   |   |   |   0 = -2 : -5 (0/0)
|   |   |   |   |   |   |   |   0 = -1 : -1 (1/0)
|   |   |   |   |   |   |   |   0 = 0 : -2 (3/0)
|   |   |   |   |   |   |   |   0 = 1 : -1 (1/0)
|   |   |   |   |   |   |   |   0 = 2 : -5 (0/0)
|   |   |   |   |   |   |   |   0 = 3 : -5 (0/0)
|   |   |   |   |   |   |   |   0 = 4 : -5 (0/0)
|   |   |   |   |   |   |   |   0 = 5 : -5 (0/0)
|   |   |   |   |   |   |   7 = -1 : -2 (1/0)
|   |   |   |   |   |   |   7 = 0 : -5 (0/0)
|   |   |   |   |   |   |   7 = 1 : -5 (0/0)
|   |   |   |   |   |   |   7 = 2 : -5 (0/0)
|   |   |   |   |   |   |   7 = 3 : -5 (0/0)
|   |   |   |   |   |   |   7 = 4 : -5 (0/0)
|   |   |   |   |   |   |   7 = 5 : -5 (0/0)
|   |   |   |   |   |   3 = 1 : -5 (0/0)
|   |   |   |   |   |   3 = 2 : -5 (0/0)
|   |   |   |   |   |   3 = 3 : -5 (0/0)
|   |   |   |   |   |   3 = 4 : -5 (0/0)
|   |   |   |   |   |   3 = 5 : -5 (0/0)
|   |   |   |   |   6 = 0 : -5 (0/0)
|   |   |   |   |   6 = 1 : -5 (0/0)
|   |   |   |   |   6 = 2 : -5 (0/0)
|   |   |   |   |   6 = 3 : -5 (0/0)
|   |   |   |   |   6 = 4 : -5 (0/0)
|   |   |   |   |   6 = 5 : -5 (0/0)
|   |   |   |   5 = 0 : -2 (1/0)
|   |   |   |   5 = 1 : -5 (0/0)
|   |   |   |   5 = 2 : -5 (0/0)
|   |   |   |   5 = 3 : -5 (0/0)
|   |   |   |   5 = 4 : -5 (0/0)
|   |   |   |   5 = 5 : -5 (0/0)
|   |   |   1 = 1 : -2 (2/0)
|   |   |   1 = 2 : -5 (0/0)
|   |   |   1 = 3 : -5 (0/0)
|   |   |   1 = 4 : -5 (0/0)
|   |   |   1 = 5 : -5 (0/0)
|   |   9 = -1
|   |   |   3 = -5 : -5 (0/0)
|   |   |   3 = -4 : -5 (0/0)
|   |   |   3 = -3 : -5 (0/0)
|   |   |   3 = -2 : -2 (1/0)
|   |   |   3 = -1 : -1 (10/0)
|   |   |   3 = 0
|   |   |   |   1 = -5 : -5 (0/0)
|   |   |   |   1 = -4 : -5 (0/0)
|   |   |   |   1 = -3 : -5 (0/0)
|   |   |   |   1 = -2 : -5 (0/0)
|   |   |   |   1 = -1 : -1 (1/0)
|   |   |   |   1 = 0 : 0 (1/0)
|   |   |   |   1 = 1 : -5 (0/0)
|   |   |   |   1 = 2 : -5 (0/0)
|   |   |   |   1 = 3 : -5 (0/0)
|   |   |   |   1 = 4 : -5 (0/0)
|   |   |   |   1 = 5 : -5 (0/0)
|   |   |   3 = 1 : -5 (0/0)
|   |   |   3 = 2 : -5 (0/0)
|   |   |   3 = 3 : -5 (0/0)
|   |   |   3 = 4 : -5 (0/0)
|   |   |   3 = 5 : -5 (0/0)
|   |   9 = 0 : -5 (0/0)
|   |   9 = 1 : -5 (0/0)
|   |   9 = 2 : -5 (0/0)
|   |   9 = 3 : -5 (0/0)
|   |   9 = 4 : -5 (0/0)
|   |   9 = 5 : -5 (0/0)
|   8 = -1
|   |   7 = -5 : -5 (0/0)
|   |   7 = -4 : -5 (0/0)
|   |   7 = -3 : -5 (0/0)
|   |   7 = -2
|   |   |   0 = -5 : -5 (0/0)
|   |   |   0 = -4 : -5 (0/0)
|   |   |   0 = -3 : -5 (0/0)
|   |   |   0 = -2 : -5 (0/0)
|   |   |   0 = -1
|   |   |   |   3 = -5 : -5 (0/0)
|   |   |   |   3 = -4 : -5 (0/0)
|   |   |   |   3 = -3 : -5 (0/0)
|   |   |   |   3 = -2
|   |   |   |   |   2 = -5 : -5 (0/0)
|   |   |   |   |   2 = -4 : -5 (0/0)
|   |   |   |   |   2 = -3 : -5 (0/0)
|   |   |   |   |   2 = -2 : -2 (1/0)
|   |   |   |   |   2 = -1 : -1 (1/0)
|   |   |   |   |   2 = 0 : -5 (0/0)
|   |   |   |   |   2 = 1 : -5 (0/0)
|   |   |   |   |   2 = 2 : -5 (0/0)
|   |   |   |   |   2 = 3 : -5 (0/0)
|   |   |   |   |   2 = 4 : -5 (0/0)
|   |   |   |   |   2 = 5 : -5 (0/0)
|   |   |   |   3 = -1 : -2 (2/0)
|   |   |   |   3 = 0 : -5 (0/0)
|   |   |   |   3 = 1 : -5 (0/0)
|   |   |   |   3 = 2 : -5 (0/0)
|   |   |   |   3 = 3 : -5 (0/0)
|   |   |   |   3 = 4 : -5 (0/0)
|   |   |   |   3 = 5 : -5 (0/0)
|   |   |   0 = 0
|   |   |   |   2 = -5 : -5 (0/0)
|   |   |   |   2 = -4 : -5 (0/0)
|   |   |   |   2 = -3 : -5 (0/0)
|   |   |   |   2 = -2 : -5 (0/0)
|   |   |   |   2 = -1
|   |   |   |   |   1 = -5 : -5 (0/0)
|   |   |   |   |   1 = -4 : -5 (0/0)
|   |   |   |   |   1 = -3 : -5 (0/0)
|   |   |   |   |   1 = -2 : -5 (0/0)
|   |   |   |   |   1 = -1 : -1 (2/1)
|   |   |   |   |   1 = 0
|   |   |   |   |   |   5 = -5 : -5 (0/0)
|   |   |   |   |   |   5 = -4 : -5 (0/0)
|   |   |   |   |   |   5 = -3 : -5 (0/0)
|   |   |   |   |   |   5 = -2 : -1 (1/0)
|   |   |   |   |   |   5 = -1 : -1 (2/1)
|   |   |   |   |   |   5 = 0 : -5 (0/0)
|   |   |   |   |   |   5 = 1 : -5 (0/0)
|   |   |   |   |   |   5 = 2 : -5 (0/0)
|   |   |   |   |   |   5 = 3 : -5 (0/0)
|   |   |   |   |   |   5 = 4 : -5 (0/0)
|   |   |   |   |   |   5 = 5 : -5 (0/0)
|   |   |   |   |   1 = 1 : -5 (0/0)
|   |   |   |   |   1 = 2 : -5 (0/0)
|   |   |   |   |   1 = 3 : -5 (0/0)
|   |   |   |   |   1 = 4 : -5 (0/0)
|   |   |   |   |   1 = 5 : -5 (0/0)
|   |   |   |   2 = 0
|   |   |   |   |   6 = -5 : -5 (0/0)
|   |   |   |   |   6 = -4 : -5 (0/0)
|   |   |   |   |   6 = -3 : -5 (0/0)
|   |   |   |   |   6 = -2
|   |   |   |   |   |   3 = -5 : -5 (0/0)
|   |   |   |   |   |   3 = -4 : -5 (0/0)
|   |   |   |   |   |   3 = -3 : -5 (0/0)
|   |   |   |   |   |   3 = -2 : -5 (0/0)
|   |   |   |   |   |   3 = -1 : -2 (2/0)
|   |   |   |   |   |   3 = 0 : 0 (1/0)
|   |   |   |   |   |   3 = 1 : -5 (0/0)
|   |   |   |   |   |   3 = 2 : -5 (0/0)
|   |   |   |   |   |   3 = 3 : -5 (0/0)
|   |   |   |   |   |   3 = 4 : -5 (0/0)
|   |   |   |   |   |   3 = 5 : -5 (0/0)
|   |   |   |   |   6 = -1 : -2 (2/0)
|   |   |   |   |   6 = 0 : -5 (0/0)
|   |   |   |   |   6 = 1 : -5 (0/0)
|   |   |   |   |   6 = 2 : -5 (0/0)
|   |   |   |   |   6 = 3 : -5 (0/0)
|   |   |   |   |   6 = 4 : -5 (0/0)
|   |   |   |   |   6 = 5 : -5 (0/0)
|   |   |   |   2 = 1 : -2 (1/0)
|   |   |   |   2 = 2 : -5 (0/0)
|   |   |   |   2 = 3 : -5 (0/0)
|   |   |   |   2 = 4 : -5 (0/0)
|   |   |   |   2 = 5 : -5 (0/0)
|   |   |   0 = 1 : -1 (1/0)
|   |   |   0 = 2 : -5 (0/0)
|   |   |   0 = 3 : -5 (0/0)
|   |   |   0 = 4 : -5 (0/0)
|   |   |   0 = 5 : -5 (0/0)
|   |   7 = -1
|   |   |   9 = -5 : -5 (0/0)
|   |   |   9 = -4 : -5 (0/0)
|   |   |   9 = -3 : -3 (2/0)
|   |   |   9 = -2
|   |   |   |   5 = -5 : -5 (0/0)
|   |   |   |   5 = -4 : -5 (0/0)
|   |   |   |   5 = -3 : -5 (0/0)
|   |   |   |   5 = -2 : -5 (0/0)
|   |   |   |   5 = -1
|   |   |   |   |   2 = -5 : -5 (0/0)
|   |   |   |   |   2 = -4 : -5 (0/0)
|   |   |   |   |   2 = -3 : -5 (0/0)
|   |   |   |   |   2 = -2 : -5 (0/0)
|   |   |   |   |   2 = -1
|   |   |   |   |   |   0 = -5 : -5 (0/0)
|   |   |   |   |   |   0 = -4 : -5 (0/0)
|   |   |   |   |   |   0 = -3 : -5 (0/0)
|   |   |   |   |   |   0 = -2 : -5 (0/0)
|   |   |   |   |   |   0 = -1 : -2 (1/0)
|   |   |   |   |   |   0 = 0 : -1 (2/0)
|   |   |   |   |   |   0 = 1 : -5 (0/0)
|   |   |   |   |   |   0 = 2 : -5 (0/0)
|   |   |   |   |   |   0 = 3 : -5 (0/0)
|   |   |   |   |   |   0 = 4 : -5 (0/0)
|   |   |   |   |   |   0 = 5 : -5 (0/0)
|   |   |   |   |   2 = 0
|   |   |   |   |   |   6 = -5 : -5 (0/0)
|   |   |   |   |   |   6 = -4 : -5 (0/0)
|   |   |   |   |   |   6 = -3 : -5 (0/0)
|   |   |   |   |   |   6 = -2 : -1 (1/0)
|   |   |   |   |   |   6 = -1
|   |   |   |   |   |   |   3 = -5 : -5 (0/0)
|   |   |   |   |   |   |   3 = -4 : -5 (0/0)
|   |   |   |   |   |   |   3 = -3 : -5 (0/0)
|   |   |   |   |   |   |   3 = -2 : -5 (0/0)
|   |   |   |   |   |   |   3 = -1 : -4 (1/0)
|   |   |   |   |   |   |   3 = 0 : -1 (1/0)
|   |   |   |   |   |   |   3 = 1 : -5 (0/0)
|   |   |   |   |   |   |   3 = 2 : -5 (0/0)
|   |   |   |   |   |   |   3 = 3 : -5 (0/0)
|   |   |   |   |   |   |   3 = 4 : -5 (0/0)
|   |   |   |   |   |   |   3 = 5 : -5 (0/0)
|   |   |   |   |   |   6 = 0 : -5 (0/0)
|   |   |   |   |   |   6 = 1 : -5 (0/0)
|   |   |   |   |   |   6 = 2 : -5 (0/0)
|   |   |   |   |   |   6 = 3 : -5 (0/0)
|   |   |   |   |   |   6 = 4 : -5 (0/0)
|   |   |   |   |   |   6 = 5 : -5 (0/0)
|   |   |   |   |   2 = 1 : -5 (0/0)
|   |   |   |   |   2 = 2 : -5 (0/0)
|   |   |   |   |   2 = 3 : -5 (0/0)
|   |   |   |   |   2 = 4 : -5 (0/0)
|   |   |   |   |   2 = 5 : -5 (0/0)
|   |   |   |   5 = 0 : -3 (1/0)
|   |   |   |   5 = 1 : -5 (0/0)
|   |   |   |   5 = 2 : -5 (0/0)
|   |   |   |   5 = 3 : -5 (0/0)
|   |   |   |   5 = 4 : -5 (0/0)
|   |   |   |   5 = 5 : -5 (0/0)
|   |   |   9 = -1
|   |   |   |   3 = -5 : -5 (0/0)
|   |   |   |   3 = -4 : -5 (0/0)
|   |   |   |   3 = -3 : -5 (0/0)
|   |   |   |   3 = -2
|   |   |   |   |   0 = -5 : -5 (0/0)
|   |   |   |   |   0 = -4 : -5 (0/0)
|   |   |   |   |   0 = -3 : -5 (0/0)
|   |   |   |   |   0 = -2 : -5 (0/0)
|   |   |   |   |   0 = -1
|   |   |   |   |   |   1 = -5 : -5 (0/0)
|   |   |   |   |   |   1 = -4 : -5 (0/0)
|   |   |   |   |   |   1 = -3 : -5 (0/0)
|   |   |   |   |   |   1 = -2 : -2 (1/0)
|   |   |   |   |   |   1 = -1 : 0 (1/0)
|   |   |   |   |   |   1 = 0 : -5 (0/0)
|   |   |   |   |   |   1 = 1 : -5 (0/0)
|   |   |   |   |   |   1 = 2 : -5 (0/0)
|   |   |   |   |   |   1 = 3 : -5 (0/0)
|   |   |   |   |   |   1 = 4 : -5 (0/0)
|   |   |   |   |   |   1 = 5 : -5 (0/0)
|   |   |   |   |   0 = 0 : -1 (1/0)
|   |   |   |   |   0 = 1 : -5 (0/0)
|   |   |   |   |   0 = 2 : -5 (0/0)
|   |   |   |   |   0 = 3 : -5 (0/0)
|   |   |   |   |   0 = 4 : -5 (0/0)
|   |   |   |   |   0 = 5 : -5 (0/0)
|   |   |   |   3 = -1
|   |   |   |   |   5 = -5 : -5 (0/0)
|   |   |   |   |   5 = -4 : -5 (0/0)
|   |   |   |   |   5 = -3 : -5 (0/0)
|   |   |   |   |   5 = -2
|   |   |   |   |   |   2 = -5 : -5 (0/0)
|   |   |   |   |   |   2 = -4 : -5 (0/0)
|   |   |   |   |   |   2 = -3 : -5 (0/0)
|   |   |   |   |   |   2 = -2 : -1 (1/0)
|   |   |   |   |   |   2 = -1
|   |   |   |   |   |   |   6 = -5 : -5 (0/0)
|   |   |   |   |   |   |   6 = -4 : -5 (0/0)
|   |   |   |   |   |   |   6 = -3 : -5 (0/0)
|   |   |   |   |   |   |   6 = -2 : -2 (3/2)
|   |   |   |   |   |   |   6 = -1 : -1 (1/0)
|   |   |   |   |   |   |   6 = 0 : -5 (0/0)
|   |   |   |   |   |   |   6 = 1 : -5 (0/0)
|   |   |   |   |   |   |   6 = 2 : -5 (0/0)
|   |   |   |   |   |   |   6 = 3 : -5 (0/0)
|   |   |   |   |   |   |   6 = 4 : -5 (0/0)
|   |   |   |   |   |   |   6 = 5 : -5 (0/0)
|   |   |   |   |   |   2 = 0 : -5 (0/0)
|   |   |   |   |   |   2 = 1 : -5 (0/0)
|   |   |   |   |   |   2 = 2 : -5 (0/0)
|   |   |   |   |   |   2 = 3 : -5 (0/0)
|   |   |   |   |   |   2 = 4 : -5 (0/0)
|   |   |   |   |   |   2 = 5 : -5 (0/0)
|   |   |   |   |   5 = -1
|   |   |   |   |   |   0 = -5 : -5 (0/0)
|   |   |   |   |   |   0 = -4 : -5 (0/0)
|   |   |   |   |   |   0 = -3 : -5 (0/0)
|   |   |   |   |   |   0 = -2 : -5 (0/0)
|   |   |   |   |   |   0 = -1
|   |   |   |   |   |   |   1 = -5 : -5 (0/0)
|   |   |   |   |   |   |   1 = -4 : -5 (0/0)
|   |   |   |   |   |   |   1 = -3 : -5 (0/0)
|   |   |   |   |   |   |   1 = -2 : -5 (0/0)
|   |   |   |   |   |   |   1 = -1
|   |   |   |   |   |   |   |   6 = -5 : -5 (0/0)
|   |   |   |   |   |   |   |   6 = -4 : -5 (0/0)
|   |   |   |   |   |   |   |   6 = -3 : -5 (0/0)
|   |   |   |   |   |   |   |   6 = -2 : -1 (1/0)
|   |   |   |   |   |   |   |   6 = -1
|   |   |   |   |   |   |   |   |   2 = -5 : -5 (0/0)
|   |   |   |   |   |   |   |   |   2 = -4 : -5 (0/0)
|   |   |   |   |   |   |   |   |   2 = -3 : -5 (0/0)
|   |   |   |   |   |   |   |   |   2 = -2 : -5 (0/0)
|   |   |   |   |   |   |   |   |   2 = -1 : -1 (4/2)
|   |   |   |   |   |   |   |   |   2 = 0 : -1 (1/0)
|   |   |   |   |   |   |   |   |   2 = 1 : -5 (0/0)
|   |   |   |   |   |   |   |   |   2 = 2 : -5 (0/0)
|   |   |   |   |   |   |   |   |   2 = 3 : -5 (0/0)
|   |   |   |   |   |   |   |   |   2 = 4 : -5 (0/0)
|   |   |   |   |   |   |   |   |   2 = 5 : -5 (0/0)
|   |   |   |   |   |   |   |   6 = 0 : -5 (0/0)
|   |   |   |   |   |   |   |   6 = 1 : -5 (0/0)
|   |   |   |   |   |   |   |   6 = 2 : -5 (0/0)
|   |   |   |   |   |   |   |   6 = 3 : -5 (0/0)
|   |   |   |   |   |   |   |   6 = 4 : -5 (0/0)
|   |   |   |   |   |   |   |   6 = 5 : -5 (0/0)
|   |   |   |   |   |   |   1 = 0 : -1 (2/1)
|   |   |   |   |   |   |   1 = 1 : -5 (0/0)
|   |   |   |   |   |   |   1 = 2 : -5 (0/0)
|   |   |   |   |   |   |   1 = 3 : -5 (0/0)
|   |   |   |   |   |   |   1 = 4 : -5 (0/0)
|   |   |   |   |   |   |   1 = 5 : -5 (0/0)
|   |   |   |   |   |   0 = 0
|   |   |   |   |   |   |   1 = -5 : -5 (0/0)
|   |   |   |   |   |   |   1 = -4 : -5 (0/0)
|   |   |   |   |   |   |   1 = -3 : -5 (0/0)
|   |   |   |   |   |   |   1 = -2 : -5 (0/0)
|   |   |   |   |   |   |   1 = -1 : -1 (6/0)
|   |   |   |   |   |   |   1 = 0
|   |   |   |   |   |   |   |   6 = -5 : -5 (0/0)
|   |   |   |   |   |   |   |   6 = -4 : -5 (0/0)
|   |   |   |   |   |   |   |   6 = -3 : -5 (0/0)
|   |   |   |   |   |   |   |   6 = -2 : -1 (1/0)
|   |   |   |   |   |   |   |   6 = -1 : -1 (8/2)
|   |   |   |   |   |   |   |   6 = 0 : -5 (0/0)
|   |   |   |   |   |   |   |   6 = 1 : -5 (0/0)
|   |   |   |   |   |   |   |   6 = 2 : -5 (0/0)
|   |   |   |   |   |   |   |   6 = 3 : -5 (0/0)
|   |   |   |   |   |   |   |   6 = 4 : -5 (0/0)
|   |   |   |   |   |   |   |   6 = 5 : -5 (0/0)
|   |   |   |   |   |   |   1 = 1 : -5 (0/0)
|   |   |   |   |   |   |   1 = 2 : -5 (0/0)
|   |   |   |   |   |   |   1 = 3 : -5 (0/0)
|   |   |   |   |   |   |   1 = 4 : -5 (0/0)
|   |   |   |   |   |   |   1 = 5 : -5 (0/0)
|   |   |   |   |   |   0 = 1 : -5 (0/0)
|   |   |   |   |   |   0 = 2 : -5 (0/0)
|   |   |   |   |   |   0 = 3 : -5 (0/0)
|   |   |   |   |   |   0 = 4 : -5 (0/0)
|   |   |   |   |   |   0 = 5 : -5 (0/0)
|   |   |   |   |   5 = 0 : 0 (1/0)
|   |   |   |   |   5 = 1 : -5 (0/0)
|   |   |   |   |   5 = 2 : -5 (0/0)
|   |   |   |   |   5 = 3 : -5 (0/0)
|   |   |   |   |   5 = 4 : -5 (0/0)
|   |   |   |   |   5 = 5 : -5 (0/0)
|   |   |   |   3 = 0
|   |   |   |   |   0 = -5 : -5 (0/0)
|   |   |   |   |   0 = -4 : -5 (0/0)
|   |   |   |   |   0 = -3 : -5 (0/0)
|   |   |   |   |   0 = -2 : -5 (0/0)
|   |   |   |   |   0 = -1 : -2 (2/0)
|   |   |   |   |   0 = 0
|   |   |   |   |   |   5 = -5 : -5 (0/0)
|   |   |   |   |   |   5 = -4 : -5 (0/0)
|   |   |   |   |   |   5 = -3 : -5 (0/0)
|   |   |   |   |   |   5 = -2 : -5 (0/0)
|   |   |   |   |   |   5 = -1
|   |   |   |   |   |   |   1 = -5 : -5 (0/0)
|   |   |   |   |   |   |   1 = -4 : -5 (0/0)
|   |   |   |   |   |   |   1 = -3 : -5 (0/0)
|   |   |   |   |   |   |   1 = -2 : -5 (0/0)
|   |   |   |   |   |   |   1 = -1 : -1 (1/0)
|   |   |   |   |   |   |   1 = 0
|   |   |   |   |   |   |   |   2 = -5 : -5 (0/0)
|   |   |   |   |   |   |   |   2 = -4 : -5 (0/0)
|   |   |   |   |   |   |   |   2 = -3 : -5 (0/0)
|   |   |   |   |   |   |   |   2 = -2 : -5 (0/0)
|   |   |   |   |   |   |   |   2 = -1 : -1 (2/1)
|   |   |   |   |   |   |   |   2 = 0 : -1 (3/1)
|   |   |   |   |   |   |   |   2 = 1 : -5 (0/0)
|   |   |   |   |   |   |   |   2 = 2 : -5 (0/0)
|   |   |   |   |   |   |   |   2 = 3 : -5 (0/0)
|   |   |   |   |   |   |   |   2 = 4 : -5 (0/0)
|   |   |   |   |   |   |   |   2 = 5 : -5 (0/0)
|   |   |   |   |   |   |   1 = 1 : -5 (0/0)
|   |   |   |   |   |   |   1 = 2 : -5 (0/0)
|   |   |   |   |   |   |   1 = 3 : -5 (0/0)
|   |   |   |   |   |   |   1 = 4 : -5 (0/0)
|   |   |   |   |   |   |   1 = 5 : -5 (0/0)
|   |   |   |   |   |   5 = 0 : -1 (1/0)
|   |   |   |   |   |   5 = 1 : -5 (0/0)
|   |   |   |   |   |   5 = 2 : -5 (0/0)
|   |   |   |   |   |   5 = 3 : -5 (0/0)
|   |   |   |   |   |   5 = 4 : -5 (0/0)
|   |   |   |   |   |   5 = 5 : -5 (0/0)
|   |   |   |   |   0 = 1 : -5 (0/0)
|   |   |   |   |   0 = 2 : -5 (0/0)
|   |   |   |   |   0 = 3 : -5 (0/0)
|   |   |   |   |   0 = 4 : -5 (0/0)
|   |   |   |   |   0 = 5 : -5 (0/0)
|   |   |   |   3 = 1 : -1 (1/0)
|   |   |   |   3 = 2 : -5 (0/0)
|   |   |   |   3 = 3 : -5 (0/0)
|   |   |   |   3 = 4 : -5 (0/0)
|   |   |   |   3 = 5 : -5 (0/0)
|   |   |   9 = 0
|   |   |   |   3 = -5 : -5 (0/0)
|   |   |   |   3 = -4 : -5 (0/0)
|   |   |   |   3 = -3 : -5 (0/0)
|   |   |   |   3 = -2 : 0 (1/0)
|   |   |   |   3 = -1
|   |   |   |   |   5 = -5 : -5 (0/0)
|   |   |   |   |   5 = -4 : -5 (0/0)
|   |   |   |   |   5 = -3 : -5 (0/0)
|   |   |   |   |   5 = -2 : -1 (2/0)
|   |   |   |   |   5 = -1
|   |   |   |   |   |   0 = -5 : -5 (0/0)
|   |   |   |   |   |   0 = -4 : -5 (0/0)
|   |   |   |   |   |   0 = -3 : -5 (0/0)
|   |   |   |   |   |   0 = -2 : -5 (0/0)
|   |   |   |   |   |   0 = -1 : 0 (2/0)
|   |   |   |   |   |   0 = 0 : -1 (2/0)
|   |   |   |   |   |   0 = 1 : -5 (0/0)
|   |   |   |   |   |   0 = 2 : -5 (0/0)
|   |   |   |   |   |   0 = 3 : -5 (0/0)
|   |   |   |   |   |   0 = 4 : -5 (0/0)
|   |   |   |   |   |   0 = 5 : -5 (0/0)
|   |   |   |   |   5 = 0 : -5 (0/0)
|   |   |   |   |   5 = 1 : -5 (0/0)
|   |   |   |   |   5 = 2 : -5 (0/0)
|   |   |   |   |   5 = 3 : -5 (0/0)
|   |   |   |   |   5 = 4 : -5 (0/0)
|   |   |   |   |   5 = 5 : -5 (0/0)
|   |   |   |   3 = 0
|   |   |   |   |   6 = -5 : -5 (0/0)
|   |   |   |   |   6 = -4 : -5 (0/0)
|   |   |   |   |   6 = -3 : -5 (0/0)
|   |   |   |   |   6 = -2 : -5 (0/0)
|   |   |   |   |   6 = -1
|   |   |   |   |   |   1 = -5 : -5 (0/0)
|   |   |   |   |   |   1 = -4 : -5 (0/0)
|   |   |   |   |   |   1 = -3 : -5 (0/0)
|   |   |   |   |   |   1 = -2 : -5 (0/0)
|   |   |   |   |   |   1 = -1 : -5 (0/0)
|   |   |   |   |   |   1 = 0
|   |   |   |   |   |   |   0 = -5 : -5 (0/0)
|   |   |   |   |   |   |   0 = -4 : -5 (0/0)
|   |   |   |   |   |   |   0 = -3 : -5 (0/0)
|   |   |   |   |   |   |   0 = -2 : -5 (0/0)
|   |   |   |   |   |   |   0 = -1 : -5 (0/0)
|   |   |   |   |   |   |   0 = 0 : 0 (1/0)
|   |   |   |   |   |   |   0 = 1 : -1 (1/0)
|   |   |   |   |   |   |   0 = 2 : -5 (0/0)
|   |   |   |   |   |   |   0 = 3 : -5 (0/0)
|   |   |   |   |   |   |   0 = 4 : -5 (0/0)
|   |   |   |   |   |   |   0 = 5 : -5 (0/0)
|   |   |   |   |   |   1 = 1 : -1 (1/0)
|   |   |   |   |   |   1 = 2 : -5 (0/0)
|   |   |   |   |   |   1 = 3 : -5 (0/0)
|   |   |   |   |   |   1 = 4 : -5 (0/0)
|   |   |   |   |   |   1 = 5 : -5 (0/0)
|   |   |   |   |   6 = 0 : 0 (1/0)
|   |   |   |   |   6 = 1 : -5 (0/0)
|   |   |   |   |   6 = 2 : -5 (0/0)
|   |   |   |   |   6 = 3 : -5 (0/0)
|   |   |   |   |   6 = 4 : -5 (0/0)
|   |   |   |   |   6 = 5 : -5 (0/0)
|   |   |   |   3 = 1 : -5 (0/0)
|   |   |   |   3 = 2 : -5 (0/0)
|   |   |   |   3 = 3 : -5 (0/0)
|   |   |   |   3 = 4 : -5 (0/0)
|   |   |   |   3 = 5 : -5 (0/0)
|   |   |   9 = 1 : -5 (0/0)
|   |   |   9 = 2 : -5 (0/0)
|   |   |   9 = 3 : -5 (0/0)
|   |   |   9 = 4 : -5 (0/0)
|   |   |   9 = 5 : -5 (0/0)
|   |   7 = 0
|   |   |   9 = -5 : -5 (0/0)
|   |   |   9 = -4 : -5 (0/0)
|   |   |   9 = -3 : -5 (0/0)
|   |   |   9 = -2 : -2 (2/0)
|   |   |   9 = -1
|   |   |   |   3 = -5 : -5 (0/0)
|   |   |   |   3 = -4 : -5 (0/0)
|   |   |   |   3 = -3 : -5 (0/0)
|   |   |   |   3 = -2 : 0 (2/0)
|   |   |   |   3 = -1
|   |   |   |   |   0 = -5 : -5 (0/0)
|   |   |   |   |   0 = -4 : -5 (0/0)
|   |   |   |   |   0 = -3 : -5 (0/0)
|   |   |   |   |   0 = -2 : -5 (0/0)
|   |   |   |   |   0 = -1
|   |   |   |   |   |   1 = -5 : -5 (0/0)
|   |   |   |   |   |   1 = -4 : -5 (0/0)
|   |   |   |   |   |   1 = -3 : -5 (0/0)
|   |   |   |   |   |   1 = -2 : -1 (1/0)
|   |   |   |   |   |   1 = -1
|   |   |   |   |   |   |   6 = -5 : -5 (0/0)
|   |   |   |   |   |   |   6 = -4 : -5 (0/0)
|   |   |   |   |   |   |   6 = -3 : -5 (0/0)
|   |   |   |   |   |   |   6 = -2 : -5 (0/0)
|   |   |   |   |   |   |   6 = -1 : -1 (1/0)
|   |   |   |   |   |   |   6 = 0 : 0 (1/0)
|   |   |   |   |   |   |   6 = 1 : -5 (0/0)
|   |   |   |   |   |   |   6 = 2 : -5 (0/0)
|   |   |   |   |   |   |   6 = 3 : -5 (0/0)
|   |   |   |   |   |   |   6 = 4 : -5 (0/0)
|   |   |   |   |   |   |   6 = 5 : -5 (0/0)
|   |   |   |   |   |   1 = 0 : -5 (0/0)
|   |   |   |   |   |   1 = 1 : -5 (0/0)
|   |   |   |   |   |   1 = 2 : -5 (0/0)
|   |   |   |   |   |   1 = 3 : -5 (0/0)
|   |   |   |   |   |   1 = 4 : -5 (0/0)
|   |   |   |   |   |   1 = 5 : -5 (0/0)
|   |   |   |   |   0 = 0 : 0 (1/0)
|   |   |   |   |   0 = 1 : -1 (1/0)
|   |   |   |   |   0 = 2 : -5 (0/0)
|   |   |   |   |   0 = 3 : -5 (0/0)
|   |   |   |   |   0 = 4 : -5 (0/0)
|   |   |   |   |   0 = 5 : -5 (0/0)
|   |   |   |   3 = 0 : -1 (2/0)
|   |   |   |   3 = 1 : -5 (0/0)
|   |   |   |   3 = 2 : -5 (0/0)
|   |   |   |   3 = 3 : -5 (0/0)
|   |   |   |   3 = 4 : -5 (0/0)
|   |   |   |   3 = 5 : -5 (0/0)
|   |   |   9 = 0
|   |   |   |   6 = -5 : -5 (0/0)
|   |   |   |   6 = -4 : -5 (0/0)
|   |   |   |   6 = -3 : -5 (0/0)
|   |   |   |   6 = -2 : -5 (0/0)
|   |   |   |   6 = -1 : 0 (2/0)
|   |   |   |   6 = 0 : -1 (2/0)
|   |   |   |   6 = 1 : -5 (0/0)
|   |   |   |   6 = 2 : -5 (0/0)
|   |   |   |   6 = 3 : -5 (0/0)
|   |   |   |   6 = 4 : -5 (0/0)
|   |   |   |   6 = 5 : -5 (0/0)
|   |   |   9 = 1 : 0 (2/1)
|   |   |   9 = 2 : -5 (0/0)
|   |   |   9 = 3 : -5 (0/0)
|   |   |   9 = 4 : -5 (0/0)
|   |   |   9 = 5 : -5 (0/0)
|   |   7 = 1 : -5 (0/0)
|   |   7 = 2 : -5 (0/0)
|   |   7 = 3 : -5 (0/0)
|   |   7 = 4 : -5 (0/0)
|   |   7 = 5 : -5 (0/0)
|   8 = 0
|   |   1 = -5 : -5 (0/0)
|   |   1 = -4 : -5 (0/0)
|   |   1 = -3 : -5 (0/0)
|   |   1 = -2 : 0 (1/0)
|   |   1 = -1
|   |   |   2 = -5 : -5 (0/0)
|   |   |   2 = -4 : -5 (0/0)
|   |   |   2 = -3 : -5 (0/0)
|   |   |   2 = -2 : -1 (1/0)
|   |   |   2 = -1
|   |   |   |   0 = -5 : -5 (0/0)
|   |   |   |   0 = -4 : -5 (0/0)
|   |   |   |   0 = -3 : -5 (0/0)
|   |   |   |   0 = -2 : -5 (0/0)
|   |   |   |   0 = -1
|   |   |   |   |   9 = -5 : -5 (0/0)
|   |   |   |   |   9 = -4 : -5 (0/0)
|   |   |   |   |   9 = -3 : -5 (0/0)
|   |   |   |   |   9 = -2 : -5 (0/0)
|   |   |   |   |   9 = -1
|   |   |   |   |   |   7 = -5 : -5 (0/0)
|   |   |   |   |   |   7 = -4 : -5 (0/0)
|   |   |   |   |   |   7 = -3 : -5 (0/0)
|   |   |   |   |   |   7 = -2 : -5 (0/0)
|   |   |   |   |   |   7 = -1 : 0 (1/0)
|   |   |   |   |   |   7 = 0 : -2 (1/0)
|   |   |   |   |   |   7 = 1 : -5 (0/0)
|   |   |   |   |   |   7 = 2 : -5 (0/0)
|   |   |   |   |   |   7 = 3 : -5 (0/0)
|   |   |   |   |   |   7 = 4 : -5 (0/0)
|   |   |   |   |   |   7 = 5 : -5 (0/0)
|   |   |   |   |   9 = 0
|   |   |   |   |   |   6 = -5 : -5 (0/0)
|   |   |   |   |   |   6 = -4 : -5 (0/0)
|   |   |   |   |   |   6 = -3 : -5 (0/0)
|   |   |   |   |   |   6 = -2 : -5 (0/0)
|   |   |   |   |   |   6 = -1 : 0 (3/0)
|   |   |   |   |   |   6 = 0
|   |   |   |   |   |   |   5 = -5 : -5 (0/0)
|   |   |   |   |   |   |   5 = -4 : -5 (0/0)
|   |   |   |   |   |   |   5 = -3 : -5 (0/0)
|   |   |   |   |   |   |   5 = -2 : -5 (0/0)
|   |   |   |   |   |   |   5 = -1
|   |   |   |   |   |   |   |   7 = -5 : -5 (0/0)
|   |   |   |   |   |   |   |   7 = -4 : -5 (0/0)
|   |   |   |   |   |   |   |   7 = -3 : -5 (0/0)
|   |   |   |   |   |   |   |   7 = -2 : -5 (0/0)
|   |   |   |   |   |   |   |   7 = -1 : -5 (0/0)
|   |   |   |   |   |   |   |   7 = 0 : 0 (1/0)
|   |   |   |   |   |   |   |   7 = 1 : -1 (1/0)
|   |   |   |   |   |   |   |   7 = 2 : -5 (0/0)
|   |   |   |   |   |   |   |   7 = 3 : -5 (0/0)
|   |   |   |   |   |   |   |   7 = 4 : -5 (0/0)
|   |   |   |   |   |   |   |   7 = 5 : -5 (0/0)
|   |   |   |   |   |   |   5 = 0 : 0 (2/0)
|   |   |   |   |   |   |   5 = 1 : -5 (0/0)
|   |   |   |   |   |   |   5 = 2 : -5 (0/0)
|   |   |   |   |   |   |   5 = 3 : -5 (0/0)
|   |   |   |   |   |   |   5 = 4 : -5 (0/0)
|   |   |   |   |   |   |   5 = 5 : -5 (0/0)
|   |   |   |   |   |   6 = 1 : -5 (0/0)
|   |   |   |   |   |   6 = 2 : -5 (0/0)
|   |   |   |   |   |   6 = 3 : -5 (0/0)
|   |   |   |   |   |   6 = 4 : -5 (0/0)
|   |   |   |   |   |   6 = 5 : -5 (0/0)
|   |   |   |   |   9 = 1
|   |   |   |   |   |   5 = -5 : -5 (0/0)
|   |   |   |   |   |   5 = -4 : -5 (0/0)
|   |   |   |   |   |   5 = -3 : -5 (0/0)
|   |   |   |   |   |   5 = -2 : 1 (1/0)
|   |   |   |   |   |   5 = -1 : 2 (1/0)
|   |   |   |   |   |   5 = 0 : -5 (0/0)
|   |   |   |   |   |   5 = 1 : -5 (0/0)
|   |   |   |   |   |   5 = 2 : -5 (0/0)
|   |   |   |   |   |   5 = 3 : -5 (0/0)
|   |   |   |   |   |   5 = 4 : -5 (0/0)
|   |   |   |   |   |   5 = 5 : -5 (0/0)
|   |   |   |   |   9 = 2 : -5 (0/0)
|   |   |   |   |   9 = 3 : -5 (0/0)
|   |   |   |   |   9 = 4 : -5 (0/0)
|   |   |   |   |   9 = 5 : -5 (0/0)
|   |   |   |   0 = 0
|   |   |   |   |   5 = -5 : -5 (0/0)
|   |   |   |   |   5 = -4 : -5 (0/0)
|   |   |   |   |   5 = -3 : -5 (0/0)
|   |   |   |   |   5 = -2 : 0 (1/0)
|   |   |   |   |   5 = -1
|   |   |   |   |   |   6 = -5 : -5 (0/0)
|   |   |   |   |   |   6 = -4 : -5 (0/0)
|   |   |   |   |   |   6 = -3 : -5 (0/0)
|   |   |   |   |   |   6 = -2 : -5 (0/0)
|   |   |   |   |   |   6 = -1
|   |   |   |   |   |   |   7 = -5 : -5 (0/0)
|   |   |   |   |   |   |   7 = -4 : -5 (0/0)
|   |   |   |   |   |   |   7 = -3 : -5 (0/0)
|   |   |   |   |   |   |   7 = -2 : -5 (0/0)
|   |   |   |   |   |   |   7 = -1 : 0 (1/0)
|   |   |   |   |   |   |   7 = 0
|   |   |   |   |   |   |   |   9 = -5 : -5 (0/0)
|   |   |   |   |   |   |   |   9 = -4 : -5 (0/0)
|   |   |   |   |   |   |   |   9 = -3 : -5 (0/0)
|   |   |   |   |   |   |   |   9 = -2 : -5 (0/0)
|   |   |   |   |   |   |   |   9 = -1 : -1 (2/1)
|   |   |   |   |   |   |   |   9 = 0 : 0 (1/0)
|   |   |   |   |   |   |   |   9 = 1 : -5 (0/0)
|   |   |   |   |   |   |   |   9 = 2 : -5 (0/0)
|   |   |   |   |   |   |   |   9 = 3 : -5 (0/0)
|   |   |   |   |   |   |   |   9 = 4 : -5 (0/0)
|   |   |   |   |   |   |   |   9 = 5 : -5 (0/0)
|   |   |   |   |   |   |   7 = 1 : -5 (0/0)
|   |   |   |   |   |   |   7 = 2 : -5 (0/0)
|   |   |   |   |   |   |   7 = 3 : -5 (0/0)
|   |   |   |   |   |   |   7 = 4 : -5 (0/0)
|   |   |   |   |   |   |   7 = 5 : -5 (0/0)
|   |   |   |   |   |   6 = 0 : 0 (3/0)
|   |   |   |   |   |   6 = 1 : -5 (0/0)
|   |   |   |   |   |   6 = 2 : -5 (0/0)
|   |   |   |   |   |   6 = 3 : -5 (0/0)
|   |   |   |   |   |   6 = 4 : -5 (0/0)
|   |   |   |   |   |   6 = 5 : -5 (0/0)
|   |   |   |   |   5 = 0
|   |   |   |   |   |   9 = -5 : -5 (0/0)
|   |   |   |   |   |   9 = -4 : -5 (0/0)
|   |   |   |   |   |   9 = -3 : -5 (0/0)
|   |   |   |   |   |   9 = -2 : -2 (1/0)
|   |   |   |   |   |   9 = -1 : -5 (0/0)
|   |   |   |   |   |   9 = 0 : -1 (1/0)
|   |   |   |   |   |   9 = 1 : -1 (1/0)
|   |   |   |   |   |   9 = 2 : -5 (0/0)
|   |   |   |   |   |   9 = 3 : -5 (0/0)
|   |   |   |   |   |   9 = 4 : -5 (0/0)
|   |   |   |   |   |   9 = 5 : -5 (0/0)
|   |   |   |   |   5 = 1 : -5 (0/0)
|   |   |   |   |   5 = 2 : -5 (0/0)
|   |   |   |   |   5 = 3 : -5 (0/0)
|   |   |   |   |   5 = 4 : -5 (0/0)
|   |   |   |   |   5 = 5 : -5 (0/0)
|   |   |   |   0 = 1 : -1 (1/0)
|   |   |   |   0 = 2 : -5 (0/0)
|   |   |   |   0 = 3 : -5 (0/0)
|   |   |   |   0 = 4 : -5 (0/0)
|   |   |   |   0 = 5 : -5 (0/0)
|   |   |   2 = 0
|   |   |   |   3 = -5 : -5 (0/0)
|   |   |   |   3 = -4 : -5 (0/0)
|   |   |   |   3 = -3 : -5 (0/0)
|   |   |   |   3 = -2 : -5 (0/0)
|   |   |   |   3 = -1 : 0 (3/0)
|   |   |   |   3 = 0 : 1 (1/0)
|   |   |   |   3 = 1 : -5 (0/0)
|   |   |   |   3 = 2 : -5 (0/0)
|   |   |   |   3 = 3 : -5 (0/0)
|   |   |   |   3 = 4 : -5 (0/0)
|   |   |   |   3 = 5 : -5 (0/0)
|   |   |   2 = 1 : -5 (0/0)
|   |   |   2 = 2 : -5 (0/0)
|   |   |   2 = 3 : -5 (0/0)
|   |   |   2 = 4 : -5 (0/0)
|   |   |   2 = 5 : -5 (0/0)
|   |   1 = 0
|   |   |   2 = -5 : -5 (0/0)
|   |   |   2 = -4 : -5 (0/0)
|   |   |   2 = -3 : -5 (0/0)
|   |   |   2 = -2 : -5 (0/0)
|   |   |   2 = -1
|   |   |   |   9 = -5 : -5 (0/0)
|   |   |   |   9 = -4 : -5 (0/0)
|   |   |   |   9 = -3 : -5 (0/0)
|   |   |   |   9 = -2 : -5 (0/0)
|   |   |   |   9 = -1 : -1 (5/0)
|   |   |   |   9 = 0
|   |   |   |   |   0 = -5 : -5 (0/0)
|   |   |   |   |   0 = -4 : -5 (0/0)
|   |   |   |   |   0 = -3 : -5 (0/0)
|   |   |   |   |   0 = -2 : -5 (0/0)
|   |   |   |   |   0 = -1 : 0 (1/0)
|   |   |   |   |   0 = 0
|   |   |   |   |   |   5 = -5 : -5 (0/0)
|   |   |   |   |   |   5 = -4 : -5 (0/0)
|   |   |   |   |   |   5 = -3 : -5 (0/0)
|   |   |   |   |   |   5 = -2 : -5 (0/0)
|   |   |   |   |   |   5 = -1
|   |   |   |   |   |   |   6 = -5 : -5 (0/0)
|   |   |   |   |   |   |   6 = -4 : -5 (0/0)
|   |   |   |   |   |   |   6 = -3 : -5 (0/0)
|   |   |   |   |   |   |   6 = -2 : -1 (1/0)
|   |   |   |   |   |   |   6 = -1
|   |   |   |   |   |   |   |   3 = -5 : -5 (0/0)
|   |   |   |   |   |   |   |   3 = -4 : -5 (0/0)
|   |   |   |   |   |   |   |   3 = -3 : -5 (0/0)
|   |   |   |   |   |   |   |   3 = -2 : -5 (0/0)
|   |   |   |   |   |   |   |   3 = -1 : 0 (3/0)
|   |   |   |   |   |   |   |   3 = 0 : -1 (1/0)
|   |   |   |   |   |   |   |   3 = 1 : -5 (0/0)
|   |   |   |   |   |   |   |   3 = 2 : -5 (0/0)
|   |   |   |   |   |   |   |   3 = 3 : -5 (0/0)
|   |   |   |   |   |   |   |   3 = 4 : -5 (0/0)
|   |   |   |   |   |   |   |   3 = 5 : -5 (0/0)
|   |   |   |   |   |   |   6 = 0 : 0 (1/0)
|   |   |   |   |   |   |   6 = 1 : -5 (0/0)
|   |   |   |   |   |   |   6 = 2 : -5 (0/0)
|   |   |   |   |   |   |   6 = 3 : -5 (0/0)
|   |   |   |   |   |   |   6 = 4 : -5 (0/0)
|   |   |   |   |   |   |   6 = 5 : -5 (0/0)
|   |   |   |   |   |   5 = 0 : -1 (4/0)
|   |   |   |   |   |   5 = 1 : -5 (0/0)
|   |   |   |   |   |   5 = 2 : -5 (0/0)
|   |   |   |   |   |   5 = 3 : -5 (0/0)
|   |   |   |   |   |   5 = 4 : -5 (0/0)
|   |   |   |   |   |   5 = 5 : -5 (0/0)
|   |   |   |   |   0 = 1 : 0 (1/0)
|   |   |   |   |   0 = 2 : -5 (0/0)
|   |   |   |   |   0 = 3 : -5 (0/0)
|   |   |   |   |   0 = 4 : -5 (0/0)
|   |   |   |   |   0 = 5 : -5 (0/0)
|   |   |   |   9 = 1 : 1 (1/0)
|   |   |   |   9 = 2 : -5 (0/0)
|   |   |   |   9 = 3 : -5 (0/0)
|   |   |   |   9 = 4 : -5 (0/0)
|   |   |   |   9 = 5 : -5 (0/0)
|   |   |   2 = 0
|   |   |   |   7 = -5 : -5 (0/0)
|   |   |   |   7 = -4 : -5 (0/0)
|   |   |   |   7 = -3 : -5 (0/0)
|   |   |   |   7 = -2 : -5 (0/0)
|   |   |   |   7 = -1
|   |   |   |   |   9 = -5 : -5 (0/0)
|   |   |   |   |   9 = -4 : -5 (0/0)
|   |   |   |   |   9 = -3 : -5 (0/0)
|   |   |   |   |   9 = -2 : -5 (0/0)
|   |   |   |   |   9 = -1
|   |   |   |   |   |   5 = -5 : -5 (0/0)
|   |   |   |   |   |   5 = -4 : -5 (0/0)
|   |   |   |   |   |   5 = -3 : -5 (0/0)
|   |   |   |   |   |   5 = -2 : -5 (0/0)
|   |   |   |   |   |   5 = -1 : -1 (2/0)
|   |   |   |   |   |   5 = 0 : 0 (1/0)
|   |   |   |   |   |   5 = 1 : -5 (0/0)
|   |   |   |   |   |   5 = 2 : -5 (0/0)
|   |   |   |   |   |   5 = 3 : -5 (0/0)
|   |   |   |   |   |   5 = 4 : -5 (0/0)
|   |   |   |   |   |   5 = 5 : -5 (0/0)
|   |   |   |   |   9 = 0
|   |   |   |   |   |   5 = -5 : -5 (0/0)
|   |   |   |   |   |   5 = -4 : -5 (0/0)
|   |   |   |   |   |   5 = -3 : -5 (0/0)
|   |   |   |   |   |   5 = -2 : -5 (0/0)
|   |   |   |   |   |   5 = -1
|   |   |   |   |   |   |   3 = -5 : -5 (0/0)
|   |   |   |   |   |   |   3 = -4 : -5 (0/0)
|   |   |   |   |   |   |   3 = -3 : -5 (0/0)
|   |   |   |   |   |   |   3 = -2 : -5 (0/0)
|   |   |   |   |   |   |   3 = -1 : 0 (1/0)
|   |   |   |   |   |   |   3 = 0 : 0 (2/1)
|   |   |   |   |   |   |   3 = 1 : -5 (0/0)
|   |   |   |   |   |   |   3 = 2 : -5 (0/0)
|   |   |   |   |   |   |   3 = 3 : -5 (0/0)
|   |   |   |   |   |   |   3 = 4 : -5 (0/0)
|   |   |   |   |   |   |   3 = 5 : -5 (0/0)
|   |   |   |   |   |   5 = 0 : 0 (1/0)
|   |   |   |   |   |   5 = 1 : -5 (0/0)
|   |   |   |   |   |   5 = 2 : -5 (0/0)
|   |   |   |   |   |   5 = 3 : -5 (0/0)
|   |   |   |   |   |   5 = 4 : -5 (0/0)
|   |   |   |   |   |   5 = 5 : -5 (0/0)
|   |   |   |   |   9 = 1 : -5 (0/0)
|   |   |   |   |   9 = 2 : -5 (0/0)
|   |   |   |   |   9 = 3 : -5 (0/0)
|   |   |   |   |   9 = 4 : -5 (0/0)
|   |   |   |   |   9 = 5 : -5 (0/0)
|   |   |   |   7 = 0
|   |   |   |   |   9 = -5 : -5 (0/0)
|   |   |   |   |   9 = -4 : -5 (0/0)
|   |   |   |   |   9 = -3 : -5 (0/0)
|   |   |   |   |   9 = -2 : -5 (0/0)
|   |   |   |   |   9 = -1 : 0 (2/0)
|   |   |   |   |   9 = 0
|   |   |   |   |   |   3 = -5 : -5 (0/0)
|   |   |   |   |   |   3 = -4 : -5 (0/0)
|   |   |   |   |   |   3 = -3 : -5 (0/0)
|   |   |   |   |   |   3 = -2 : -5 (0/0)
|   |   |   |   |   |   3 = -1
|   |   |   |   |   |   |   5 = -5 : -5 (0/0)
|   |   |   |   |   |   |   5 = -4 : -5 (0/0)
|   |   |   |   |   |   |   5 = -3 : -5 (0/0)
|   |   |   |   |   |   |   5 = -2 : -5 (0/0)
|   |   |   |   |   |   |   5 = -1
|   |   |   |   |   |   |   |   6 = -5 : -5 (0/0)
|   |   |   |   |   |   |   |   6 = -4 : -5 (0/0)
|   |   |   |   |   |   |   |   6 = -3 : -5 (0/0)
|   |   |   |   |   |   |   |   6 = -2 : -5 (0/0)
|   |   |   |   |   |   |   |   6 = -1 : -1 (2/1)
|   |   |   |   |   |   |   |   6 = 0 : 0 (5/0)
|   |   |   |   |   |   |   |   6 = 1 : -5 (0/0)
|   |   |   |   |   |   |   |   6 = 2 : -5 (0/0)
|   |   |   |   |   |   |   |   6 = 3 : -5 (0/0)
|   |   |   |   |   |   |   |   6 = 4 : -5 (0/0)
|   |   |   |   |   |   |   |   6 = 5 : -5 (0/0)
|   |   |   |   |   |   |   5 = 0 : 0 (3/1)
|   |   |   |   |   |   |   5 = 1 : -5 (0/0)
|   |   |   |   |   |   |   5 = 2 : -5 (0/0)
|   |   |   |   |   |   |   5 = 3 : -5 (0/0)
|   |   |   |   |   |   |   5 = 4 : -5 (0/0)
|   |   |   |   |   |   |   5 = 5 : -5 (0/0)
|   |   |   |   |   |   3 = 0
|   |   |   |   |   |   |   5 = -5 : -5 (0/0)
|   |   |   |   |   |   |   5 = -4 : -5 (0/0)
|   |   |   |   |   |   |   5 = -3 : -5 (0/0)
|   |   |   |   |   |   |   5 = -2 : -5 (0/0)
|   |   |   |   |   |   |   5 = -1
|   |   |   |   |   |   |   |   6 = -5 : -5 (0/0)
|   |   |   |   |   |   |   |   6 = -4 : -5 (0/0)
|   |   |   |   |   |   |   |   6 = -3 : -5 (0/0)
|   |   |   |   |   |   |   |   6 = -2 : -5 (0/0)
|   |   |   |   |   |   |   |   6 = -1 : 0 (5/0)
|   |   |   |   |   |   |   |   6 = 0 : -1 (2/1)
|   |   |   |   |   |   |   |   6 = 1 : -5 (0/0)
|   |   |   |   |   |   |   |   6 = 2 : -5 (0/0)
|   |   |   |   |   |   |   |   6 = 3 : -5 (0/0)
|   |   |   |   |   |   |   |   6 = 4 : -5 (0/0)
|   |   |   |   |   |   |   |   6 = 5 : -5 (0/0)
|   |   |   |   |   |   |   5 = 0 : 0 (4/0)
|   |   |   |   |   |   |   5 = 1 : -5 (0/0)
|   |   |   |   |   |   |   5 = 2 : -5 (0/0)
|   |   |   |   |   |   |   5 = 3 : -5 (0/0)
|   |   |   |   |   |   |   5 = 4 : -5 (0/0)
|   |   |   |   |   |   |   5 = 5 : -5 (0/0)
|   |   |   |   |   |   3 = 1 : -5 (0/0)
|   |   |   |   |   |   3 = 2 : -5 (0/0)
|   |   |   |   |   |   3 = 3 : -5 (0/0)
|   |   |   |   |   |   3 = 4 : -5 (0/0)
|   |   |   |   |   |   3 = 5 : -5 (0/0)
|   |   |   |   |   9 = 1 : 0 (1/0)
|   |   |   |   |   9 = 2 : 2 (1/0)
|   |   |   |   |   9 = 3 : -5 (0/0)
|   |   |   |   |   9 = 4 : -5 (0/0)
|   |   |   |   |   9 = 5 : -5 (0/0)
|   |   |   |   7 = 1 : -5 (0/0)
|   |   |   |   7 = 2 : -5 (0/0)
|   |   |   |   7 = 3 : -5 (0/0)
|   |   |   |   7 = 4 : -5 (0/0)
|   |   |   |   7 = 5 : -5 (0/0)
|   |   |   2 = 1
|   |   |   |   7 = -5 : -5 (0/0)
|   |   |   |   7 = -4 : -5 (0/0)
|   |   |   |   7 = -3 : -5 (0/0)
|   |   |   |   7 = -2 : -5 (0/0)
|   |   |   |   7 = -1 : 1 (1/0)
|   |   |   |   7 = 0 : -1 (1/0)
|   |   |   |   7 = 1 : -5 (0/0)
|   |   |   |   7 = 2 : -5 (0/0)
|   |   |   |   7 = 3 : -5 (0/0)
|   |   |   |   7 = 4 : -5 (0/0)
|   |   |   |   7 = 5 : -5 (0/0)
|   |   |   2 = 2 : -5 (0/0)
|   |   |   2 = 3 : -5 (0/0)
|   |   |   2 = 4 : -5 (0/0)
|   |   |   2 = 5 : -5 (0/0)
|   |   1 = 1
|   |   |   6 = -5 : -5 (0/0)
|   |   |   6 = -4 : -5 (0/0)
|   |   |   6 = -3 : -5 (0/0)
|   |   |   6 = -2 : 0 (1/0)
|   |   |   6 = -1
|   |   |   |   0 = -5 : -5 (0/0)
|   |   |   |   0 = -4 : -5 (0/0)
|   |   |   |   0 = -3 : -5 (0/0)
|   |   |   |   0 = -2 : -5 (0/0)
|   |   |   |   0 = -1 : -5 (0/0)
|   |   |   |   0 = 0 : 1 (1/0)
|   |   |   |   0 = 1
|   |   |   |   |   3 = -5 : -5 (0/0)
|   |   |   |   |   3 = -4 : -5 (0/0)
|   |   |   |   |   3 = -3 : -5 (0/0)
|   |   |   |   |   3 = -2 : -5 (0/0)
|   |   |   |   |   3 = -1 : -5 (0/0)
|   |   |   |   |   3 = 0 : 1 (1/0)
|   |   |   |   |   3 = 1 : 0 (1/0)
|   |   |   |   |   3 = 2 : -5 (0/0)
|   |   |   |   |   3 = 3 : -5 (0/0)
|   |   |   |   |   3 = 4 : -5 (0/0)
|   |   |   |   |   3 = 5 : -5 (0/0)
|   |   |   |   0 = 2 : -5 (0/0)
|   |   |   |   0 = 3 : -5 (0/0)
|   |   |   |   0 = 4 : -5 (0/0)
|   |   |   |   0 = 5 : -5 (0/0)
|   |   |   6 = 0 : -5 (0/0)
|   |   |   6 = 1 : -5 (0/0)
|   |   |   6 = 2 : -5 (0/0)
|   |   |   6 = 3 : -5 (0/0)
|   |   |   6 = 4 : -5 (0/0)
|   |   |   6 = 5 : -5 (0/0)
|   |   1 = 2 : -5 (0/0)
|   |   1 = 3 : -5 (0/0)
|   |   1 = 4 : -5 (0/0)
|   |   1 = 5 : -5 (0/0)
|   8 = 1
|   |   5 = -5 : -5 (0/0)
|   |   5 = -4 : -5 (0/0)
|   |   5 = -3 : -5 (0/0)
|   |   5 = -2 : -5 (0/0)
|   |   5 = -1
|   |   |   2 = -5 : -5 (0/0)
|   |   |   2 = -4 : -5 (0/0)
|   |   |   2 = -3 : -5 (0/0)
|   |   |   2 = -2 : -5 (0/0)
|   |   |   2 = -1
|   |   |   |   6 = -5 : -5 (0/0)
|   |   |   |   6 = -4 : -5 (0/0)
|   |   |   |   6 = -3 : -5 (0/0)
|   |   |   |   6 = -2 : -5 (0/0)
|   |   |   |   6 = -1
|   |   |   |   |   0 = -5 : -5 (0/0)
|   |   |   |   |   0 = -4 : -5 (0/0)
|   |   |   |   |   0 = -3 : -5 (0/0)
|   |   |   |   |   0 = -2 : -5 (0/0)
|   |   |   |   |   0 = -1 : 0 (1/0)
|   |   |   |   |   0 = 0
|   |   |   |   |   |   1 = -5 : -5 (0/0)
|   |   |   |   |   |   1 = -4 : -5 (0/0)
|   |   |   |   |   |   1 = -3 : -5 (0/0)
|   |   |   |   |   |   1 = -2 : -5 (0/0)
|   |   |   |   |   |   1 = -1 : 0 (1/0)
|   |   |   |   |   |   1 = 0 : 1 (1/0)
|   |   |   |   |   |   1 = 1 : -5 (0/0)
|   |   |   |   |   |   1 = 2 : -5 (0/0)
|   |   |   |   |   |   1 = 3 : -5 (0/0)
|   |   |   |   |   |   1 = 4 : -5 (0/0)
|   |   |   |   |   |   1 = 5 : -5 (0/0)
|   |   |   |   |   0 = 1 : -5 (0/0)
|   |   |   |   |   0 = 2 : -5 (0/0)
|   |   |   |   |   0 = 3 : -5 (0/0)
|   |   |   |   |   0 = 4 : -5 (0/0)
|   |   |   |   |   0 = 5 : -5 (0/0)
|   |   |   |   6 = 0 : 1 (1/0)
|   |   |   |   6 = 1 : -5 (0/0)
|   |   |   |   6 = 2 : -5 (0/0)
|   |   |   |   6 = 3 : -5 (0/0)
|   |   |   |   6 = 4 : -5 (0/0)
|   |   |   |   6 = 5 : -5 (0/0)
|   |   |   2 = 0
|   |   |   |   1 = -5 : -5 (0/0)
|   |   |   |   1 = -4 : -5 (0/0)
|   |   |   |   1 = -3 : -5 (0/0)
|   |   |   |   1 = -2 : -5 (0/0)
|   |   |   |   1 = -1 : 2 (1/0)
|   |   |   |   1 = 0 : 0 (1/0)
|   |   |   |   1 = 1 : -5 (0/0)
|   |   |   |   1 = 2 : -5 (0/0)
|   |   |   |   1 = 3 : -5 (0/0)
|   |   |   |   1 = 4 : -5 (0/0)
|   |   |   |   1 = 5 : -5 (0/0)
|   |   |   2 = 1 : 0 (1/0)
|   |   |   2 = 2 : -5 (0/0)
|   |   |   2 = 3 : -5 (0/0)
|   |   |   2 = 4 : -5 (0/0)
|   |   |   2 = 5 : -5 (0/0)
|   |   5 = 0
|   |   |   7 = -5 : -5 (0/0)
|   |   |   7 = -4 : -5 (0/0)
|   |   |   7 = -3 : -5 (0/0)
|   |   |   7 = -2 : -5 (0/0)
|   |   |   7 = -1 : -5 (0/0)
|   |   |   7 = 0
|   |   |   |   3 = -5 : -5 (0/0)
|   |   |   |   3 = -4 : -5 (0/0)
|   |   |   |   3 = -3 : -5 (0/0)
|   |   |   |   3 = -2 : -5 (0/0)
|   |   |   |   3 = -1 : 0 (2/0)
|   |   |   |   3 = 0 : 1 (1/0)
|   |   |   |   3 = 1 : -5 (0/0)
|   |   |   |   3 = 2 : -5 (0/0)
|   |   |   |   3 = 3 : -5 (0/0)
|   |   |   |   3 = 4 : -5 (0/0)
|   |   |   |   3 = 5 : -5 (0/0)
|   |   |   7 = 1
|   |   |   |   1 = -5 : -5 (0/0)
|   |   |   |   1 = -4 : -5 (0/0)
|   |   |   |   1 = -3 : -5 (0/0)
|   |   |   |   1 = -2 : -5 (0/0)
|   |   |   |   1 = -1
|   |   |   |   |   6 = -5 : -5 (0/0)
|   |   |   |   |   6 = -4 : -5 (0/0)
|   |   |   |   |   6 = -3 : -5 (0/0)
|   |   |   |   |   6 = -2 : -5 (0/0)
|   |   |   |   |   6 = -1 : -5 (0/0)
|   |   |   |   |   6 = 0 : 2 (1/0)
|   |   |   |   |   6 = 1 : 0 (1/0)
|   |   |   |   |   6 = 2 : -5 (0/0)
|   |   |   |   |   6 = 3 : -5 (0/0)
|   |   |   |   |   6 = 4 : -5 (0/0)
|   |   |   |   |   6 = 5 : -5 (0/0)
|   |   |   |   1 = 0
|   |   |   |   |   9 = -5 : -5 (0/0)
|   |   |   |   |   9 = -4 : -5 (0/0)
|   |   |   |   |   9 = -3 : -5 (0/0)
|   |   |   |   |   9 = -2 : -5 (0/0)
|   |   |   |   |   9 = -1 : -5 (0/0)
|   |   |   |   |   9 = 0 : -5 (0/0)
|   |   |   |   |   9 = 1 : 1 (1/0)
|   |   |   |   |   9 = 2 : 2 (1/0)
|   |   |   |   |   9 = 3 : -5 (0/0)
|   |   |   |   |   9 = 4 : -5 (0/0)
|   |   |   |   |   9 = 5 : -5 (0/0)
|   |   |   |   1 = 1 : 2 (1/0)
|   |   |   |   1 = 2 : -5 (0/0)
|   |   |   |   1 = 3 : -5 (0/0)
|   |   |   |   1 = 4 : -5 (0/0)
|   |   |   |   1 = 5 : -5 (0/0)
|   |   |   7 = 2 : -5 (0/0)
|   |   |   7 = 3 : -5 (0/0)
|   |   |   7 = 4 : -5 (0/0)
|   |   |   7 = 5 : -5 (0/0)
|   |   5 = 1 : 1 (2/0)
|   |   5 = 2 : -5 (0/0)
|   |   5 = 3 : -5 (0/0)
|   |   5 = 4 : -5 (0/0)
|   |   5 = 5 : -5 (0/0)
|   8 = 2
|   |   3 = -5 : -5 (0/0)
|   |   3 = -4 : -5 (0/0)
|   |   3 = -3 : -5 (0/0)
|   |   3 = -2 : 2 (1/0)
|   |   3 = -1
|   |   |   5 = -5 : -5 (0/0)
|   |   |   5 = -4 : -5 (0/0)
|   |   |   5 = -3 : -5 (0/0)
|   |   |   5 = -2 : -5 (0/0)
|   |   |   5 = -1 : 1 (1/0)
|   |   |   5 = 0 : 2 (3/0)
|   |   |   5 = 1 : -5 (0/0)
|   |   |   5 = 2 : -5 (0/0)
|   |   |   5 = 3 : -5 (0/0)
|   |   |   5 = 4 : -5 (0/0)
|   |   |   5 = 5 : -5 (0/0)
|   |   3 = 0 : 1 (2/0)
|   |   3 = 1 : -5 (0/0)
|   |   3 = 2 : -5 (0/0)
|   |   3 = 3 : -5 (0/0)
|   |   3 = 4 : -5 (0/0)
|   |   3 = 5 : -5 (0/0)
|   8 = 3 : 2 (1/0)
|   8 = 4 : -5 (0/0)
|   8 = 5 : -5 (0/0)
4 = 0
|   5 = -5 : -5 (0/0)
|   5 = -4 : -5 (0/0)
|   5 = -3 : -5 (0/0)
|   5 = -2 : -3 (1/0)
|   5 = -1
|   |   8 = -5 : -5 (0/0)
|   |   8 = -4 : -4 (1/0)
|   |   8 = -3 : -3 (1/0)
|   |   8 = -2
|   |   |   9 = -5 : -5 (0/0)
|   |   |   9 = -4 : -5 (0/0)
|   |   |   9 = -3 : -3 (3/0)
|   |   |   9 = -2
|   |   |   |   0 = -5 : -5 (0/0)
|   |   |   |   0 = -4 : -5 (0/0)
|   |   |   |   0 = -3 : -5 (0/0)
|   |   |   |   0 = -2 : -5 (0/0)
|   |   |   |   0 = -1 : -5 (0/0)
|   |   |   |   0 = 0
|   |   |   |   |   7 = -5 : -5 (0/0)
|   |   |   |   |   7 = -4 : -5 (0/0)
|   |   |   |   |   7 = -3 : -5 (0/0)
|   |   |   |   |   7 = -2
|   |   |   |   |   |   1 = -5 : -5 (0/0)
|   |   |   |   |   |   1 = -4 : -5 (0/0)
|   |   |   |   |   |   1 = -3 : -5 (0/0)
|   |   |   |   |   |   1 = -2 : -5 (0/0)
|   |   |   |   |   |   1 = -1
|   |   |   |   |   |   |   3 = -5 : -5 (0/0)
|   |   |   |   |   |   |   3 = -4 : -5 (0/0)
|   |   |   |   |   |   |   3 = -3 : -5 (0/0)
|   |   |   |   |   |   |   3 = -2 : -5 (0/0)
|   |   |   |   |   |   |   3 = -1 : -3 (1/0)
|   |   |   |   |   |   |   3 = 0 : -2 (1/0)
|   |   |   |   |   |   |   3 = 1 : -5 (0/0)
|   |   |   |   |   |   |   3 = 2 : -5 (0/0)
|   |   |   |   |   |   |   3 = 3 : -5 (0/0)
|   |   |   |   |   |   |   3 = 4 : -5 (0/0)
|   |   |   |   |   |   |   3 = 5 : -5 (0/0)
|   |   |   |   |   |   1 = 0
|   |   |   |   |   |   |   2 = -5 : -5 (0/0)
|   |   |   |   |   |   |   2 = -4 : -5 (0/0)
|   |   |   |   |   |   |   2 = -3 : -5 (0/0)
|   |   |   |   |   |   |   2 = -2 : -5 (0/0)
|   |   |   |   |   |   |   2 = -1 : -2 (1/0)
|   |   |   |   |   |   |   2 = 0
|   |   |   |   |   |   |   |   6 = -5 : -5 (0/0)
|   |   |   |   |   |   |   |   6 = -4 : -5 (0/0)
|   |   |   |   |   |   |   |   6 = -3 : -5 (0/0)
|   |   |   |   |   |   |   |   6 = -2 : -3 (2/1)
|   |   |   |   |   |   |   |   6 = -1
|   |   |   |   |   |   |   |   |   3 = -5 : -5 (0/0)
|   |   |   |   |   |   |   |   |   3 = -4 : -5 (0/0)
|   |   |   |   |   |   |   |   |   3 = -3 : -5 (0/0)
|   |   |   |   |   |   |   |   |   3 = -2 : -5 (0/0)
|   |   |   |   |   |   |   |   |   3 = -1 : -2 (1/0)
|   |   |   |   |   |   |   |   |   3 = 0 : -3 (2/1)
|   |   |   |   |   |   |   |   |   3 = 1 : -5 (0/0)
|   |   |   |   |   |   |   |   |   3 = 2 : -5 (0/0)
|   |   |   |   |   |   |   |   |   3 = 3 : -5 (0/0)
|   |   |   |   |   |   |   |   |   3 = 4 : -5 (0/0)
|   |   |   |   |   |   |   |   |   3 = 5 : -5 (0/0)
|   |   |   |   |   |   |   |   6 = 0 : -5 (0/0)
|   |   |   |   |   |   |   |   6 = 1 : -5 (0/0)
|   |   |   |   |   |   |   |   6 = 2 : -5 (0/0)
|   |   |   |   |   |   |   |   6 = 3 : -5 (0/0)
|   |   |   |   |   |   |   |   6 = 4 : -5 (0/0)
|   |   |   |   |   |   |   |   6 = 5 : -5 (0/0)
|   |   |   |   |   |   |   2 = 1 : -5 (0/0)
|   |   |   |   |   |   |   2 = 2 : -5 (0/0)
|   |   |   |   |   |   |   2 = 3 : -5 (0/0)
|   |   |   |   |   |   |   2 = 4 : -5 (0/0)
|   |   |   |   |   |   |   2 = 5 : -5 (0/0)
|   |   |   |   |   |   1 = 1 : -5 (0/0)
|   |   |   |   |   |   1 = 2 : -5 (0/0)
|   |   |   |   |   |   1 = 3 : -5 (0/0)
|   |   |   |   |   |   1 = 4 : -5 (0/0)
|   |   |   |   |   |   1 = 5 : -5 (0/0)
|   |   |   |   |   7 = -1 : -2 (7/0)
|   |   |   |   |   7 = 0 : -5 (0/0)
|   |   |   |   |   7 = 1 : -5 (0/0)
|   |   |   |   |   7 = 2 : -5 (0/0)
|   |   |   |   |   7 = 3 : -5 (0/0)
|   |   |   |   |   7 = 4 : -5 (0/0)
|   |   |   |   |   7 = 5 : -5 (0/0)
|   |   |   |   0 = 1
|   |   |   |   |   2 = -5 : -5 (0/0)
|   |   |   |   |   2 = -4 : -5 (0/0)
|   |   |   |   |   2 = -3 : -5 (0/0)
|   |   |   |   |   2 = -2 : -5 (0/0)
|   |   |   |   |   2 = -1 : -5 (0/0)
|   |   |   |   |   2 = 0 : -1 (1/0)
|   |   |   |   |   2 = 1 : -3 (1/0)
|   |   |   |   |   2 = 2 : -5 (0/0)
|   |   |   |   |   2 = 3 : -5 (0/0)
|   |   |   |   |   2 = 4 : -5 (0/0)
|   |   |   |   |   2 = 5 : -5 (0/0)
|   |   |   |   0 = 2 : -5 (0/0)
|   |   |   |   0 = 3 : -5 (0/0)
|   |   |   |   0 = 4 : -5 (0/0)
|   |   |   |   0 = 5 : -5 (0/0)
|   |   |   9 = -1
|   |   |   |   3 = -5 : -5 (0/0)
|   |   |   |   3 = -4 : -5 (0/0)
|   |   |   |   3 = -3 : -5 (0/0)
|   |   |   |   3 = -2 : -5 (0/0)
|   |   |   |   3 = -1 : -1 (1/0)
|   |   |   |   3 = 0 : -1 (2/0)
|   |   |   |   3 = 1 : -2 (1/0)
|   |   |   |   3 = 2 : -5 (0/0)
|   |   |   |   3 = 3 : -5 (0/0)
|   |   |   |   3 = 4 : -5 (0/0)
|   |   |   |   3 = 5 : -5 (0/0)
|   |   |   9 = 0 : -5 (0/0)
|   |   |   9 = 1 : -5 (0/0)
|   |   |   9 = 2 : -5 (0/0)
|   |   |   9 = 3 : -5 (0/0)
|   |   |   9 = 4 : -5 (0/0)
|   |   |   9 = 5 : -5 (0/0)
|   |   8 = -1
|   |   |   9 = -5 : -5 (0/0)
|   |   |   9 = -4 : -5 (0/0)
|   |   |   9 = -3 : -5 (0/0)
|   |   |   9 = -2
|   |   |   |   2 = -5 : -5 (0/0)
|   |   |   |   2 = -4 : -5 (0/0)
|   |   |   |   2 = -3 : -2 (1/0)
|   |   |   |   2 = -2 : -5 (0/0)
|   |   |   |   2 = -1 : -5 (0/0)
|   |   |   |   2 = 0 : -2 (8/0)
|   |   |   |   2 = 1 : -1 (1/0)
|   |   |   |   2 = 2 : -5 (0/0)
|   |   |   |   2 = 3 : -5 (0/0)
|   |   |   |   2 = 4 : -5 (0/0)
|   |   |   |   2 = 5 : -5 (0/0)
|   |   |   9 = -1
|   |   |   |   6 = -5 : -5 (0/0)
|   |   |   |   6 = -4 : -5 (0/0)
|   |   |   |   6 = -3 : -5 (0/0)
|   |   |   |   6 = -2 : 0 (1/0)
|   |   |   |   6 = -1
|   |   |   |   |   1 = -5 : -5 (0/0)
|   |   |   |   |   1 = -4 : -5 (0/0)
|   |   |   |   |   1 = -3 : -5 (0/0)
|   |   |   |   |   1 = -2 : -5 (0/0)
|   |   |   |   |   1 = -1 : -1 (1/0)
|   |   |   |   |   1 = 0
|   |   |   |   |   |   3 = -5 : -5 (0/0)
|   |   |   |   |   |   3 = -4 : -5 (0/0)
|   |   |   |   |   |   3 = -3 : -5 (0/0)
|   |   |   |   |   |   3 = -2 : -5 (0/0)
|   |   |   |   |   |   3 = -1 : 0 (1/0)
|   |   |   |   |   |   3 = 0 : -1 (4/1)
|   |   |   |   |   |   3 = 1 : -2 (1/0)
|   |   |   |   |   |   3 = 2 : -5 (0/0)
|   |   |   |   |   |   3 = 3 : -5 (0/0)
|   |   |   |   |   |   3 = 4 : -5 (0/0)
|   |   |   |   |   |   3 = 5 : -5 (0/0)
|   |   |   |   |   1 = 1 : -1 (2/0)
|   |   |   |   |   1 = 2 : -5 (0/0)
|   |   |   |   |   1 = 3 : -5 (0/0)
|   |   |   |   |   1 = 4 : -5 (0/0)
|   |   |   |   |   1 = 5 : -5 (0/0)
|   |   |   |   6 = 0 : -1 (3/0)
|   |   |   |   6 = 1 : -5 (0/0)
|   |   |   |   6 = 2 : -5 (0/0)
|   |   |   |   6 = 3 : -5 (0/0)
|   |   |   |   6 = 4 : -5 (0/0)
|   |   |   |   6 = 5 : -5 (0/0)
|   |   |   9 = 0
|   |   |   |   7 = -5 : -5 (0/0)
|   |   |   |   7 = -4 : -5 (0/0)
|   |   |   |   7 = -3 : -5 (0/0)
|   |   |   |   7 = -2 : -5 (0/0)
|   |   |   |   7 = -1
|   |   |   |   |   2 = -5 : -5 (0/0)
|   |   |   |   |   2 = -4 : -5 (0/0)
|   |   |   |   |   2 = -3 : -5 (0/0)
|   |   |   |   |   2 = -2 : -5 (0/0)
|   |   |   |   |   2 = -1 : -5 (0/0)
|   |   |   |   |   2 = 0 : -1 (4/2)
|   |   |   |   |   2 = 1 : 0 (1/0)
|   |   |   |   |   2 = 2 : -5 (0/0)
|   |   |   |   |   2 = 3 : -5 (0/0)
|   |   |   |   |   2 = 4 : -5 (0/0)
|   |   |   |   |   2 = 5 : -5 (0/0)
|   |   |   |   7 = 0 : 0 (1/0)
|   |   |   |   7 = 1 : -5 (0/0)
|   |   |   |   7 = 2 : -5 (0/0)
|   |   |   |   7 = 3 : -5 (0/0)
|   |   |   |   7 = 4 : -5 (0/0)
|   |   |   |   7 = 5 : -5 (0/0)
|   |   |   9 = 1 : -5 (0/0)
|   |   |   9 = 2 : -5 (0/0)
|   |   |   9 = 3 : -5 (0/0)
|   |   |   9 = 4 : -5 (0/0)
|   |   |   9 = 5 : -5 (0/0)
|   |   8 = 0
|   |   |   2 = -5 : -5 (0/0)
|   |   |   2 = -4 : -5 (0/0)
|   |   |   2 = -3 : -5 (0/0)
|   |   |   2 = -2 : -5 (0/0)
|   |   |   2 = -1
|   |   |   |   7 = -5 : -5 (0/0)
|   |   |   |   7 = -4 : -5 (0/0)
|   |   |   |   7 = -3 : -5 (0/0)
|   |   |   |   7 = -2 : -5 (0/0)
|   |   |   |   7 = -1
|   |   |   |   |   9 = -5 : -5 (0/0)
|   |   |   |   |   9 = -4 : -5 (0/0)
|   |   |   |   |   9 = -3 : -5 (0/0)
|   |   |   |   |   9 = -2 : -5 (0/0)
|   |   |   |   |   9 = -1
|   |   |   |   |   |   3 = -5 : -5 (0/0)
|   |   |   |   |   |   3 = -4 : -5 (0/0)
|   |   |   |   |   |   3 = -3 : -5 (0/0)
|   |   |   |   |   |   3 = -2 : -5 (0/0)
|   |   |   |   |   |   3 = -1 : -1 (1/0)
|   |   |   |   |   |   3 = 0 : 0 (1/0)
|   |   |   |   |   |   3 = 1 : -5 (0/0)
|   |   |   |   |   |   3 = 2 : -5 (0/0)
|   |   |   |   |   |   3 = 3 : -5 (0/0)
|   |   |   |   |   |   3 = 4 : -5 (0/0)
|   |   |   |   |   |   3 = 5 : -5 (0/0)
|   |   |   |   |   9 = 0 : 0 (2/0)
|   |   |   |   |   9 = 1 : 0 (1/0)
|   |   |   |   |   9 = 2 : -5 (0/0)
|   |   |   |   |   9 = 3 : -5 (0/0)
|   |   |   |   |   9 = 4 : -5 (0/0)
|   |   |   |   |   9 = 5 : -5 (0/0)
|   |   |   |   7 = 0
|   |   |   |   |   1 = -5 : -5 (0/0)
|   |   |   |   |   1 = -4 : -5 (0/0)
|   |   |   |   |   1 = -3 : -5 (0/0)
|   |   |   |   |   1 = -2 : -5 (0/0)
|   |   |   |   |   1 = -1
|   |   |   |   |   |   0 = -5 : -5 (0/0)
|   |   |   |   |   |   0 = -4 : -5 (0/0)
|   |   |   |   |   |   0 = -3 : -5 (0/0)
|   |   |   |   |   |   0 = -2 : -5 (0/0)
|   |   |   |   |   |   0 = -1 : 0 (1/0)
|   |   |   |   |   |   0 = 0 : -1 (1/0)
|   |   |   |   |   |   0 = 1 : -5 (0/0)
|   |   |   |   |   |   0 = 2 : -5 (0/0)
|   |   |   |   |   |   0 = 3 : -5 (0/0)
|   |   |   |   |   |   0 = 4 : -5 (0/0)
|   |   |   |   |   |   0 = 5 : -5 (0/0)
|   |   |   |   |   1 = 0
|   |   |   |   |   |   9 = -5 : -5 (0/0)
|   |   |   |   |   |   9 = -4 : -5 (0/0)
|   |   |   |   |   |   9 = -3 : -5 (0/0)
|   |   |   |   |   |   9 = -2 : -5 (0/0)
|   |   |   |   |   |   9 = -1 : -5 (0/0)
|   |   |   |   |   |   9 = 0
|   |   |   |   |   |   |   6 = -5 : -5 (0/0)
|   |   |   |   |   |   |   6 = -4 : -5 (0/0)
|   |   |   |   |   |   |   6 = -3 : -5 (0/0)
|   |   |   |   |   |   |   6 = -2 : -5 (0/0)
|   |   |   |   |   |   |   6 = -1 : 0 (1/0)
|   |   |   |   |   |   |   6 = 0 : 0 (2/1)
|   |   |   |   |   |   |   6 = 1 : -5 (0/0)
|   |   |   |   |   |   |   6 = 2 : -5 (0/0)
|   |   |   |   |   |   |   6 = 3 : -5 (0/0)
|   |   |   |   |   |   |   6 = 4 : -5 (0/0)
|   |   |   |   |   |   |   6 = 5 : -5 (0/0)
|   |   |   |   |   |   9 = 1 : 1 (1/0)
|   |   |   |   |   |   9 = 2 : -5 (0/0)
|   |   |   |   |   |   9 = 3 : -5 (0/0)
|   |   |   |   |   |   9 = 4 : -5 (0/0)
|   |   |   |   |   |   9 = 5 : -5 (0/0)
|   |   |   |   |   1 = 1 : -5 (0/0)
|   |   |   |   |   1 = 2 : -5 (0/0)
|   |   |   |   |   1 = 3 : -5 (0/0)
|   |   |   |   |   1 = 4 : -5 (0/0)
|   |   |   |   |   1 = 5 : -5 (0/0)
|   |   |   |   7 = 1 : 0 (1/0)
|   |   |   |   7 = 2 : -5 (0/0)
|   |   |   |   7 = 3 : -5 (0/0)
|   |   |   |   7 = 4 : -5 (0/0)
|   |   |   |   7 = 5 : -5 (0/0)
|   |   |   2 = 0
|   |   |   |   6 = -5 : -5 (0/0)
|   |   |   |   6 = -4 : -5 (0/0)
|   |   |   |   6 = -3 : -5 (0/0)
|   |   |   |   6 = -2 : -5 (0/0)
|   |   |   |   6 = -1
|   |   |   |   |   3 = -5 : -5 (0/0)
|   |   |   |   |   3 = -4 : -5 (0/0)
|   |   |   |   |   3 = -3 : -5 (0/0)
|   |   |   |   |   3 = -2 : -5 (0/0)
|   |   |   |   |   3 = -1 : -1 (1/0)
|   |   |   |   |   3 = 0
|   |   |   |   |   |   1 = -5 : -5 (0/0)
|   |   |   |   |   |   1 = -4 : -5 (0/0)
|   |   |   |   |   |   1 = -3 : -5 (0/0)
|   |   |   |   |   |   1 = -2 : -5 (0/0)
|   |   |   |   |   |   1 = -1 : -1 (1/0)
|   |   |   |   |   |   1 = 0
|   |   |   |   |   |   |   9 = -5 : -5 (0/0)
|   |   |   |   |   |   |   9 = -4 : -5 (0/0)
|   |   |   |   |   |   |   9 = -3 : -5 (0/0)
|   |   |   |   |   |   |   9 = -2 : -5 (0/0)
|   |   |   |   |   |   |   9 = -1
|   |   |   |   |   |   |   |   7 = -5 : -5 (0/0)
|   |   |   |   |   |   |   |   7 = -4 : -5 (0/0)
|   |   |   |   |   |   |   |   7 = -3 : -5 (0/0)
|   |   |   |   |   |   |   |   7 = -2 : -5 (0/0)
|   |   |   |   |   |   |   |   7 = -1 : -1 (1/0)
|   |   |   |   |   |   |   |   7 = 0 : -2 (2/1)
|   |   |   |   |   |   |   |   7 = 1 : -5 (0/0)
|   |   |   |   |   |   |   |   7 = 2 : -5 (0/0)
|   |   |   |   |   |   |   |   7 = 3 : -5 (0/0)
|   |   |   |   |   |   |   |   7 = 4 : -5 (0/0)
|   |   |   |   |   |   |   |   7 = 5 : -5 (0/0)
|   |   |   |   |   |   |   9 = 0
|   |   |   |   |   |   |   |   7 = -5 : -5 (0/0)
|   |   |   |   |   |   |   |   7 = -4 : -5 (0/0)
|   |   |   |   |   |   |   |   7 = -3 : -5 (0/0)
|   |   |   |   |   |   |   |   7 = -2 : -5 (0/0)
|   |   |   |   |   |   |   |   7 = -1 : -1 (2/1)
|   |   |   |   |   |   |   |   7 = 0 : 0 (1/0)
|   |   |   |   |   |   |   |   7 = 1 : -5 (0/0)
|   |   |   |   |   |   |   |   7 = 2 : -5 (0/0)
|   |   |   |   |   |   |   |   7 = 3 : -5 (0/0)
|   |   |   |   |   |   |   |   7 = 4 : -5 (0/0)
|   |   |   |   |   |   |   |   7 = 5 : -5 (0/0)
|   |   |   |   |   |   |   9 = 1 : -5 (0/0)
|   |   |   |   |   |   |   9 = 2 : -5 (0/0)
|   |   |   |   |   |   |   9 = 3 : -5 (0/0)
|   |   |   |   |   |   |   9 = 4 : -5 (0/0)
|   |   |   |   |   |   |   9 = 5 : -5 (0/0)
|   |   |   |   |   |   1 = 1 : -5 (0/0)
|   |   |   |   |   |   1 = 2 : -5 (0/0)
|   |   |   |   |   |   1 = 3 : -5 (0/0)
|   |   |   |   |   |   1 = 4 : -5 (0/0)
|   |   |   |   |   |   1 = 5 : -5 (0/0)
|   |   |   |   |   3 = 1
|   |   |   |   |   |   9 = -5 : -5 (0/0)
|   |   |   |   |   |   9 = -4 : -5 (0/0)
|   |   |   |   |   |   9 = -3 : -5 (0/0)
|   |   |   |   |   |   9 = -2 : -5 (0/0)
|   |   |   |   |   |   9 = -1 : -5 (0/0)
|   |   |   |   |   |   9 = 0 : -1 (1/0)
|   |   |   |   |   |   9 = 1 : 1 (1/0)
|   |   |   |   |   |   9 = 2 : -5 (0/0)
|   |   |   |   |   |   9 = 3 : -5 (0/0)
|   |   |   |   |   |   9 = 4 : -5 (0/0)
|   |   |   |   |   |   9 = 5 : -5 (0/0)
|   |   |   |   |   3 = 2 : -5 (0/0)
|   |   |   |   |   3 = 3 : -5 (0/0)
|   |   |   |   |   3 = 4 : -5 (0/0)
|   |   |   |   |   3 = 5 : -5 (0/0)
|   |   |   |   6 = 0
|   |   |   |   |   9 = -5 : -5 (0/0)
|   |   |   |   |   9 = -4 : -5 (0/0)
|   |   |   |   |   9 = -3 : -5 (0/0)
|   |   |   |   |   9 = -2 : -5 (0/0)
|   |   |   |   |   9 = -1 : -5 (0/0)
|   |   |   |   |   9 = 0 : 0 (2/1)
|   |   |   |   |   9 = 1 : 1 (1/0)
|   |   |   |   |   9 = 2 : -5 (0/0)
|   |   |   |   |   9 = 3 : -5 (0/0)
|   |   |   |   |   9 = 4 : -5 (0/0)
|   |   |   |   |   9 = 5 : -5 (0/0)
|   |   |   |   6 = 1 : -5 (0/0)
|   |   |   |   6 = 2 : -5 (0/0)
|   |   |   |   6 = 3 : -5 (0/0)
|   |   |   |   6 = 4 : -5 (0/0)
|   |   |   |   6 = 5 : -5 (0/0)
|   |   |   2 = 1 : 0 (2/0)
|   |   |   2 = 2 : -5 (0/0)
|   |   |   2 = 3 : -5 (0/0)
|   |   |   2 = 4 : -5 (0/0)
|   |   |   2 = 5 : -5 (0/0)
|   |   8 = 1 : -5 (0/0)
|   |   8 = 2 : 2 (2/0)
|   |   8 = 3 : -5 (0/0)
|   |   8 = 4 : -5 (0/0)
|   |   8 = 5 : -5 (0/0)
|   5 = 0
|   |   7 = -5 : -5 (0/0)
|   |   7 = -4 : -5 (0/0)
|   |   7 = -3 : -5 (0/0)
|   |   7 = -2
|   |   |   8 = -5 : -5 (0/0)
|   |   |   8 = -4 : -5 (0/0)
|   |   |   8 = -3 : -3 (1/0)
|   |   |   8 = -2 : -2 (1/0)
|   |   |   8 = -1
|   |   |   |   3 = -5 : -5 (0/0)
|   |   |   |   3 = -4 : -5 (0/0)
|   |   |   |   3 = -3 : -5 (0/0)
|   |   |   |   3 = -2 : -5 (0/0)
|   |   |   |   3 = -1 : -5 (0/0)
|   |   |   |   3 = 0
|   |   |   |   |   1 = -5 : -5 (0/0)
|   |   |   |   |   1 = -4 : -5 (0/0)
|   |   |   |   |   1 = -3 : -5 (0/0)
|   |   |   |   |   1 = -2 : -5 (0/0)
|   |   |   |   |   1 = -1 : -5 (0/0)
|   |   |   |   |   1 = 0
|   |   |   |   |   |   6 = -5 : -5 (0/0)
|   |   |   |   |   |   6 = -4 : -5 (0/0)
|   |   |   |   |   |   6 = -3 : -5 (0/0)
|   |   |   |   |   |   6 = -2 : -5 (0/0)
|   |   |   |   |   |   6 = -1 : -1 (1/0)
|   |   |   |   |   |   6 = 0 : -2 (1/0)
|   |   |   |   |   |   6 = 1 : -5 (0/0)
|   |   |   |   |   |   6 = 2 : -5 (0/0)
|   |   |   |   |   |   6 = 3 : -5 (0/0)
|   |   |   |   |   |   6 = 4 : -5 (0/0)
|   |   |   |   |   |   6 = 5 : -5 (0/0)
|   |   |   |   |   1 = 1 : -1 (1/0)
|   |   |   |   |   1 = 2 : -5 (0/0)
|   |   |   |   |   1 = 3 : -5 (0/0)
|   |   |   |   |   1 = 4 : -5 (0/0)
|   |   |   |   |   1 = 5 : -5 (0/0)
|   |   |   |   3 = 1 : -2 (1/0)
|   |   |   |   3 = 2 : -5 (0/0)
|   |   |   |   3 = 3 : -5 (0/0)
|   |   |   |   3 = 4 : -5 (0/0)
|   |   |   |   3 = 5 : -5 (0/0)
|   |   |   8 = 0 : -5 (0/0)
|   |   |   8 = 1 : -5 (0/0)
|   |   |   8 = 2 : -5 (0/0)
|   |   |   8 = 3 : -5 (0/0)
|   |   |   8 = 4 : -5 (0/0)
|   |   |   8 = 5 : -5 (0/0)
|   |   7 = -1
|   |   |   8 = -5 : -5 (0/0)
|   |   |   8 = -4 : -5 (0/0)
|   |   |   8 = -3 : -5 (0/0)
|   |   |   8 = -2
|   |   |   |   6 = -5 : -5 (0/0)
|   |   |   |   6 = -4 : -5 (0/0)
|   |   |   |   6 = -3 : -5 (0/0)
|   |   |   |   6 = -2 : -2 (1/0)
|   |   |   |   6 = -1
|   |   |   |   |   1 = -5 : -5 (0/0)
|   |   |   |   |   1 = -4 : -5 (0/0)
|   |   |   |   |   1 = -3 : -5 (0/0)
|   |   |   |   |   1 = -2 : -5 (0/0)
|   |   |   |   |   1 = -1 : -3 (1/0)
|   |   |   |   |   1 = 0 : -2 (1/0)
|   |   |   |   |   1 = 1 : -5 (0/0)
|   |   |   |   |   1 = 2 : -5 (0/0)
|   |   |   |   |   1 = 3 : -5 (0/0)
|   |   |   |   |   1 = 4 : -5 (0/0)
|   |   |   |   |   1 = 5 : -5 (0/0)
|   |   |   |   6 = 0
|   |   |   |   |   2 = -5 : -5 (0/0)
|   |   |   |   |   2 = -4 : -5 (0/0)
|   |   |   |   |   2 = -3 : -5 (0/0)
|   |   |   |   |   2 = -2 : -5 (0/0)
|   |   |   |   |   2 = -1 : -2 (1/0)
|   |   |   |   |   2 = 0
|   |   |   |   |   |   0 = -5 : -5 (0/0)
|   |   |   |   |   |   0 = -4 : -5 (0/0)
|   |   |   |   |   |   0 = -3 : -5 (0/0)
|   |   |   |   |   |   0 = -2 : -5 (0/0)
|   |   |   |   |   |   0 = -1 : -2 (1/0)
|   |   |   |   |   |   0 = 0 : -3 (1/0)
|   |   |   |   |   |   0 = 1 : -5 (0/0)
|   |   |   |   |   |   0 = 2 : -5 (0/0)
|   |   |   |   |   |   0 = 3 : -5 (0/0)
|   |   |   |   |   |   0 = 4 : -5 (0/0)
|   |   |   |   |   |   0 = 5 : -5 (0/0)
|   |   |   |   |   2 = 1 : -5 (0/0)
|   |   |   |   |   2 = 2 : -5 (0/0)
|   |   |   |   |   2 = 3 : -5 (0/0)
|   |   |   |   |   2 = 4 : -5 (0/0)
|   |   |   |   |   2 = 5 : -5 (0/0)
|   |   |   |   6 = 1 : 0 (1/0)
|   |   |   |   6 = 2 : -5 (0/0)
|   |   |   |   6 = 3 : -5 (0/0)
|   |   |   |   6 = 4 : -5 (0/0)
|   |   |   |   6 = 5 : -5 (0/0)
|   |   |   8 = -1
|   |   |   |   3 = -5 : -5 (0/0)
|   |   |   |   3 = -4 : -5 (0/0)
|   |   |   |   3 = -3 : -5 (0/0)
|   |   |   |   3 = -2 : -5 (0/0)
|   |   |   |   3 = -1
|   |   |   |   |   9 = -5 : -5 (0/0)
|   |   |   |   |   9 = -4 : -5 (0/0)
|   |   |   |   |   9 = -3 : -5 (0/0)
|   |   |   |   |   9 = -2 : -5 (0/0)
|   |   |   |   |   9 = -1
|   |   |   |   |   |   6 = -5 : -5 (0/0)
|   |   |   |   |   |   6 = -4 : -5 (0/0)
|   |   |   |   |   |   6 = -3 : -5 (0/0)
|   |   |   |   |   |   6 = -2 : -5 (0/0)
|   |   |   |   |   |   6 = -1 : -1 (1/0)
|   |   |   |   |   |   6 = 0 : -2 (3/2)
|   |   |   |   |   |   6 = 1 : -5 (0/0)
|   |   |   |   |   |   6 = 2 : -5 (0/0)
|   |   |   |   |   |   6 = 3 : -5 (0/0)
|   |   |   |   |   |   6 = 4 : -5 (0/0)
|   |   |   |   |   |   6 = 5 : -5 (0/0)
|   |   |   |   |   9 = 0 : 1 (1/0)
|   |   |   |   |   9 = 1 : -5 (0/0)
|   |   |   |   |   9 = 2 : -5 (0/0)
|   |   |   |   |   9 = 3 : -5 (0/0)
|   |   |   |   |   9 = 4 : -5 (0/0)
|   |   |   |   |   9 = 5 : -5 (0/0)
|   |   |   |   3 = 0
|   |   |   |   |   0 = -5 : -5 (0/0)
|   |   |   |   |   0 = -4 : -5 (0/0)
|   |   |   |   |   0 = -3 : -5 (0/0)
|   |   |   |   |   0 = -2 : -5 (0/0)
|   |   |   |   |   0 = -1 : -1 (1/0)
|   |   |   |   |   0 = 0
|   |   |   |   |   |   1 = -5 : -5 (0/0)
|   |   |   |   |   |   1 = -4 : -5 (0/0)
|   |   |   |   |   |   1 = -3 : -5 (0/0)
|   |   |   |   |   |   1 = -2 : -5 (0/0)
|   |   |   |   |   |   1 = -1 : 0 (1/0)
|   |   |   |   |   |   1 = 0
|   |   |   |   |   |   |   9 = -5 : -5 (0/0)
|   |   |   |   |   |   |   9 = -4 : -5 (0/0)
|   |   |   |   |   |   |   9 = -3 : -5 (0/0)
|   |   |   |   |   |   |   9 = -2 : -2 (6/0)
|   |   |   |   |   |   |   9 = -1
|   |   |   |   |   |   |   |   6 = -5 : -5 (0/0)
|   |   |   |   |   |   |   |   6 = -4 : -5 (0/0)
|   |   |   |   |   |   |   |   6 = -3 : -5 (0/0)
|   |   |   |   |   |   |   |   6 = -2 : -5 (0/0)
|   |   |   |   |   |   |   |   6 = -1 : -1 (4/0)
|   |   |   |   |   |   |   |   6 = 0 : -1 (6/3)
|   |   |   |   |   |   |   |   6 = 1 : -5 (0/0)
|   |   |   |   |   |   |   |   6 = 2 : -5 (0/0)
|   |   |   |   |   |   |   |   6 = 3 : -5 (0/0)
|   |   |   |   |   |   |   |   6 = 4 : -5 (0/0)
|   |   |   |   |   |   |   |   6 = 5 : -5 (0/0)
|   |   |   |   |   |   |   9 = 0 : 0 (4/0)
|   |   |   |   |   |   |   9 = 1 : -5 (0/0)
|   |   |   |   |   |   |   9 = 2 : -5 (0/0)
|   |   |   |   |   |   |   9 = 3 : -5 (0/0)
|   |   |   |   |   |   |   9 = 4 : -5 (0/0)
|   |   |   |   |   |   |   9 = 5 : -5 (0/0)
|   |   |   |   |   |   1 = 1 : -2 (1/0)
|   |   |   |   |   |   1 = 2 : -5 (0/0)
|   |   |   |   |   |   1 = 3 : -5 (0/0)
|   |   |   |   |   |   1 = 4 : -5 (0/0)
|   |   |   |   |   |   1 = 5 : -5 (0/0)
|   |   |   |   |   0 = 1
|   |   |   |   |   |   1 = -5 : -5 (0/0)
|   |   |   |   |   |   1 = -4 : -5 (0/0)
|   |   |   |   |   |   1 = -3 : -5 (0/0)
|   |   |   |   |   |   1 = -2 : -5 (0/0)
|   |   |   |   |   |   1 = -1 : -5 (0/0)
|   |   |   |   |   |   1 = 0 : -1 (1/0)
|   |   |   |   |   |   1 = 1 : 0 (1/0)
|   |   |   |   |   |   1 = 2 : -5 (0/0)
|   |   |   |   |   |   1 = 3 : -5 (0/0)
|   |   |   |   |   |   1 = 4 : -5 (0/0)
|   |   |   |   |   |   1 = 5 : -5 (0/0)
|   |   |   |   |   0 = 2 : -5 (0/0)
|   |   |   |   |   0 = 3 : -5 (0/0)
|   |   |   |   |   0 = 4 : -5 (0/0)
|   |   |   |   |   0 = 5 : -5 (0/0)
|   |   |   |   3 = 1
|   |   |   |   |   1 = -5 : -5 (0/0)
|   |   |   |   |   1 = -4 : -5 (0/0)
|   |   |   |   |   1 = -3 : -5 (0/0)
|   |   |   |   |   1 = -2 : -5 (0/0)
|   |   |   |   |   1 = -1 : -5 (0/0)
|   |   |   |   |   1 = 0
|   |   |   |   |   |   6 = -5 : -5 (0/0)
|   |   |   |   |   |   6 = -4 : -5 (0/0)
|   |   |   |   |   |   6 = -3 : -5 (0/0)
|   |   |   |   |   |   6 = -2 : -5 (0/0)
|   |   |   |   |   |   6 = -1 : -2 (2/1)
|   |   |   |   |   |   6 = 0 : -2 (2/0)
|   |   |   |   |   |   6 = 1 : -5 (0/0)
|   |   |   |   |   |   6 = 2 : -5 (0/0)
|   |   |   |   |   |   6 = 3 : -5 (0/0)
|   |   |   |   |   |   6 = 4 : -5 (0/0)
|   |   |   |   |   |   6 = 5 : -5 (0/0)
|   |   |   |   |   1 = 1 : -1 (3/0)
|   |   |   |   |   1 = 2 : -5 (0/0)
|   |   |   |   |   1 = 3 : -5 (0/0)
|   |   |   |   |   1 = 4 : -5 (0/0)
|   |   |   |   |   1 = 5 : -5 (0/0)
|   |   |   |   3 = 2 : -5 (0/0)
|   |   |   |   3 = 3 : -5 (0/0)
|   |   |   |   3 = 4 : -5 (0/0)
|   |   |   |   3 = 5 : -5 (0/0)
|   |   |   8 = 0
|   |   |   |   0 = -5 : -5 (0/0)
|   |   |   |   0 = -4 : -5 (0/0)
