=== Run information ===

Scheme:weka.classifiers.trees.RandomTree -K 0 -M 1.0 -S 1
Relation:     USD_CHF_tr
Instances:    1250
Attributes:   11
              0
              1
              2
              3
              4
              5
              6
              7
              8
              9
              Class
Test mode:user supplied test set: size unknown (reading incrementally)

=== Classifier model (full training set) ===


RandomTree
==========

8 = -5
|   9 = -5 : -5 (9/0)
|   9 = -4 : -2 (1/0)
|   9 = -3 : -5 (0/0)
|   9 = -2 : -5 (0/0)
|   9 = -1 : -5 (0/0)
|   9 = 0 : -5 (0/0)
|   9 = 1 : -5 (0/0)
|   9 = 2 : -5 (0/0)
|   9 = 3 : -5 (0/0)
|   9 = 4 : -5 (0/0)
|   9 = 5 : -5 (0/0)
8 = -4
|   4 = -5 : -3 (1/0)
|   4 = -4 : -5 (2/0)
|   4 = -3
|   |   3 = -5 : -5 (0/0)
|   |   3 = -4 : -5 (0/0)
|   |   3 = -3 : -3 (2/0)
|   |   3 = -2 : -3 (1/0)
|   |   3 = -1 : -5 (0/0)
|   |   3 = 0 : -5 (1/0)
|   |   3 = 1 : -5 (0/0)
|   |   3 = 2 : -5 (0/0)
|   |   3 = 3 : -5 (0/0)
|   |   3 = 4 : -5 (0/0)
|   |   3 = 5 : -5 (0/0)
|   4 = -2
|   |   3 = -5 : -5 (0/0)
|   |   3 = -4 : -5 (0/0)
|   |   3 = -3 : -4 (1/0)
|   |   3 = -2
|   |   |   9 = -5 : -5 (0/0)
|   |   |   9 = -4 : -4 (1/0)
|   |   |   9 = -3 : -3 (1/0)
|   |   |   9 = -2 : -5 (0/0)
|   |   |   9 = -1 : -5 (0/0)
|   |   |   9 = 0 : -5 (0/0)
|   |   |   9 = 1 : -5 (0/0)
|   |   |   9 = 2 : -5 (0/0)
|   |   |   9 = 3 : -5 (0/0)
|   |   |   9 = 4 : -5 (0/0)
|   |   |   9 = 5 : -5 (0/0)
|   |   3 = -1 : -4 (2/0)
|   |   3 = 0 : -5 (0/0)
|   |   3 = 1 : -5 (0/0)
|   |   3 = 2 : -5 (0/0)
|   |   3 = 3 : -5 (0/0)
|   |   3 = 4 : -5 (0/0)
|   |   3 = 5 : -5 (0/0)
|   4 = -1
|   |   2 = -5 : -5 (0/0)
|   |   2 = -4 : -5 (0/0)
|   |   2 = -3 : -5 (0/0)
|   |   2 = -2 : -5 (0/0)
|   |   2 = -1 : -4 (2/0)
|   |   2 = 0 : -5 (2/0)
|   |   2 = 1 : -5 (0/0)
|   |   2 = 2 : -5 (0/0)
|   |   2 = 3 : -5 (0/0)
|   |   2 = 4 : -5 (0/0)
|   |   2 = 5 : -5 (0/0)
|   4 = 0 : -5 (0/0)
|   4 = 1 : -5 (0/0)
|   4 = 2 : -5 (0/0)
|   4 = 3 : -5 (0/0)
|   4 = 4 : -5 (0/0)
|   4 = 5 : -5 (0/0)
8 = -3
|   9 = -5 : -5 (1/0)
|   9 = -4
|   |   2 = -5 : -5 (0/0)
|   |   2 = -4 : -5 (0/0)
|   |   2 = -3 : -5 (0/0)
|   |   2 = -2 : -4 (1/0)
|   |   2 = -1
|   |   |   0 = -5 : -5 (0/0)
|   |   |   0 = -4 : -5 (0/0)
|   |   |   0 = -3 : -5 (0/0)
|   |   |   0 = -2 : -5 (0/0)
|   |   |   0 = -1 : -2 (1/0)
|   |   |   0 = 0 : -4 (1/0)
|   |   |   0 = 1 : -5 (0/0)
|   |   |   0 = 2 : -5 (0/0)
|   |   |   0 = 3 : -5 (0/0)
|   |   |   0 = 4 : -5 (0/0)
|   |   |   0 = 5 : -5 (0/0)
|   |   2 = 0 : -3 (1/0)
|   |   2 = 1 : -5 (0/0)
|   |   2 = 2 : -5 (0/0)
|   |   2 = 3 : -5 (0/0)
|   |   2 = 4 : -5 (0/0)
|   |   2 = 5 : -5 (0/0)
|   9 = -3
|   |   0 = -5 : -5 (0/0)
|   |   0 = -4 : -5 (0/0)
|   |   0 = -3 : -5 (0/0)
|   |   0 = -2 : -5 (0/0)
|   |   0 = -1
|   |   |   6 = -5 : -5 (0/0)
|   |   |   6 = -4 : -3 (1/0)
|   |   |   6 = -3
|   |   |   |   1 = -5 : -5 (0/0)
|   |   |   |   1 = -4 : -5 (0/0)
|   |   |   |   1 = -3 : -5 (0/0)
|   |   |   |   1 = -2 : -4 (1/0)
|   |   |   |   1 = -1
|   |   |   |   |   3 = -5 : -5 (0/0)
|   |   |   |   |   3 = -4 : -5 (0/0)
|   |   |   |   |   3 = -3 : -5 (0/0)
|   |   |   |   |   3 = -2 : -4 (1/0)
|   |   |   |   |   3 = -1 : -3 (1/0)
|   |   |   |   |   3 = 0 : -5 (0/0)
|   |   |   |   |   3 = 1 : -5 (0/0)
|   |   |   |   |   3 = 2 : -5 (0/0)
|   |   |   |   |   3 = 3 : -5 (0/0)
|   |   |   |   |   3 = 4 : -5 (0/0)
|   |   |   |   |   3 = 5 : -5 (0/0)
|   |   |   |   1 = 0 : -3 (1/0)
|   |   |   |   1 = 1 : -5 (0/0)
|   |   |   |   1 = 2 : -5 (0/0)
|   |   |   |   1 = 3 : -5 (0/0)
|   |   |   |   1 = 4 : -5 (0/0)
|   |   |   |   1 = 5 : -5 (0/0)
|   |   |   6 = -2 : -3 (2/0)
|   |   |   6 = -1 : -4 (1/0)
|   |   |   6 = 0 : -5 (0/0)
|   |   |   6 = 1 : -5 (0/0)
|   |   |   6 = 2 : -5 (0/0)
|   |   |   6 = 3 : -5 (0/0)
|   |   |   6 = 4 : -5 (0/0)
|   |   |   6 = 5 : -5 (0/0)
|   |   0 = 0
|   |   |   3 = -5 : -5 (0/0)
|   |   |   3 = -4 : -5 (0/0)
|   |   |   3 = -3 : -5 (0/0)
|   |   |   3 = -2
|   |   |   |   2 = -5 : -5 (0/0)
|   |   |   |   2 = -4 : -5 (0/0)
|   |   |   |   2 = -3 : -5 (0/0)
|   |   |   |   2 = -2
|   |   |   |   |   6 = -5 : -5 (0/0)
|   |   |   |   |   6 = -4 : -3 (1/0)
|   |   |   |   |   6 = -3 : -5 (0/0)
|   |   |   |   |   6 = -2 : -4 (1/0)
|   |   |   |   |   6 = -1 : -5 (0/0)
|   |   |   |   |   6 = 0 : -5 (0/0)
|   |   |   |   |   6 = 1 : -5 (0/0)
|   |   |   |   |   6 = 2 : -5 (0/0)
|   |   |   |   |   6 = 3 : -5 (0/0)
|   |   |   |   |   6 = 4 : -5 (0/0)
|   |   |   |   |   6 = 5 : -5 (0/0)
|   |   |   |   2 = -1
|   |   |   |   |   7 = -5 : -5 (0/0)
|   |   |   |   |   7 = -4 : -5 (0/0)
|   |   |   |   |   7 = -3 : -3 (1/0)
|   |   |   |   |   7 = -2
|   |   |   |   |   |   6 = -5 : -5 (0/0)
|   |   |   |   |   |   6 = -4 : -5 (0/0)
|   |   |   |   |   |   6 = -3 : -3 (1/0)
|   |   |   |   |   |   6 = -2 : -2 (1/0)
|   |   |   |   |   |   6 = -1 : -5 (0/0)
|   |   |   |   |   |   6 = 0 : -5 (0/0)
|   |   |   |   |   |   6 = 1 : -5 (0/0)
|   |   |   |   |   |   6 = 2 : -5 (0/0)
|   |   |   |   |   |   6 = 3 : -5 (0/0)
|   |   |   |   |   |   6 = 4 : -5 (0/0)
|   |   |   |   |   |   6 = 5 : -5 (0/0)
|   |   |   |   |   7 = -1 : -5 (0/0)
|   |   |   |   |   7 = 0 : -5 (0/0)
|   |   |   |   |   7 = 1 : -5 (0/0)
|   |   |   |   |   7 = 2 : -5 (0/0)
|   |   |   |   |   7 = 3 : -5 (0/0)
|   |   |   |   |   7 = 4 : -5 (0/0)
|   |   |   |   |   7 = 5 : -5 (0/0)
|   |   |   |   2 = 0 : -5 (0/0)
|   |   |   |   2 = 1 : -5 (0/0)
|   |   |   |   2 = 2 : -5 (0/0)
|   |   |   |   2 = 3 : -5 (0/0)
|   |   |   |   2 = 4 : -5 (0/0)
|   |   |   |   2 = 5 : -5 (0/0)
|   |   |   3 = -1 : -3 (3/0)
|   |   |   3 = 0
|   |   |   |   7 = -5 : -5 (0/0)
|   |   |   |   7 = -4 : -5 (0/0)
|   |   |   |   7 = -3 : -4 (1/0)
|   |   |   |   7 = -2 : -3 (1/0)
|   |   |   |   7 = -1 : -5 (0/0)
|   |   |   |   7 = 0 : -5 (0/0)
|   |   |   |   7 = 1 : -5 (0/0)
|   |   |   |   7 = 2 : -5 (0/0)
|   |   |   |   7 = 3 : -5 (0/0)
|   |   |   |   7 = 4 : -5 (0/0)
|   |   |   |   7 = 5 : -5 (0/0)
|   |   |   3 = 1 : -5 (0/0)
|   |   |   3 = 2 : -5 (0/0)
|   |   |   3 = 3 : -5 (0/0)
|   |   |   3 = 4 : -5 (0/0)
|   |   |   3 = 5 : -5 (0/0)
|   |   0 = 1 : -4 (2/0)
|   |   0 = 2 : -3 (1/0)
|   |   0 = 3 : -5 (0/0)
|   |   0 = 4 : -5 (0/0)
|   |   0 = 5 : -5 (0/0)
|   9 = -2
|   |   1 = -5 : -5 (0/0)
|   |   1 = -4 : -5 (0/0)
|   |   1 = -3 : -5 (0/0)
|   |   1 = -2 : -3 (1/0)
|   |   1 = -1
|   |   |   2 = -5 : -5 (0/0)
|   |   |   2 = -4 : -5 (0/0)
|   |   |   2 = -3 : -5 (0/0)
|   |   |   2 = -2 : -1 (1/0)
|   |   |   2 = -1
|   |   |   |   3 = -5 : -5 (0/0)
|   |   |   |   3 = -4 : -5 (0/0)
|   |   |   |   3 = -3 : -5 (0/0)
|   |   |   |   3 = -2
|   |   |   |   |   0 = -5 : -5 (0/0)
|   |   |   |   |   0 = -4 : -5 (0/0)
|   |   |   |   |   0 = -3 : -5 (0/0)
|   |   |   |   |   0 = -2 : -5 (0/0)
|   |   |   |   |   0 = -1 : -2 (1/0)
|   |   |   |   |   0 = 0 : 5 (1/0)
|   |   |   |   |   0 = 1 : -5 (0/0)
|   |   |   |   |   0 = 2 : -5 (0/0)
|   |   |   |   |   0 = 3 : -5 (0/0)
|   |   |   |   |   0 = 4 : -5 (0/0)
|   |   |   |   |   0 = 5 : -5 (0/0)
|   |   |   |   3 = -1 : -2 (2/0)
|   |   |   |   3 = 0 : -5 (0/0)
|   |   |   |   3 = 1 : -5 (0/0)
|   |   |   |   3 = 2 : -5 (0/0)
|   |   |   |   3 = 3 : -5 (0/0)
|   |   |   |   3 = 4 : -5 (0/0)
|   |   |   |   3 = 5 : -5 (0/0)
|   |   |   2 = 0 : -5 (0/0)
|   |   |   2 = 1 : -5 (0/0)
|   |   |   2 = 2 : -5 (0/0)
|   |   |   2 = 3 : -5 (0/0)
|   |   |   2 = 4 : -5 (0/0)
|   |   |   2 = 5 : -5 (0/0)
|   |   1 = 0
|   |   |   6 = -5 : -5 (0/0)
|   |   |   6 = -4 : -5 (0/0)
|   |   |   6 = -3 : -5 (0/0)
|   |   |   6 = -2
|   |   |   |   5 = -5 : -5 (0/0)
|   |   |   |   5 = -4 : -5 (0/0)
|   |   |   |   5 = -3 : -5 (0/0)
|   |   |   |   5 = -2 : -2 (1/0)
|   |   |   |   5 = -1
|   |   |   |   |   4 = -5 : -5 (0/0)
|   |   |   |   |   4 = -4 : -5 (0/0)
|   |   |   |   |   4 = -3 : -5 (0/0)
|   |   |   |   |   4 = -2 : -5 (0/0)
|   |   |   |   |   4 = -1 : -3 (1/0)
|   |   |   |   |   4 = 0 : 0 (1/0)
|   |   |   |   |   4 = 1 : -5 (0/0)
|   |   |   |   |   4 = 2 : -5 (0/0)
|   |   |   |   |   4 = 3 : -5 (0/0)
|   |   |   |   |   4 = 4 : -5 (0/0)
|   |   |   |   |   4 = 5 : -5 (0/0)
|   |   |   |   5 = 0 : -5 (0/0)
|   |   |   |   5 = 1 : -5 (0/0)
|   |   |   |   5 = 2 : -5 (0/0)
|   |   |   |   5 = 3 : -5 (0/0)
|   |   |   |   5 = 4 : -5 (0/0)
|   |   |   |   5 = 5 : -5 (0/0)
|   |   |   6 = -1 : -3 (1/0)
|   |   |   6 = 0 : -2 (1/0)
|   |   |   6 = 1 : -5 (0/0)
|   |   |   6 = 2 : -5 (0/0)
|   |   |   6 = 3 : -5 (0/0)
|   |   |   6 = 4 : -5 (0/0)
|   |   |   6 = 5 : -5 (0/0)
|   |   1 = 1 : -5 (0/0)
|   |   1 = 2 : -5 (0/0)
|   |   1 = 3 : -5 (0/0)
|   |   1 = 4 : -5 (0/0)
|   |   1 = 5 : -5 (0/0)
|   9 = -1 : -5 (0/0)
|   9 = 0 : -5 (0/0)
|   9 = 1 : -5 (0/0)
|   9 = 2 : -5 (0/0)
|   9 = 3 : -5 (0/0)
|   9 = 4 : -5 (0/0)
|   9 = 5 : -5 (0/0)
8 = -2
|   4 = -5 : -5 (0/0)
|   4 = -4 : -5 (0/0)
|   4 = -3 : -3 (1/0)
|   4 = -2
|   |   2 = -5 : -5 (0/0)
|   |   2 = -4 : -5 (0/0)
|   |   2 = -3 : -5 (0/0)
|   |   2 = -2
|   |   |   7 = -5 : -5 (0/0)
|   |   |   7 = -4 : -5 (0/0)
|   |   |   7 = -3 : 5 (1/0)
|   |   |   7 = -2
|   |   |   |   6 = -5 : -5 (0/0)
|   |   |   |   6 = -4 : -5 (0/0)
|   |   |   |   6 = -3 : -2 (1/0)
|   |   |   |   6 = -2
|   |   |   |   |   0 = -5 : -5 (0/0)
|   |   |   |   |   0 = -4 : -5 (0/0)
|   |   |   |   |   0 = -3 : -5 (0/0)
|   |   |   |   |   0 = -2
|   |   |   |   |   |   1 = -5 : -5 (0/0)
|   |   |   |   |   |   1 = -4 : -5 (0/0)
|   |   |   |   |   |   1 = -3 : -5 (0/0)
|   |   |   |   |   |   1 = -2 : -3 (1/0)
|   |   |   |   |   |   1 = -1 : -2 (1/0)
|   |   |   |   |   |   1 = 0 : -5 (0/0)
|   |   |   |   |   |   1 = 1 : -5 (0/0)
|   |   |   |   |   |   1 = 2 : -5 (0/0)
|   |   |   |   |   |   1 = 3 : -5 (0/0)
|   |   |   |   |   |   1 = 4 : -5 (0/0)
|   |   |   |   |   |   1 = 5 : -5 (0/0)
|   |   |   |   |   0 = -1
|   |   |   |   |   |   1 = -5 : -5 (0/0)
|   |   |   |   |   |   1 = -4 : -5 (0/0)
|   |   |   |   |   |   1 = -3 : -5 (0/0)
|   |   |   |   |   |   1 = -2
|   |   |   |   |   |   |   9 = -5 : -5 (0/0)
|   |   |   |   |   |   |   9 = -4 : -5 (0/0)
|   |   |   |   |   |   |   9 = -3 : -2 (1/0)
|   |   |   |   |   |   |   9 = -2 : -5 (0/0)
|   |   |   |   |   |   |   9 = -1 : -1 (1/0)
|   |   |   |   |   |   |   9 = 0 : -5 (0/0)
|   |   |   |   |   |   |   9 = 1 : -5 (0/0)
|   |   |   |   |   |   |   9 = 2 : -5 (0/0)
|   |   |   |   |   |   |   9 = 3 : -5 (0/0)
|   |   |   |   |   |   |   9 = 4 : -5 (0/0)
|   |   |   |   |   |   |   9 = 5 : -5 (0/0)
|   |   |   |   |   |   1 = -1
|   |   |   |   |   |   |   9 = -5 : -5 (0/0)
|   |   |   |   |   |   |   9 = -4 : -5 (0/0)
|   |   |   |   |   |   |   9 = -3 : -3 (1/0)
|   |   |   |   |   |   |   9 = -2 : -2 (1/0)
|   |   |   |   |   |   |   9 = -1 : -5 (0/0)
|   |   |   |   |   |   |   9 = 0 : -5 (0/0)
|   |   |   |   |   |   |   9 = 1 : -5 (0/0)
|   |   |   |   |   |   |   9 = 2 : -5 (0/0)
|   |   |   |   |   |   |   9 = 3 : -5 (0/0)
|   |   |   |   |   |   |   9 = 4 : -5 (0/0)
|   |   |   |   |   |   |   9 = 5 : -5 (0/0)
|   |   |   |   |   |   1 = 0 : -5 (0/0)
|   |   |   |   |   |   1 = 1 : -5 (0/0)
|   |   |   |   |   |   1 = 2 : -5 (0/0)
|   |   |   |   |   |   1 = 3 : -5 (0/0)
|   |   |   |   |   |   1 = 4 : -5 (0/0)
|   |   |   |   |   |   1 = 5 : -5 (0/0)
|   |   |   |   |   0 = 0
|   |   |   |   |   |   9 = -5 : -5 (0/0)
|   |   |   |   |   |   9 = -4 : -5 (0/0)
|   |   |   |   |   |   9 = -3 : -3 (2/0)
|   |   |   |   |   |   9 = -2 : -1 (1/0)
|   |   |   |   |   |   9 = -1 : -1 (1/0)
|   |   |   |   |   |   9 = 0 : -5 (0/0)
|   |   |   |   |   |   9 = 1 : -5 (0/0)
|   |   |   |   |   |   9 = 2 : -5 (0/0)
|   |   |   |   |   |   9 = 3 : -5 (0/0)
|   |   |   |   |   |   9 = 4 : -5 (0/0)
|   |   |   |   |   |   9 = 5 : -5 (0/0)
|   |   |   |   |   0 = 1 : -5 (0/0)
|   |   |   |   |   0 = 2 : -5 (0/0)
|   |   |   |   |   0 = 3 : -5 (0/0)
|   |   |   |   |   0 = 4 : -5 (0/0)
|   |   |   |   |   0 = 5 : -5 (0/0)
|   |   |   |   6 = -1 : -3 (1/0)
|   |   |   |   6 = 0 : -5 (0/0)
|   |   |   |   6 = 1 : -5 (0/0)
|   |   |   |   6 = 2 : -5 (0/0)
|   |   |   |   6 = 3 : -5 (0/0)
|   |   |   |   6 = 4 : -5 (0/0)
|   |   |   |   6 = 5 : -5 (0/0)
|   |   |   7 = -1 : -2 (1/0)
|   |   |   7 = 0 : -5 (0/0)
|   |   |   7 = 1 : -5 (0/0)
|   |   |   7 = 2 : -5 (0/0)
|   |   |   7 = 3 : -5 (0/0)
|   |   |   7 = 4 : -5 (0/0)
|   |   |   7 = 5 : -5 (0/0)
|   |   2 = -1
|   |   |   9 = -5 : -5 (0/0)
|   |   |   9 = -4 : -5 (0/0)
|   |   |   9 = -3
|   |   |   |   1 = -5 : -5 (0/0)
|   |   |   |   1 = -4 : -5 (0/0)
|   |   |   |   1 = -3 : -5 (0/0)
|   |   |   |   1 = -2 : -5 (0/0)
|   |   |   |   1 = -1
|   |   |   |   |   0 = -5 : -5 (0/0)
|   |   |   |   |   0 = -4 : -5 (0/0)
|   |   |   |   |   0 = -3 : -5 (0/0)
|   |   |   |   |   0 = -2 : -5 (0/0)
|   |   |   |   |   0 = -1 : -4 (1/0)
|   |   |   |   |   0 = 0 : -3 (1/0)
|   |   |   |   |   0 = 1 : -5 (0/0)
|   |   |   |   |   0 = 2 : -5 (0/0)
|   |   |   |   |   0 = 3 : -5 (0/0)
|   |   |   |   |   0 = 4 : -5 (0/0)
|   |   |   |   |   0 = 5 : -5 (0/0)
|   |   |   |   1 = 0 : -3 (1/0)
|   |   |   |   1 = 1 : -5 (0/0)
|   |   |   |   1 = 2 : -5 (0/0)
|   |   |   |   1 = 3 : -5 (0/0)
|   |   |   |   1 = 4 : -5 (0/0)
|   |   |   |   1 = 5 : -5 (0/0)
|   |   |   9 = -2
|   |   |   |   3 = -5 : -5 (0/0)
|   |   |   |   3 = -4 : -5 (0/0)
|   |   |   |   3 = -3 : -5 (0/0)
|   |   |   |   3 = -2
|   |   |   |   |   7 = -5 : -5 (0/0)
|   |   |   |   |   7 = -4 : -5 (0/0)
|   |   |   |   |   7 = -3 : -5 (0/0)
|   |   |   |   |   7 = -2
|   |   |   |   |   |   5 = -5 : -5 (0/0)
|   |   |   |   |   |   5 = -4 : -5 (0/0)
|   |   |   |   |   |   5 = -3 : -2 (1/0)
|   |   |   |   |   |   5 = -2
|   |   |   |   |   |   |   0 = -5 : -5 (0/0)
|   |   |   |   |   |   |   0 = -4 : -5 (0/0)
|   |   |   |   |   |   |   0 = -3 : -5 (0/0)
|   |   |   |   |   |   |   0 = -2 : -5 (0/0)
|   |   |   |   |   |   |   0 = -1
|   |   |   |   |   |   |   |   6 = -5 : -5 (0/0)
|   |   |   |   |   |   |   |   6 = -4 : -5 (0/0)
|   |   |   |   |   |   |   |   6 = -3 : -1 (1/0)
|   |   |   |   |   |   |   |   6 = -2 : -2 (1/0)
|   |   |   |   |   |   |   |   6 = -1 : -5 (0/0)
|   |   |   |   |   |   |   |   6 = 0 : -5 (0/0)
|   |   |   |   |   |   |   |   6 = 1 : -5 (0/0)
|   |   |   |   |   |   |   |   6 = 2 : -5 (0/0)
|   |   |   |   |   |   |   |   6 = 3 : -5 (0/0)
|   |   |   |   |   |   |   |   6 = 4 : -5 (0/0)
|   |   |   |   |   |   |   |   6 = 5 : -5 (0/0)
|   |   |   |   |   |   |   0 = 0
|   |   |   |   |   |   |   |   1 = -5 : -5 (0/0)
|   |   |   |   |   |   |   |   1 = -4 : -5 (0/0)
|   |   |   |   |   |   |   |   1 = -3 : -5 (0/0)
|   |   |   |   |   |   |   |   1 = -2 : -5 (0/0)
|   |   |   |   |   |   |   |   1 = -1 : -2 (1/0)
|   |   |   |   |   |   |   |   1 = 0 : -3 (3/1)
|   |   |   |   |   |   |   |   1 = 1 : -5 (0/0)
|   |   |   |   |   |   |   |   1 = 2 : -5 (0/0)
|   |   |   |   |   |   |   |   1 = 3 : -5 (0/0)
|   |   |   |   |   |   |   |   1 = 4 : -5 (0/0)
|   |   |   |   |   |   |   |   1 = 5 : -5 (0/0)
|   |   |   |   |   |   |   0 = 1 : -2 (1/0)
|   |   |   |   |   |   |   0 = 2 : -5 (0/0)
|   |   |   |   |   |   |   0 = 3 : -5 (0/0)
|   |   |   |   |   |   |   0 = 4 : -5 (0/0)
|   |   |   |   |   |   |   0 = 5 : -5 (0/0)
|   |   |   |   |   |   5 = -1 : -3 (1/0)
|   |   |   |   |   |   5 = 0 : -5 (0/0)
|   |   |   |   |   |   5 = 1 : -5 (0/0)
|   |   |   |   |   |   5 = 2 : -5 (0/0)
|   |   |   |   |   |   5 = 3 : -5 (0/0)
|   |   |   |   |   |   5 = 4 : -5 (0/0)
|   |   |   |   |   |   5 = 5 : -5 (0/0)
|   |   |   |   |   7 = -1 : -3 (1/0)
|   |   |   |   |   7 = 0 : -5 (0/0)
|   |   |   |   |   7 = 1 : -5 (0/0)
|   |   |   |   |   7 = 2 : -5 (0/0)
|   |   |   |   |   7 = 3 : -5 (0/0)
|   |   |   |   |   7 = 4 : -5 (0/0)
|   |   |   |   |   7 = 5 : -5 (0/0)
|   |   |   |   3 = -1
|   |   |   |   |   6 = -5 : -5 (0/0)
|   |   |   |   |   6 = -4 : -5 (0/0)
|   |   |   |   |   6 = -3 : -5 (0/0)
|   |   |   |   |   6 = -2
|   |   |   |   |   |   1 = -5 : -5 (0/0)
|   |   |   |   |   |   1 = -4 : -5 (0/0)
|   |   |   |   |   |   1 = -3 : -5 (0/0)
|   |   |   |   |   |   1 = -2 : -5 (0/0)
|   |   |   |   |   |   1 = -1
|   |   |   |   |   |   |   5 = -5 : -5 (0/0)
|   |   |   |   |   |   |   5 = -4 : -5 (0/0)
|   |   |   |   |   |   |   5 = -3 : -5 (0/0)
|   |   |   |   |   |   |   5 = -2 : -3 (1/0)
|   |   |   |   |   |   |   5 = -1 : -2 (3/0)
|   |   |   |   |   |   |   5 = 0 : -5 (0/0)
|   |   |   |   |   |   |   5 = 1 : -5 (0/0)
|   |   |   |   |   |   |   5 = 2 : -5 (0/0)
|   |   |   |   |   |   |   5 = 3 : -5 (0/0)
|   |   |   |   |   |   |   5 = 4 : -5 (0/0)
|   |   |   |   |   |   |   5 = 5 : -5 (0/0)
|   |   |   |   |   |   1 = 0
|   |   |   |   |   |   |   7 = -5 : -5 (0/0)
|   |   |   |   |   |   |   7 = -4 : -5 (0/0)
|   |   |   |   |   |   |   7 = -3 : -2 (1/0)
|   |   |   |   |   |   |   7 = -2
|   |   |   |   |   |   |   |   5 = -5 : -5 (0/0)
|   |   |   |   |   |   |   |   5 = -4 : -5 (0/0)
|   |   |   |   |   |   |   |   5 = -3 : -5 (0/0)
|   |   |   |   |   |   |   |   5 = -2 : -2 (2/0)
|   |   |   |   |   |   |   |   5 = -1 : -2 (2/1)
|   |   |   |   |   |   |   |   5 = 0 : -5 (0/0)
|   |   |   |   |   |   |   |   5 = 1 : -5 (0/0)
|   |   |   |   |   |   |   |   5 = 2 : -5 (0/0)
|   |   |   |   |   |   |   |   5 = 3 : -5 (0/0)
|   |   |   |   |   |   |   |   5 = 4 : -5 (0/0)
|   |   |   |   |   |   |   |   5 = 5 : -5 (0/0)
|   |   |   |   |   |   |   7 = -1 : -5 (0/0)
|   |   |   |   |   |   |   7 = 0 : -5 (0/0)
|   |   |   |   |   |   |   7 = 1 : -5 (0/0)
|   |   |   |   |   |   |   7 = 2 : -5 (0/0)
|   |   |   |   |   |   |   7 = 3 : -5 (0/0)
|   |   |   |   |   |   |   7 = 4 : -5 (0/0)
|   |   |   |   |   |   |   7 = 5 : -5 (0/0)
|   |   |   |   |   |   1 = 1 : -5 (0/0)
|   |   |   |   |   |   1 = 2 : -5 (0/0)
|   |   |   |   |   |   1 = 3 : -5 (0/0)
|   |   |   |   |   |   1 = 4 : -5 (0/0)
|   |   |   |   |   |   1 = 5 : -5 (0/0)
|   |   |   |   |   6 = -1 : -1 (1/0)
|   |   |   |   |   6 = 0 : -5 (0/0)
|   |   |   |   |   6 = 1 : -5 (0/0)
|   |   |   |   |   6 = 2 : -5 (0/0)
|   |   |   |   |   6 = 3 : -5 (0/0)
|   |   |   |   |   6 = 4 : -5 (0/0)
|   |   |   |   |   6 = 5 : -5 (0/0)
|   |   |   |   3 = 0 : -5 (0/0)
|   |   |   |   3 = 1 : -5 (0/0)
|   |   |   |   3 = 2 : -5 (0/0)
|   |   |   |   3 = 3 : -5 (0/0)
|   |   |   |   3 = 4 : -5 (0/0)
|   |   |   |   3 = 5 : -5 (0/0)
|   |   |   9 = -1
|   |   |   |   3 = -5 : -5 (0/0)
|   |   |   |   3 = -4 : -5 (0/0)
|   |   |   |   3 = -3 : -5 (0/0)
|   |   |   |   3 = -2 : -2 (1/0)
|   |   |   |   3 = -1 : -2 (1/0)
|   |   |   |   3 = 0 : -1 (1/0)
|   |   |   |   3 = 1 : -5 (0/0)
|   |   |   |   3 = 2 : -5 (0/0)
|   |   |   |   3 = 3 : -5 (0/0)
|   |   |   |   3 = 4 : -5 (0/0)
|   |   |   |   3 = 5 : -5 (0/0)
|   |   |   9 = 0 : -5 (0/0)
|   |   |   9 = 1 : -5 (0/0)
|   |   |   9 = 2 : -5 (0/0)
|   |   |   9 = 3 : -5 (0/0)
|   |   |   9 = 4 : -5 (0/0)
|   |   |   9 = 5 : -5 (0/0)
|   |   2 = 0
|   |   |   9 = -5 : -5 (0/0)
|   |   |   9 = -4 : -5 (0/0)
|   |   |   9 = -3 : -1 (1/0)
|   |   |   9 = -2
|   |   |   |   3 = -5 : -5 (0/0)
|   |   |   |   3 = -4 : -5 (0/0)
|   |   |   |   3 = -3 : -5 (0/0)
|   |   |   |   3 = -2 : -5 (0/0)
|   |   |   |   3 = -1 : -3 (1/0)
|   |   |   |   3 = 0 : -2 (1/0)
|   |   |   |   3 = 1 : -5 (0/0)
|   |   |   |   3 = 2 : -5 (0/0)
|   |   |   |   3 = 3 : -5 (0/0)
|   |   |   |   3 = 4 : -5 (0/0)
|   |   |   |   3 = 5 : -5 (0/0)
|   |   |   9 = -1 : -1 (1/0)
|   |   |   9 = 0 : -5 (0/0)
|   |   |   9 = 1 : -5 (0/0)
|   |   |   9 = 2 : -5 (0/0)
|   |   |   9 = 3 : -5 (0/0)
|   |   |   9 = 4 : -5 (0/0)
|   |   |   9 = 5 : -5 (0/0)
|   |   2 = 1 : -5 (0/0)
|   |   2 = 2 : -5 (0/0)
|   |   2 = 3 : -5 (0/0)
|   |   2 = 4 : -5 (0/0)
|   |   2 = 5 : -5 (0/0)
|   4 = -1
|   |   1 = -5 : -5 (0/0)
|   |   1 = -4 : -5 (0/0)
|   |   1 = -3 : -5 (0/0)
|   |   1 = -2 : -3 (1/0)
|   |   1 = -1
|   |   |   9 = -5 : -5 (0/0)
|   |   |   9 = -4 : -5 (0/0)
|   |   |   9 = -3
|   |   |   |   6 = -5 : -5 (0/0)
|   |   |   |   6 = -4 : -5 (0/0)
|   |   |   |   6 = -3 : -5 (0/0)
|   |   |   |   6 = -2 : -3 (1/0)
|   |   |   |   6 = -1 : -2 (2/0)
|   |   |   |   6 = 0 : -5 (0/0)
|   |   |   |   6 = 1 : -5 (0/0)
|   |   |   |   6 = 2 : -5 (0/0)
|   |   |   |   6 = 3 : -5 (0/0)
|   |   |   |   6 = 4 : -5 (0/0)
|   |   |   |   6 = 5 : -5 (0/0)
|   |   |   9 = -2
|   |   |   |   6 = -5 : -5 (0/0)
|   |   |   |   6 = -4 : -5 (0/0)
|   |   |   |   6 = -3 : -2 (1/0)
|   |   |   |   6 = -2
|   |   |   |   |   5 = -5 : -5 (0/0)
|   |   |   |   |   5 = -4 : -5 (0/0)
|   |   |   |   |   5 = -3 : -5 (0/0)
|   |   |   |   |   5 = -2
|   |   |   |   |   |   3 = -5 : -5 (0/0)
|   |   |   |   |   |   3 = -4 : -5 (0/0)
|   |   |   |   |   |   3 = -3 : -5 (0/0)
|   |   |   |   |   |   3 = -2
|   |   |   |   |   |   |   2 = -5 : -5 (0/0)
|   |   |   |   |   |   |   2 = -4 : -5 (0/0)
|   |   |   |   |   |   |   2 = -3 : -5 (0/0)
|   |   |   |   |   |   |   2 = -2 : -2 (1/0)
|   |   |   |   |   |   |   2 = -1
|   |   |   |   |   |   |   |   0 = -5 : -5 (0/0)
|   |   |   |   |   |   |   |   0 = -4 : -5 (0/0)
|   |   |   |   |   |   |   |   0 = -3 : -5 (0/0)
|   |   |   |   |   |   |   |   0 = -2 : -5 (0/0)
|   |   |   |   |   |   |   |   0 = -1 : -3 (2/1)
|   |   |   |   |   |   |   |   0 = 0 : -2 (1/0)
|   |   |   |   |   |   |   |   0 = 1 : -5 (0/0)
|   |   |   |   |   |   |   |   0 = 2 : -5 (0/0)
|   |   |   |   |   |   |   |   0 = 3 : -5 (0/0)
|   |   |   |   |   |   |   |   0 = 4 : -5 (0/0)
|   |   |   |   |   |   |   |   0 = 5 : -5 (0/0)
|   |   |   |   |   |   |   2 = 0 : -5 (0/0)
|   |   |   |   |   |   |   2 = 1 : -5 (0/0)
|   |   |   |   |   |   |   2 = 2 : -5 (0/0)
|   |   |   |   |   |   |   2 = 3 : -5 (0/0)
|   |   |   |   |   |   |   2 = 4 : -5 (0/0)
|   |   |   |   |   |   |   2 = 5 : -5 (0/0)
|   |   |   |   |   |   3 = -1
|   |   |   |   |   |   |   2 = -5 : -5 (0/0)
|   |   |   |   |   |   |   2 = -4 : -5 (0/0)
|   |   |   |   |   |   |   2 = -3 : -5 (0/0)
|   |   |   |   |   |   |   2 = -2 : -5 (0/0)
|   |   |   |   |   |   |   2 = -1 : -3 (2/1)
|   |   |   |   |   |   |   2 = 0 : -3 (1/0)
|   |   |   |   |   |   |   2 = 1 : -5 (0/0)
|   |   |   |   |   |   |   2 = 2 : -5 (0/0)
|   |   |   |   |   |   |   2 = 3 : -5 (0/0)
|   |   |   |   |   |   |   2 = 4 : -5 (0/0)
|   |   |   |   |   |   |   2 = 5 : -5 (0/0)
|   |   |   |   |   |   3 = 0 : -2 (3/0)
|   |   |   |   |   |   3 = 1 : -5 (0/0)
|   |   |   |   |   |   3 = 2 : -5 (0/0)
|   |   |   |   |   |   3 = 3 : -5 (0/0)
|   |   |   |   |   |   3 = 4 : -5 (0/0)
|   |   |   |   |   |   3 = 5 : -5 (0/0)
|   |   |   |   |   5 = -1
|   |   |   |   |   |   2 = -5 : -5 (0/0)
|   |   |   |   |   |   2 = -4 : -5 (0/0)
|   |   |   |   |   |   2 = -3 : -5 (0/0)
|   |   |   |   |   |   2 = -2 : -5 (0/0)
|   |   |   |   |   |   2 = -1 : -2 (1/0)
|   |   |   |   |   |   2 = 0 : -3 (1/0)
|   |   |   |   |   |   2 = 1 : -5 (0/0)
|   |   |   |   |   |   2 = 2 : -5 (0/0)
|   |   |   |   |   |   2 = 3 : -5 (0/0)
|   |   |   |   |   |   2 = 4 : -5 (0/0)
|   |   |   |   |   |   2 = 5 : -5 (0/0)
|   |   |   |   |   5 = 0 : -5 (0/0)
|   |   |   |   |   5 = 1 : -5 (0/0)
|   |   |   |   |   5 = 2 : -5 (0/0)
|   |   |   |   |   5 = 3 : -5 (0/0)
|   |   |   |   |   5 = 4 : -5 (0/0)
|   |   |   |   |   5 = 5 : -5 (0/0)
|   |   |   |   6 = -1
|   |   |   |   |   7 = -5 : -5 (0/0)
|   |   |   |   |   7 = -4 : -5 (0/0)
|   |   |   |   |   7 = -3 : -5 (0/0)
|   |   |   |   |   7 = -2
|   |   |   |   |   |   0 = -5 : -5 (0/0)
|   |   |   |   |   |   0 = -4 : -5 (0/0)
|   |   |   |   |   |   0 = -3 : -5 (0/0)
|   |   |   |   |   |   0 = -2 : -5 (0/0)
|   |   |   |   |   |   0 = -1 : -2 (1/0)
|   |   |   |   |   |   0 = 0 : -3 (1/0)
|   |   |   |   |   |   0 = 1 : -5 (0/0)
|   |   |   |   |   |   0 = 2 : -5 (0/0)
|   |   |   |   |   |   0 = 3 : -5 (0/0)
|   |   |   |   |   |   0 = 4 : -5 (0/0)
|   |   |   |   |   |   0 = 5 : -5 (0/0)
|   |   |   |   |   7 = -1 : -2 (5/0)
|   |   |   |   |   7 = 0 : -5 (0/0)
|   |   |   |   |   7 = 1 : -5 (0/0)
|   |   |   |   |   7 = 2 : -5 (0/0)
|   |   |   |   |   7 = 3 : -5 (0/0)
|   |   |   |   |   7 = 4 : -5 (0/0)
|   |   |   |   |   7 = 5 : -5 (0/0)
|   |   |   |   6 = 0 : -5 (0/0)
|   |   |   |   6 = 1 : -5 (0/0)
|   |   |   |   6 = 2 : -5 (0/0)
|   |   |   |   6 = 3 : -5 (0/0)
|   |   |   |   6 = 4 : -5 (0/0)
|   |   |   |   6 = 5 : -5 (0/0)
|   |   |   9 = -1
|   |   |   |   5 = -5 : -5 (0/0)
|   |   |   |   5 = -4 : -5 (0/0)
|   |   |   |   5 = -3 : -5 (0/0)
|   |   |   |   5 = -2 : -2 (2/0)
|   |   |   |   5 = -1
|   |   |   |   |   6 = -5 : -5 (0/0)
|   |   |   |   |   6 = -4 : -5 (0/0)
|   |   |   |   |   6 = -3 : -5 (0/0)
|   |   |   |   |   6 = -2 : -1 (1/0)
|   |   |   |   |   6 = -1
|   |   |   |   |   |   3 = -5 : -5 (0/0)
|   |   |   |   |   |   3 = -4 : -5 (0/0)
|   |   |   |   |   |   3 = -3 : -5 (0/0)
|   |   |   |   |   |   3 = -2 : -5 (0/0)
|   |   |   |   |   |   3 = -1
|   |   |   |   |   |   |   0 = -5 : -5 (0/0)
|   |   |   |   |   |   |   0 = -4 : -5 (0/0)
|   |   |   |   |   |   |   0 = -3 : -5 (0/0)
|   |   |   |   |   |   |   0 = -2 : -5 (0/0)
|   |   |   |   |   |   |   0 = -1 : -2 (1/0)
|   |   |   |   |   |   |   0 = 0 : -1 (2/0)
|   |   |   |   |   |   |   0 = 1 : -5 (0/0)
|   |   |   |   |   |   |   0 = 2 : -5 (0/0)
|   |   |   |   |   |   |   0 = 3 : -5 (0/0)
|   |   |   |   |   |   |   0 = 4 : -5 (0/0)
|   |   |   |   |   |   |   0 = 5 : -5 (0/0)
|   |   |   |   |   |   3 = 0 : -2 (1/0)
|   |   |   |   |   |   3 = 1 : -5 (0/0)
|   |   |   |   |   |   3 = 2 : -5 (0/0)
|   |   |   |   |   |   3 = 3 : -5 (0/0)
|   |   |   |   |   |   3 = 4 : -5 (0/0)
|   |   |   |   |   |   3 = 5 : -5 (0/0)
|   |   |   |   |   6 = 0 : -5 (0/0)
|   |   |   |   |   6 = 1 : -5 (0/0)
|   |   |   |   |   6 = 2 : -5 (0/0)
|   |   |   |   |   6 = 3 : -5 (0/0)
|   |   |   |   |   6 = 4 : -5 (0/0)
|   |   |   |   |   6 = 5 : -5 (0/0)
|   |   |   |   5 = 0 : -5 (0/0)
|   |   |   |   5 = 1 : -5 (0/0)
|   |   |   |   5 = 2 : -5 (0/0)
|   |   |   |   5 = 3 : -5 (0/0)
|   |   |   |   5 = 4 : -5 (0/0)
|   |   |   |   5 = 5 : -5 (0/0)
|   |   |   9 = 0 : -5 (0/0)
|   |   |   9 = 1 : -5 (0/0)
|   |   |   9 = 2 : -5 (0/0)
|   |   |   9 = 3 : -5 (0/0)
|   |   |   9 = 4 : -5 (0/0)
|   |   |   9 = 5 : -5 (0/0)
|   |   1 = 0
|   |   |   9 = -5 : -5 (0/0)
|   |   |   9 = -4 : -5 (0/0)
|   |   |   9 = -3
|   |   |   |   6 = -5 : -5 (0/0)
|   |   |   |   6 = -4 : -5 (0/0)
|   |   |   |   6 = -3 : -5 (0/0)
|   |   |   |   6 = -2
|   |   |   |   |   5 = -5 : -5 (0/0)
|   |   |   |   |   5 = -4 : -5 (0/0)
|   |   |   |   |   5 = -3 : -5 (0/0)
|   |   |   |   |   5 = -2 : -2 (1/0)
|   |   |   |   |   5 = -1 : -3 (2/0)
|   |   |   |   |   5 = 0 : -5 (0/0)
|   |   |   |   |   5 = 1 : -5 (0/0)
|   |   |   |   |   5 = 2 : -5 (0/0)
|   |   |   |   |   5 = 3 : -5 (0/0)
|   |   |   |   |   5 = 4 : -5 (0/0)
|   |   |   |   |   5 = 5 : -5 (0/0)
|   |   |   |   6 = -1 : -2 (2/0)
|   |   |   |   6 = 0 : -5 (0/0)
|   |   |   |   6 = 1 : -5 (0/0)
|   |   |   |   6 = 2 : -5 (0/0)
|   |   |   |   6 = 3 : -5 (0/0)
|   |   |   |   6 = 4 : -5 (0/0)
|   |   |   |   6 = 5 : -5 (0/0)
|   |   |   9 = -2
|   |   |   |   5 = -5 : -5 (0/0)
|   |   |   |   5 = -4 : -5 (0/0)
|   |   |   |   5 = -3 : -5 (0/0)
|   |   |   |   5 = -2
|   |   |   |   |   2 = -5 : -5 (0/0)
|   |   |   |   |   2 = -4 : -5 (0/0)
|   |   |   |   |   2 = -3 : -5 (0/0)
|   |   |   |   |   2 = -2 : -5 (0/0)
|   |   |   |   |   2 = -1
|   |   |   |   |   |   6 = -5 : -5 (0/0)
|   |   |   |   |   |   6 = -4 : -5 (0/0)
|   |   |   |   |   |   6 = -3 : -5 (0/0)
|   |   |   |   |   |   6 = -2
|   |   |   |   |   |   |   0 = -5 : -5 (0/0)
|   |   |   |   |   |   |   0 = -4 : -5 (0/0)
|   |   |   |   |   |   |   0 = -3 : -5 (0/0)
|   |   |   |   |   |   |   0 = -2 : -5 (0/0)
|   |   |   |   |   |   |   0 = -1 : -2 (1/0)
|   |   |   |   |   |   |   0 = 0 : -3 (1/0)
|   |   |   |   |   |   |   0 = 1 : -5 (0/0)
|   |   |   |   |   |   |   0 = 2 : -5 (0/0)
|   |   |   |   |   |   |   0 = 3 : -5 (0/0)
|   |   |   |   |   |   |   0 = 4 : -5 (0/0)
|   |   |   |   |   |   |   0 = 5 : -5 (0/0)
|   |   |   |   |   |   6 = -1 : -2 (1/0)
|   |   |   |   |   |   6 = 0 : -5 (0/0)
|   |   |   |   |   |   6 = 1 : -5 (0/0)
|   |   |   |   |   |   6 = 2 : -5 (0/0)
|   |   |   |   |   |   6 = 3 : -5 (0/0)
|   |   |   |   |   |   6 = 4 : -5 (0/0)
|   |   |   |   |   |   6 = 5 : -5 (0/0)
|   |   |   |   |   2 = 0
|   |   |   |   |   |   6 = -5 : -5 (0/0)
|   |   |   |   |   |   6 = -4 : -5 (0/0)
|   |   |   |   |   |   6 = -3 : -5 (0/0)
|   |   |   |   |   |   6 = -2 : -3 (2/1)
|   |   |   |   |   |   6 = -1 : -3 (1/0)
|   |   |   |   |   |   6 = 0 : -5 (0/0)
|   |   |   |   |   |   6 = 1 : -5 (0/0)
|   |   |   |   |   |   6 = 2 : -5 (0/0)
|   |   |   |   |   |   6 = 3 : -5 (0/0)
|   |   |   |   |   |   6 = 4 : -5 (0/0)
|   |   |   |   |   |   6 = 5 : -5 (0/0)
|   |   |   |   |   2 = 1 : -2 (1/0)
|   |   |   |   |   2 = 2 : -5 (0/0)
|   |   |   |   |   2 = 3 : -5 (0/0)
|   |   |   |   |   2 = 4 : -5 (0/0)
|   |   |   |   |   2 = 5 : -5 (0/0)
|   |   |   |   5 = -1
|   |   |   |   |   0 = -5 : -5 (0/0)
|   |   |   |   |   0 = -4 : -5 (0/0)
|   |   |   |   |   0 = -3 : -5 (0/0)
|   |   |   |   |   0 = -2 : -5 (0/0)
|   |   |   |   |   0 = -1
|   |   |   |   |   |   3 = -5 : -5 (0/0)
|   |   |   |   |   |   3 = -4 : -5 (0/0)
|   |   |   |   |   |   3 = -3 : -5 (0/0)
|   |   |   |   |   |   3 = -2 : -5 (0/0)
|   |   |   |   |   |   3 = -1 : -3 (2/1)
|   |   |   |   |   |   3 = 0 : -2 (1/0)
|   |   |   |   |   |   3 = 1 : -5 (0/0)
|   |   |   |   |   |   3 = 2 : -5 (0/0)
|   |   |   |   |   |   3 = 3 : -5 (0/0)
|   |   |   |   |   |   3 = 4 : -5 (0/0)
|   |   |   |   |   |   3 = 5 : -5 (0/0)
|   |   |   |   |   0 = 0
|   |   |   |   |   |   3 = -5 : -5 (0/0)
|   |   |   |   |   |   3 = -4 : -5 (0/0)
|   |   |   |   |   |   3 = -3 : -5 (0/0)
|   |   |   |   |   |   3 = -2 : -5 (0/0)
|   |   |   |   |   |   3 = -1
|   |   |   |   |   |   |   2 = -5 : -5 (0/0)
|   |   |   |   |   |   |   2 = -4 : -5 (0/0)
|   |   |   |   |   |   |   2 = -3 : -5 (0/0)
|   |   |   |   |   |   |   2 = -2 : -3 (1/0)
|   |   |   |   |   |   |   2 = -1
|   |   |   |   |   |   |   |   7 = -5 : -5 (0/0)
|   |   |   |   |   |   |   |   7 = -4 : -5 (0/0)
|   |   |   |   |   |   |   |   7 = -3 : -5 (0/0)
|   |   |   |   |   |   |   |   7 = -2 : -2 (2/1)
|   |   |   |   |   |   |   |   7 = -1 : -2 (3/1)
|   |   |   |   |   |   |   |   7 = 0 : -5 (0/0)
|   |   |   |   |   |   |   |   7 = 1 : -5 (0/0)
|   |   |   |   |   |   |   |   7 = 2 : -5 (0/0)
|   |   |   |   |   |   |   |   7 = 3 : -5 (0/0)
|   |   |   |   |   |   |   |   7 = 4 : -5 (0/0)
|   |   |   |   |   |   |   |   7 = 5 : -5 (0/0)
|   |   |   |   |   |   |   2 = 0
|   |   |   |   |   |   |   |   7 = -5 : -5 (0/0)
|   |   |   |   |   |   |   |   7 = -4 : -5 (0/0)
|   |   |   |   |   |   |   |   7 = -3 : -5 (0/0)
|   |   |   |   |   |   |   |   7 = -2 : -2 (2/0)
|   |   |   |   |   |   |   |   7 = -1
|   |   |   |   |   |   |   |   |   6 = -5 : -5 (0/0)
|   |   |   |   |   |   |   |   |   6 = -4 : -5 (0/0)
|   |   |   |   |   |   |   |   |   6 = -3 : -5 (0/0)
|   |   |   |   |   |   |   |   |   6 = -2 : -2 (2/1)
|   |   |   |   |   |   |   |   |   6 = -1 : -2 (3/1)
|   |   |   |   |   |   |   |   |   6 = 0 : -5 (0/0)
|   |   |   |   |   |   |   |   |   6 = 1 : -5 (0/0)
|   |   |   |   |   |   |   |   |   6 = 2 : -5 (0/0)
|   |   |   |   |   |   |   |   |   6 = 3 : -5 (0/0)
|   |   |   |   |   |   |   |   |   6 = 4 : -5 (0/0)
|   |   |   |   |   |   |   |   |   6 = 5 : -5 (0/0)
|   |   |   |   |   |   |   |   7 = 0 : -5 (0/0)
|   |   |   |   |   |   |   |   7 = 1 : -5 (0/0)
|   |   |   |   |   |   |   |   7 = 2 : -5 (0/0)
|   |   |   |   |   |   |   |   7 = 3 : -5 (0/0)
|   |   |   |   |   |   |   |   7 = 4 : -5 (0/0)
|   |   |   |   |   |   |   |   7 = 5 : -5 (0/0)
|   |   |   |   |   |   |   2 = 1 : -5 (0/0)
|   |   |   |   |   |   |   2 = 2 : -5 (0/0)
|   |   |   |   |   |   |   2 = 3 : -5 (0/0)
|   |   |   |   |   |   |   2 = 4 : -5 (0/0)
|   |   |   |   |   |   |   2 = 5 : -5 (0/0)
|   |   |   |   |   |   3 = 0
|   |   |   |   |   |   |   6 = -5 : -5 (0/0)
|   |   |   |   |   |   |   6 = -4 : -5 (0/0)
|   |   |   |   |   |   |   6 = -3 : -5 (0/0)
|   |   |   |   |   |   |   6 = -2
|   |   |   |   |   |   |   |   7 = -5 : -5 (0/0)
|   |   |   |   |   |   |   |   7 = -4 : -5 (0/0)
|   |   |   |   |   |   |   |   7 = -3 : -5 (0/0)
|   |   |   |   |   |   |   |   7 = -2 : -2 (1/0)
|   |   |   |   |   |   |   |   7 = -1 : -1 (1/0)
|   |   |   |   |   |   |   |   7 = 0 : -5 (0/0)
|   |   |   |   |   |   |   |   7 = 1 : -5 (0/0)
|   |   |   |   |   |   |   |   7 = 2 : -5 (0/0)
|   |   |   |   |   |   |   |   7 = 3 : -5 (0/0)
|   |   |   |   |   |   |   |   7 = 4 : -5 (0/0)
|   |   |   |   |   |   |   |   7 = 5 : -5 (0/0)
|   |   |   |   |   |   |   6 = -1 : -3 (4/2)
|   |   |   |   |   |   |   6 = 0 : -5 (0/0)
|   |   |   |   |   |   |   6 = 1 : -5 (0/0)
|   |   |   |   |   |   |   6 = 2 : -5 (0/0)
|   |   |   |   |   |   |   6 = 3 : -5 (0/0)
|   |   |   |   |   |   |   6 = 4 : -5 (0/0)
|   |   |   |   |   |   |   6 = 5 : -5 (0/0)
|   |   |   |   |   |   3 = 1 : -2 (1/0)
|   |   |   |   |   |   3 = 2 : -5 (0/0)
|   |   |   |   |   |   3 = 3 : -5 (0/0)
|   |   |   |   |   |   3 = 4 : -5 (0/0)
|   |   |   |   |   |   3 = 5 : -5 (0/0)
|   |   |   |   |   0 = 1 : -2 (1/0)
|   |   |   |   |   0 = 2 : -5 (0/0)
|   |   |   |   |   0 = 3 : -5 (0/0)
|   |   |   |   |   0 = 4 : -5 (0/0)
|   |   |   |   |   0 = 5 : -5 (0/0)
|   |   |   |   5 = 0 : -2 (2/0)
|   |   |   |   5 = 1 : -5 (0/0)
|   |   |   |   5 = 2 : -5 (0/0)
|   |   |   |   5 = 3 : -5 (0/0)
|   |   |   |   5 = 4 : -5 (0/0)
|   |   |   |   5 = 5 : -5 (0/0)
|   |   |   9 = -1
|   |   |   |   7 = -5 : -5 (0/0)
|   |   |   |   7 = -4 : -5 (0/0)
|   |   |   |   7 = -3 : -5 (0/0)
|   |   |   |   7 = -2
|   |   |   |   |   2 = -5 : -5 (0/0)
|   |   |   |   |   2 = -4 : -5 (0/0)
|   |   |   |   |   2 = -3 : -5 (0/0)
|   |   |   |   |   2 = -2 : -5 (0/0)
|   |   |   |   |   2 = -1
|   |   |   |   |   |   5 = -5 : -5 (0/0)
|   |   |   |   |   |   5 = -4 : -5 (0/0)
|   |   |   |   |   |   5 = -3 : -5 (0/0)
|   |   |   |   |   |   5 = -2 : -2 (1/0)
|   |   |   |   |   |   5 = -1
|   |   |   |   |   |   |   6 = -5 : -5 (0/0)
|   |   |   |   |   |   |   6 = -4 : -5 (0/0)
|   |   |   |   |   |   |   6 = -3 : -5 (0/0)
|   |   |   |   |   |   |   6 = -2 : -1 (1/0)
|   |   |   |   |   |   |   6 = -1
|   |   |   |   |   |   |   |   0 = -5 : -5 (0/0)
|   |   |   |   |   |   |   |   0 = -4 : -5 (0/0)
|   |   |   |   |   |   |   |   0 = -3 : -5 (0/0)
|   |   |   |   |   |   |   |   0 = -2 : -5 (0/0)
|   |   |   |   |   |   |   |   0 = -1 : -5 (0/0)
|   |   |   |   |   |   |   |   0 = 0 : 0 (1/0)
|   |   |   |   |   |   |   |   0 = 1 : -1 (1/0)
|   |   |   |   |   |   |   |   0 = 2 : -5 (0/0)
|   |   |   |   |   |   |   |   0 = 3 : -5 (0/0)
|   |   |   |   |   |   |   |   0 = 4 : -5 (0/0)
|   |   |   |   |   |   |   |   0 = 5 : -5 (0/0)
|   |   |   |   |   |   |   6 = 0 : -5 (0/0)
|   |   |   |   |   |   |   6 = 1 : -5 (0/0)
|   |   |   |   |   |   |   6 = 2 : -5 (0/0)
|   |   |   |   |   |   |   6 = 3 : -5 (0/0)
|   |   |   |   |   |   |   6 = 4 : -5 (0/0)
|   |   |   |   |   |   |   6 = 5 : -5 (0/0)
|   |   |   |   |   |   5 = 0 : -5 (0/0)
|   |   |   |   |   |   5 = 1 : -5 (0/0)
|   |   |   |   |   |   5 = 2 : -5 (0/0)
|   |   |   |   |   |   5 = 3 : -5 (0/0)
|   |   |   |   |   |   5 = 4 : -5 (0/0)
|   |   |   |   |   |   5 = 5 : -5 (0/0)
|   |   |   |   |   2 = 0
|   |   |   |   |   |   3 = -5 : -5 (0/0)
|   |   |   |   |   |   3 = -4 : -5 (0/0)
|   |   |   |   |   |   3 = -3 : -5 (0/0)
|   |   |   |   |   |   3 = -2 : -5 (0/0)
|   |   |   |   |   |   3 = -1 : -1 (1/0)
|   |   |   |   |   |   3 = 0
|   |   |   |   |   |   |   6 = -5 : -5 (0/0)
|   |   |   |   |   |   |   6 = -4 : -5 (0/0)
|   |   |   |   |   |   |   6 = -3 : -5 (0/0)
|   |   |   |   |   |   |   6 = -2 : -1 (1/0)
|   |   |   |   |   |   |   6 = -1 : -2 (1/0)
|   |   |   |   |   |   |   6 = 0 : -5 (0/0)
|   |   |   |   |   |   |   6 = 1 : -5 (0/0)
|   |   |   |   |   |   |   6 = 2 : -5 (0/0)
|   |   |   |   |   |   |   6 = 3 : -5 (0/0)
|   |   |   |   |   |   |   6 = 4 : -5 (0/0)
|   |   |   |   |   |   |   6 = 5 : -5 (0/0)
|   |   |   |   |   |   3 = 1 : -5 (0/0)
|   |   |   |   |   |   3 = 2 : -5 (0/0)
|   |   |   |   |   |   3 = 3 : -5 (0/0)
|   |   |   |   |   |   3 = 4 : -5 (0/0)
|   |   |   |   |   |   3 = 5 : -5 (0/0)
|   |   |   |   |   2 = 1 : -5 (0/0)
|   |   |   |   |   2 = 2 : -5 (0/0)
|   |   |   |   |   2 = 3 : -5 (0/0)
|   |   |   |   |   2 = 4 : -5 (0/0)
|   |   |   |   |   2 = 5 : -5 (0/0)
|   |   |   |   7 = -1
|   |   |   |   |   5 = -5 : -5 (0/0)
|   |   |   |   |   5 = -4 : -5 (0/0)
|   |   |   |   |   5 = -3 : -5 (0/0)
|   |   |   |   |   5 = -2 : 0 (1/0)
|   |   |   |   |   5 = -1
|   |   |   |   |   |   2 = -5 : -5 (0/0)
|   |   |   |   |   |   2 = -4 : -5 (0/0)
|   |   |   |   |   |   2 = -3 : -5 (0/0)
|   |   |   |   |   |   2 = -2 : -2 (1/0)
|   |   |   |   |   |   2 = -1 : -5 (0/0)
|   |   |   |   |   |   2 = 0
|   |   |   |   |   |   |   3 = -5 : -5 (0/0)
|   |   |   |   |   |   |   3 = -4 : -5 (0/0)
|   |   |   |   |   |   |   3 = -3 : -5 (0/0)
|   |   |   |   |   |   |   3 = -2 : -5 (0/0)
|   |   |   |   |   |   |   3 = -1 : -1 (1/0)
|   |   |   |   |   |   |   3 = 0 : -2 (2/0)
|   |   |   |   |   |   |   3 = 1 : -5 (0/0)
|   |   |   |   |   |   |   3 = 2 : -5 (0/0)
|   |   |   |   |   |   |   3 = 3 : -5 (0/0)
|   |   |   |   |   |   |   3 = 4 : -5 (0/0)
|   |   |   |   |   |   |   3 = 5 : -5 (0/0)
|   |   |   |   |   |   2 = 1 : -5 (0/0)
|   |   |   |   |   |   2 = 2 : -5 (0/0)
|   |   |   |   |   |   2 = 3 : -5 (0/0)
|   |   |   |   |   |   2 = 4 : -5 (0/0)
|   |   |   |   |   |   2 = 5 : -5 (0/0)
|   |   |   |   |   5 = 0 : -2 (1/0)
|   |   |   |   |   5 = 1 : -5 (0/0)
|   |   |   |   |   5 = 2 : -5 (0/0)
|   |   |   |   |   5 = 3 : -5 (0/0)
|   |   |   |   |   5 = 4 : -5 (0/0)
|   |   |   |   |   5 = 5 : -5 (0/0)
|   |   |   |   7 = 0 : -5 (0/0)
|   |   |   |   7 = 1 : -5 (0/0)
|   |   |   |   7 = 2 : -5 (0/0)
|   |   |   |   7 = 3 : -5 (0/0)
|   |   |   |   7 = 4 : -5 (0/0)
|   |   |   |   7 = 5 : -5 (0/0)
|   |   |   9 = 0 : 0 (1/0)
|   |   |   9 = 1 : -5 (0/0)
|   |   |   9 = 2 : -5 (0/0)
|   |   |   9 = 3 : -5 (0/0)
|   |   |   9 = 4 : -5 (0/0)
|   |   |   9 = 5 : -5 (0/0)
|   |   1 = 1 : -1 (1/0)
|   |   1 = 2 : -2 (1/0)
|   |   1 = 3 : -5 (0/0)
|   |   1 = 4 : -5 (0/0)
|   |   1 = 5 : -5 (0/0)
|   4 = 0
|   |   2 = -5 : -5 (0/0)
|   |   2 = -4 : -5 (0/0)
|   |   2 = -3 : -5 (0/0)
|   |   2 = -2
|   |   |   1 = -5 : -5 (0/0)
|   |   |   1 = -4 : -5 (0/0)
|   |   |   1 = -3 : -5 (0/0)
|   |   |   1 = -2 : -2 (1/0)
|   |   |   1 = -1 : -3 (1/0)
|   |   |   1 = 0 : -5 (0/0)
|   |   |   1 = 1 : -5 (0/0)
|   |   |   1 = 2 : -5 (0/0)
|   |   |   1 = 3 : -5 (0/0)
|   |   |   1 = 4 : -5 (0/0)
|   |   |   1 = 5 : -5 (0/0)
|   |   2 = -1
|   |   |   1 = -5 : -5 (0/0)
|   |   |   1 = -4 : -5 (0/0)
|   |   |   1 = -3 : -5 (0/0)
|   |   |   1 = -2 : -5 (0/0)
|   |   |   1 = -1
|   |   |   |   3 = -5 : -5 (0/0)
|   |   |   |   3 = -4 : -5 (0/0)
|   |   |   |   3 = -3 : -5 (0/0)
|   |   |   |   3 = -2 : -5 (0/0)
|   |   |   |   3 = -1
|   |   |   |   |   6 = -5 : -5 (0/0)
|   |   |   |   |   6 = -4 : -5 (0/0)
|   |   |   |   |   6 = -3 : -5 (0/0)
|   |   |   |   |   6 = -2 : -5 (0/0)
|   |   |   |   |   6 = -1
|   |   |   |   |   |   7 = -5 : -5 (0/0)
|   |   |   |   |   |   7 = -4 : -5 (0/0)
|   |   |   |   |   |   7 = -3 : -5 (0/0)
|   |   |   |   |   |   7 = -2 : -2 (1/0)
|   |   |   |   |   |   7 = -1 : -1 (1/0)
|   |   |   |   |   |   7 = 0 : -5 (0/0)
|   |   |   |   |   |   7 = 1 : -5 (0/0)
|   |   |   |   |   |   7 = 2 : -5 (0/0)
|   |   |   |   |   |   7 = 3 : -5 (0/0)
|   |   |   |   |   |   7 = 4 : -5 (0/0)
|   |   |   |   |   |   7 = 5 : -5 (0/0)
|   |   |   |   |   6 = 0 : -2 (1/0)
|   |   |   |   |   6 = 1 : -5 (0/0)
|   |   |   |   |   6 = 2 : -5 (0/0)
|   |   |   |   |   6 = 3 : -5 (0/0)
|   |   |   |   |   6 = 4 : -5 (0/0)
|   |   |   |   |   6 = 5 : -5 (0/0)
|   |   |   |   3 = 0 : -2 (2/0)
|   |   |   |   3 = 1 : -5 (0/0)
|   |   |   |   3 = 2 : -5 (0/0)
|   |   |   |   3 = 3 : -5 (0/0)
|   |   |   |   3 = 4 : -5 (0/0)
|   |   |   |   3 = 5 : -5 (0/0)
|   |   |   1 = 0 : -2 (3/0)
|   |   |   1 = 1 : -5 (0/0)
|   |   |   1 = 2 : -5 (0/0)
|   |   |   1 = 3 : -5 (0/0)
|   |   |   1 = 4 : -5 (0/0)
|   |   |   1 = 5 : -5 (0/0)
|   |   2 = 0
|   |   |   1 = -5 : -5 (0/0)
|   |   |   1 = -4 : -5 (0/0)
|   |   |   1 = -3 : -5 (0/0)
|   |   |   1 = -2 : -5 (0/0)
|   |   |   1 = -1 : -2 (3/0)
|   |   |   1 = 0
|   |   |   |   5 = -5 : -5 (0/0)
|   |   |   |   5 = -4 : -5 (0/0)
|   |   |   |   5 = -3 : -5 (0/0)
|   |   |   |   5 = -2 : -5 (0/0)
|   |   |   |   5 = -1
|   |   |   |   |   7 = -5 : -5 (0/0)
|   |   |   |   |   7 = -4 : -5 (0/0)
|   |   |   |   |   7 = -3 : -5 (0/0)
|   |   |   |   |   7 = -2 : -2 (1/0)
|   |   |   |   |   7 = -1
|   |   |   |   |   |   3 = -5 : -5 (0/0)
|   |   |   |   |   |   3 = -4 : -5 (0/0)
|   |   |   |   |   |   3 = -3 : -5 (0/0)
|   |   |   |   |   |   3 = -2 : -5 (0/0)
|   |   |   |   |   |   3 = -1 : -2 (1/0)
|   |   |   |   |   |   3 = 0 : -3 (2/1)
|   |   |   |   |   |   3 = 1 : -5 (0/0)
|   |   |   |   |   |   3 = 2 : -5 (0/0)
|   |   |   |   |   |   3 = 3 : -5 (0/0)
|   |   |   |   |   |   3 = 4 : -5 (0/0)
|   |   |   |   |   |   3 = 5 : -5 (0/0)
|   |   |   |   |   7 = 0 : -2 (1/0)
|   |   |   |   |   7 = 1 : -5 (0/0)
|   |   |   |   |   7 = 2 : -5 (0/0)
|   |   |   |   |   7 = 3 : -5 (0/0)
|   |   |   |   |   7 = 4 : -5 (0/0)
|   |   |   |   |   7 = 5 : -5 (0/0)
|   |   |   |   5 = 0 : -2 (5/0)
|   |   |   |   5 = 1 : -5 (0/0)
|   |   |   |   5 = 2 : -5 (0/0)
|   |   |   |   5 = 3 : -5 (0/0)
|   |   |   |   5 = 4 : -5 (0/0)
|   |   |   |   5 = 5 : -5 (0/0)
|   |   |   1 = 1
|   |   |   |   5 = -5 : -5 (0/0)
|   |   |   |   5 = -4 : -5 (0/0)
|   |   |   |   5 = -3 : -5 (0/0)
|   |   |   |   5 = -2 : -5 (0/0)
|   |   |   |   5 = -1
|   |   |   |   |   3 = -5 : -5 (0/0)
|   |   |   |   |   3 = -4 : -5 (0/0)
|   |   |   |   |   3 = -3 : -5 (0/0)
|   |   |   |   |   3 = -2 : -5 (0/0)
|   |   |   |   |   3 = -1 : -5 (0/0)
|   |   |   |   |   3 = 0 : -2 (1/0)
|   |   |   |   |   3 = 1 : -1 (1/0)
|   |   |   |   |   3 = 2 : -5 (0/0)
|   |   |   |   |   3 = 3 : -5 (0/0)
|   |   |   |   |   3 = 4 : -5 (0/0)
|   |   |   |   |   3 = 5 : -5 (0/0)
|   |   |   |   5 = 0 : -3 (1/0)
|   |   |   |   5 = 1 : -5 (0/0)
|   |   |   |   5 = 2 : -5 (0/0)
|   |   |   |   5 = 3 : -5 (0/0)
|   |   |   |   5 = 4 : -5 (0/0)
|   |   |   |   5 = 5 : -5 (0/0)
|   |   |   1 = 2 : -5 (0/0)
|   |   |   1 = 3 : -5 (0/0)
|   |   |   1 = 4 : -5 (0/0)
|   |   |   1 = 5 : -5 (0/0)
|   |   2 = 1
|   |   |   9 = -5 : -5 (0/0)
|   |   |   9 = -4 : -5 (0/0)
|   |   |   9 = -3 : -3 (1/0)
|   |   |   9 = -2 : -5 (0/0)
|   |   |   9 = -1 : -1 (2/0)
|   |   |   9 = 0 : -5 (0/0)
|   |   |   9 = 1 : -5 (0/0)
|   |   |   9 = 2 : -5 (0/0)
|   |   |   9 = 3 : -5 (0/0)
|   |   |   9 = 4 : -5 (0/0)
|   |   |   9 = 5 : -5 (0/0)
|   |   2 = 2 : -5 (0/0)
|   |   2 = 3 : -5 (0/0)
|   |   2 = 4 : -5 (0/0)
|   |   2 = 5 : -5 (0/0)
|   4 = 1 : -2 (3/0)
|   4 = 2 : -5 (0/0)
|   4 = 3 : -5 (0/0)
|   4 = 4 : -5 (0/0)
|   4 = 5 : -5 (0/0)
8 = -1
|   5 = -5 : -5 (0/0)
|   5 = -4 : -5 (0/0)
|   5 = -3 : -1 (2/0)
|   5 = -2
|   |   9 = -5 : -5 (0/0)
|   |   9 = -4 : -5 (0/0)
|   |   9 = -3 : -5 (0/0)
|   |   9 = -2
|   |   |   2 = -5 : -5 (0/0)
|   |   |   2 = -4 : -5 (0/0)
|   |   |   2 = -3 : -5 (0/0)
|   |   |   2 = -2
|   |   |   |   4 = -5 : -5 (0/0)
|   |   |   |   4 = -4 : -5 (0/0)
|   |   |   |   4 = -3 : -5 (0/0)
|   |   |   |   4 = -2 : -1 (1/0)
|   |   |   |   4 = -1 : -2 (1/0)
|   |   |   |   4 = 0 : -5 (0/0)
|   |   |   |   4 = 1 : -5 (0/0)
|   |   |   |   4 = 2 : -5 (0/0)
|   |   |   |   4 = 3 : -5 (0/0)
|   |   |   |   4 = 4 : -5 (0/0)
|   |   |   |   4 = 5 : -5 (0/0)
|   |   |   2 = -1 : -1 (2/0)
|   |   |   2 = 0 : -5 (0/0)
|   |   |   2 = 1 : -5 (0/0)
|   |   |   2 = 2 : -5 (0/0)
|   |   |   2 = 3 : -5 (0/0)
|   |   |   2 = 4 : -5 (0/0)
|   |   |   2 = 5 : -5 (0/0)
|   |   9 = -1
|   |   |   4 = -5 : -5 (0/0)
|   |   |   4 = -4 : -5 (0/0)
|   |   |   4 = -3 : -5 (0/0)
|   |   |   4 = -2
|   |   |   |   1 = -5 : -5 (0/0)
|   |   |   |   1 = -4 : -5 (0/0)
|   |   |   |   1 = -3 : -5 (0/0)
|   |   |   |   1 = -2 : -5 (0/0)
|   |   |   |   1 = -1 : -2 (2/1)
|   |   |   |   1 = 0 : -1 (2/0)
|   |   |   |   1 = 1 : -5 (0/0)
|   |   |   |   1 = 2 : -5 (0/0)
|   |   |   |   1 = 3 : -5 (0/0)
|   |   |   |   1 = 4 : -5 (0/0)
|   |   |   |   1 = 5 : -5 (0/0)
|   |   |   4 = -1 : -1 (9/0)
|   |   |   4 = 0 : -5 (0/0)
|   |   |   4 = 1 : -5 (0/0)
|   |   |   4 = 2 : -5 (0/0)
|   |   |   4 = 3 : -5 (0/0)
|   |   |   4 = 4 : -5 (0/0)
|   |   |   4 = 5 : -5 (0/0)
|   |   9 = 0 : 0 (1/0)
|   |   9 = 1 : -5 (0/0)
|   |   9 = 2 : 2 (1/0)
|   |   9 = 3 : -5 (0/0)
|   |   9 = 4 : -5 (0/0)
|   |   9 = 5 : -5 (0/0)
|   5 = -1
|   |   9 = -5 : -5 (0/0)
|   |   9 = -4 : -5 (0/0)
|   |   9 = -3 : -2 (2/0)
|   |   9 = -2
|   |   |   2 = -5 : -5 (0/0)
|   |   |   2 = -4 : -5 (0/0)
|   |   |   2 = -3 : -5 (0/0)
|   |   |   2 = -2 : -5 (0/0)
|   |   |   2 = -1
|   |   |   |   0 = -5 : -5 (0/0)
|   |   |   |   0 = -4 : -5 (0/0)
|   |   |   |   0 = -3 : -5 (0/0)
|   |   |   |   0 = -2 : -5 (0/0)
|   |   |   |   0 = -1
|   |   |   |   |   4 = -5 : -5 (0/0)
|   |   |   |   |   4 = -4 : -5 (0/0)
|   |   |   |   |   4 = -3 : -5 (0/0)
|   |   |   |   |   4 = -2 : -2 (1/0)
|   |   |   |   |   4 = -1
|   |   |   |   |   |   7 = -5 : -5 (0/0)
|   |   |   |   |   |   7 = -4 : -5 (0/0)
|   |   |   |   |   |   7 = -3 : -5 (0/0)
|   |   |   |   |   |   7 = -2 : -5 (0/0)
|   |   |   |   |   |   7 = -1 : -2 (5/1)
|   |   |   |   |   |   7 = 0 : -2 (1/0)
|   |   |   |   |   |   7 = 1 : -5 (0/0)
|   |   |   |   |   |   7 = 2 : -5 (0/0)
|   |   |   |   |   |   7 = 3 : -5 (0/0)
|   |   |   |   |   |   7 = 4 : -5 (0/0)
|   |   |   |   |   |   7 = 5 : -5 (0/0)
|   |   |   |   |   4 = 0 : -5 (0/0)
|   |   |   |   |   4 = 1 : -5 (0/0)
|   |   |   |   |   4 = 2 : -5 (0/0)
|   |   |   |   |   4 = 3 : -5 (0/0)
|   |   |   |   |   4 = 4 : -5 (0/0)
|   |   |   |   |   4 = 5 : -5 (0/0)
|   |   |   |   0 = 0 : -2 (7/0)
|   |   |   |   0 = 1 : -2 (1/0)
|   |   |   |   0 = 2 : -5 (0/0)
|   |   |   |   0 = 3 : -5 (0/0)
|   |   |   |   0 = 4 : -5 (0/0)
|   |   |   |   0 = 5 : -5 (0/0)
|   |   |   2 = 0
|   |   |   |   7 = -5 : -5 (0/0)
|   |   |   |   7 = -4 : -5 (0/0)
|   |   |   |   7 = -3 : -5 (0/0)
|   |   |   |   7 = -2 : -2 (3/0)
|   |   |   |   7 = -1
|   |   |   |   |   0 = -5 : -5 (0/0)
|   |   |   |   |   0 = -4 : -5 (0/0)
|   |   |   |   |   0 = -3 : -5 (0/0)
|   |   |   |   |   0 = -2 : -5 (0/0)
|   |   |   |   |   0 = -1 : -5 (0/0)
|   |   |   |   |   0 = 0 : -2 (8/0)
|   |   |   |   |   0 = 1
|   |   |   |   |   |   4 = -5 : -5 (0/0)
|   |   |   |   |   |   4 = -4 : -5 (0/0)
|   |   |   |   |   |   4 = -3 : -5 (0/0)
|   |   |   |   |   |   4 = -2 : -5 (0/0)
|   |   |   |   |   |   4 = -1 : -2 (1/0)
|   |   |   |   |   |   4 = 0
|   |   |   |   |   |   |   1 = -5 : -5 (0/0)
|   |   |   |   |   |   |   1 = -4 : -5 (0/0)
|   |   |   |   |   |   |   1 = -3 : -5 (0/0)
|   |   |   |   |   |   |   1 = -2 : -5 (0/0)
|   |   |   |   |   |   |   1 = -1 : -5 (0/0)
|   |   |   |   |   |   |   1 = 0 : -2 (2/1)
|   |   |   |   |   |   |   1 = 1 : -2 (1/0)
|   |   |   |   |   |   |   1 = 2 : -5 (0/0)
|   |   |   |   |   |   |   1 = 3 : -5 (0/0)
|   |   |   |   |   |   |   1 = 4 : -5 (0/0)
|   |   |   |   |   |   |   1 = 5 : -5 (0/0)
|   |   |   |   |   |   4 = 1 : -5 (0/0)
|   |   |   |   |   |   4 = 2 : -5 (0/0)
|   |   |   |   |   |   4 = 3 : -5 (0/0)
|   |   |   |   |   |   4 = 4 : -5 (0/0)
|   |   |   |   |   |   4 = 5 : -5 (0/0)
|   |   |   |   |   0 = 2 : -5 (0/0)
|   |   |   |   |   0 = 3 : -5 (0/0)
|   |   |   |   |   0 = 4 : -5 (0/0)
|   |   |   |   |   0 = 5 : -5 (0/0)
|   |   |   |   7 = 0 : -1 (1/0)
|   |   |   |   7 = 1 : -5 (0/0)
|   |   |   |   7 = 2 : -5 (0/0)
|   |   |   |   7 = 3 : -5 (0/0)
|   |   |   |   7 = 4 : -5 (0/0)
|   |   |   |   7 = 5 : -5 (0/0)
|   |   |   2 = 1
|   |   |   |   4 = -5 : -5 (0/0)
|   |   |   |   4 = -4 : -5 (0/0)
|   |   |   |   4 = -3 : -5 (0/0)
|   |   |   |   4 = -2 : -5 (0/0)
|   |   |   |   4 = -1 : -2 (1/0)
|   |   |   |   4 = 0 : -1 (1/0)
|   |   |   |   4 = 1 : -5 (0/0)
|   |   |   |   4 = 2 : -5 (0/0)
|   |   |   |   4 = 3 : -5 (0/0)
|   |   |   |   4 = 4 : -5 (0/0)
|   |   |   |   4 = 5 : -5 (0/0)
|   |   |   2 = 2 : -5 (0/0)
|   |   |   2 = 3 : -5 (0/0)
|   |   |   2 = 4 : -5 (0/0)
|   |   |   2 = 5 : -5 (0/0)
|   |   9 = -1
|   |   |   0 = -5 : -5 (0/0)
|   |   |   0 = -4 : -5 (0/0)
|   |   |   0 = -3 : -5 (0/0)
|   |   |   0 = -2 : -5 (0/0)
|   |   |   0 = -1
|   |   |   |   2 = -5 : -5 (0/0)
|   |   |   |   2 = -4 : -5 (0/0)
|   |   |   |   2 = -3 : -5 (0/0)
|   |   |   |   2 = -2 : -5 (0/0)
|   |   |   |   2 = -1
|   |   |   |   |   3 = -5 : -5 (0/0)
|   |   |   |   |   3 = -4 : -5 (0/0)
|   |   |   |   |   3 = -3 : -5 (0/0)
|   |   |   |   |   3 = -2 : -5 (0/0)
|   |   |   |   |   3 = -1
|   |   |   |   |   |   7 = -5 : -5 (0/0)
|   |   |   |   |   |   7 = -4 : -5 (0/0)
|   |   |   |   |   |   7 = -3 : -5 (0/0)
|   |   |   |   |   |   7 = -2
|   |   |   |   |   |   |   4 = -5 : -5 (0/0)
|   |   |   |   |   |   |   4 = -4 : -5 (0/0)
|   |   |   |   |   |   |   4 = -3 : -5 (0/0)
|   |   |   |   |   |   |   4 = -2 : -5 (0/0)
|   |   |   |   |   |   |   4 = -1 : -2 (1/0)
|   |   |   |   |   |   |   4 = 0 : -1 (1/0)
|   |   |   |   |   |   |   4 = 1 : -5 (0/0)
|   |   |   |   |   |   |   4 = 2 : -5 (0/0)
|   |   |   |   |   |   |   4 = 3 : -5 (0/0)
|   |   |   |   |   |   |   4 = 4 : -5 (0/0)
|   |   |   |   |   |   |   4 = 5 : -5 (0/0)
|   |   |   |   |   |   7 = -1
|   |   |   |   |   |   |   1 = -5 : -5 (0/0)
|   |   |   |   |   |   |   1 = -4 : -5 (0/0)
|   |   |   |   |   |   |   1 = -3 : -5 (0/0)
|   |   |   |   |   |   |   1 = -2 : -5 (0/0)
|   |   |   |   |   |   |   1 = -1 : -1 (3/1)
|   |   |   |   |   |   |   1 = 0 : -2 (1/0)
|   |   |   |   |   |   |   1 = 1 : -5 (0/0)
|   |   |   |   |   |   |   1 = 2 : -5 (0/0)
|   |   |   |   |   |   |   1 = 3 : -5 (0/0)
|   |   |   |   |   |   |   1 = 4 : -5 (0/0)
|   |   |   |   |   |   |   1 = 5 : -5 (0/0)
|   |   |   |   |   |   7 = 0 : 0 (1/0)
|   |   |   |   |   |   7 = 1 : -5 (0/0)
|   |   |   |   |   |   7 = 2 : -5 (0/0)
|   |   |   |   |   |   7 = 3 : -5 (0/0)
|   |   |   |   |   |   7 = 4 : -5 (0/0)
|   |   |   |   |   |   7 = 5 : -5 (0/0)
|   |   |   |   |   3 = 0 : 0 (1/0)
|   |   |   |   |   3 = 1 : -5 (0/0)
|   |   |   |   |   3 = 2 : -5 (0/0)
|   |   |   |   |   3 = 3 : -5 (0/0)
|   |   |   |   |   3 = 4 : -5 (0/0)
|   |   |   |   |   3 = 5 : -5 (0/0)
|   |   |   |   2 = 0
|   |   |   |   |   4 = -5 : -5 (0/0)
|   |   |   |   |   4 = -4 : -5 (0/0)
|   |   |   |   |   4 = -3 : -5 (0/0)
|   |   |   |   |   4 = -2 : 0 (1/0)
|   |   |   |   |   4 = -1 : -1 (2/0)
|   |   |   |   |   4 = 0 : 0 (1/0)
|   |   |   |   |   4 = 1 : -5 (0/0)
|   |   |   |   |   4 = 2 : -5 (0/0)
|   |   |   |   |   4 = 3 : -5 (0/0)
|   |   |   |   |   4 = 4 : -5 (0/0)
|   |   |   |   |   4 = 5 : -5 (0/0)
|   |   |   |   2 = 1 : 0 (1/0)
|   |   |   |   2 = 2 : -5 (0/0)
|   |   |   |   2 = 3 : -5 (0/0)
|   |   |   |   2 = 4 : -5 (0/0)
|   |   |   |   2 = 5 : -5 (0/0)
|   |   |   0 = 0
|   |   |   |   4 = -5 : -5 (0/0)
|   |   |   |   4 = -4 : -5 (0/0)
|   |   |   |   4 = -3 : -5 (0/0)
|   |   |   |   4 = -2 : -1 (4/0)
|   |   |   |   4 = -1
|   |   |   |   |   2 = -5 : -5 (0/0)
|   |   |   |   |   2 = -4 : -5 (0/0)
|   |   |   |   |   2 = -3 : -5 (0/0)
|   |   |   |   |   2 = -2 : -5 (0/0)
|   |   |   |   |   2 = -1
|   |   |   |   |   |   7 = -5 : -5 (0/0)
|   |   |   |   |   |   7 = -4 : -5 (0/0)
|   |   |   |   |   |   7 = -3 : -5 (0/0)
|   |   |   |   |   |   7 = -2 : -1 (3/0)
|   |   |   |   |   |   7 = -1
|   |   |   |   |   |   |   1 = -5 : -5 (0/0)
|   |   |   |   |   |   |   1 = -4 : -5 (0/0)
|   |   |   |   |   |   |   1 = -3 : -5 (0/0)
|   |   |   |   |   |   |   1 = -2 : -5 (0/0)
|   |   |   |   |   |   |   1 = -1
|   |   |   |   |   |   |   |   6 = -5 : -5 (0/0)
|   |   |   |   |   |   |   |   6 = -4 : -5 (0/0)
|   |   |   |   |   |   |   |   6 = -3 : -5 (0/0)
|   |   |   |   |   |   |   |   6 = -2 : -2 (2/1)
|   |   |   |   |   |   |   |   6 = -1 : -1 (5/2)
|   |   |   |   |   |   |   |   6 = 0 : -5 (0/0)
|   |   |   |   |   |   |   |   6 = 1 : -5 (0/0)
|   |   |   |   |   |   |   |   6 = 2 : -5 (0/0)
|   |   |   |   |   |   |   |   6 = 3 : -5 (0/0)
|   |   |   |   |   |   |   |   6 = 4 : -5 (0/0)
|   |   |   |   |   |   |   |   6 = 5 : -5 (0/0)
|   |   |   |   |   |   |   1 = 0
|   |   |   |   |   |   |   |   6 = -5 : -5 (0/0)
|   |   |   |   |   |   |   |   6 = -4 : -5 (0/0)
|   |   |   |   |   |   |   |   6 = -3 : -5 (0/0)
|   |   |   |   |   |   |   |   6 = -2 : -1 (1/0)
|   |   |   |   |   |   |   |   6 = -1 : -1 (7/3)
|   |   |   |   |   |   |   |   6 = 0 : -1 (2/0)
|   |   |   |   |   |   |   |   6 = 1 : -5 (0/0)
|   |   |   |   |   |   |   |   6 = 2 : -5 (0/0)
|   |   |   |   |   |   |   |   6 = 3 : -5 (0/0)
|   |   |   |   |   |   |   |   6 = 4 : -5 (0/0)
|   |   |   |   |   |   |   |   6 = 5 : -5 (0/0)
|   |   |   |   |   |   |   1 = 1 : -5 (0/0)
|   |   |   |   |   |   |   1 = 2 : -5 (0/0)
|   |   |   |   |   |   |   1 = 3 : -5 (0/0)
|   |   |   |   |   |   |   1 = 4 : -5 (0/0)
|   |   |   |   |   |   |   1 = 5 : -5 (0/0)
|   |   |   |   |   |   7 = 0 : -5 (0/0)
|   |   |   |   |   |   7 = 1 : -5 (0/0)
|   |   |   |   |   |   7 = 2 : -5 (0/0)
|   |   |   |   |   |   7 = 3 : -5 (0/0)
|   |   |   |   |   |   7 = 4 : -5 (0/0)
|   |   |   |   |   |   7 = 5 : -5 (0/0)
|   |   |   |   |   2 = 0
|   |   |   |   |   |   1 = -5 : -5 (0/0)
|   |   |   |   |   |   1 = -4 : -5 (0/0)
|   |   |   |   |   |   1 = -3 : -5 (0/0)
|   |   |   |   |   |   1 = -2 : -5 (0/0)
|   |   |   |   |   |   1 = -1 : -1 (2/0)
|   |   |   |   |   |   1 = 0
|   |   |   |   |   |   |   3 = -5 : -5 (0/0)
|   |   |   |   |   |   |   3 = -4 : -5 (0/0)
|   |   |   |   |   |   |   3 = -3 : -5 (0/0)
|   |   |   |   |   |   |   3 = -2 : -5 (0/0)
|   |   |   |   |   |   |   3 = -1
|   |   |   |   |   |   |   |   7 = -5 : -5 (0/0)
|   |   |   |   |   |   |   |   7 = -4 : -5 (0/0)
|   |   |   |   |   |   |   |   7 = -3 : -5 (0/0)
|   |   |   |   |   |   |   |   7 = -2 : -5 (0/0)
|   |   |   |   |   |   |   |   7 = -1
|   |   |   |   |   |   |   |   |   6 = -5 : -5 (0/0)
|   |   |   |   |   |   |   |   |   6 = -4 : -5 (0/0)
|   |   |   |   |   |   |   |   |   6 = -3 : -5 (0/0)
|   |   |   |   |   |   |   |   |   6 = -2 : -1 (1/0)
|   |   |   |   |   |   |   |   |   6 = -1 : -1 (9/2)
|   |   |   |   |   |   |   |   |   6 = 0 : -1 (1/0)
|   |   |   |   |   |   |   |   |   6 = 1 : -5 (0/0)
|   |   |   |   |   |   |   |   |   6 = 2 : -5 (0/0)
|   |   |   |   |   |   |   |   |   6 = 3 : -5 (0/0)
|   |   |   |   |   |   |   |   |   6 = 4 : -5 (0/0)
|   |   |   |   |   |   |   |   |   6 = 5 : -5 (0/0)
|   |   |   |   |   |   |   |   7 = 0 : -1 (1/0)
|   |   |   |   |   |   |   |   7 = 1 : -5 (0/0)
|   |   |   |   |   |   |   |   7 = 2 : -5 (0/0)
|   |   |   |   |   |   |   |   7 = 3 : -5 (0/0)
|   |   |   |   |   |   |   |   7 = 4 : -5 (0/0)
|   |   |   |   |   |   |   |   7 = 5 : -5 (0/0)
|   |   |   |   |   |   |   3 = 0 : -1 (14/3)
|   |   |   |   |   |   |   3 = 1 : -5 (0/0)
|   |   |   |   |   |   |   3 = 2 : -5 (0/0)
|   |   |   |   |   |   |   3 = 3 : -5 (0/0)
|   |   |   |   |   |   |   3 = 4 : -5 (0/0)
|   |   |   |   |   |   |   3 = 5 : -5 (0/0)
|   |   |   |   |   |   1 = 1
|   |   |   |   |   |   |   3 = -5 : -5 (0/0)
|   |   |   |   |   |   |   3 = -4 : -5 (0/0)
|   |   |   |   |   |   |   3 = -3 : -5 (0/0)
|   |   |   |   |   |   |   3 = -2 : -5 (0/0)
|   |   |   |   |   |   |   3 = -1 : -1 (1/0)
|   |   |   |   |   |   |   3 = 0 : -2 (3/1)
|   |   |   |   |   |   |   3 = 1 : -5 (0/0)
|   |   |   |   |   |   |   3 = 2 : -5 (0/0)
|   |   |   |   |   |   |   3 = 3 : -5 (0/0)
|   |   |   |   |   |   |   3 = 4 : -5 (0/0)
|   |   |   |   |   |   |   3 = 5 : -5 (0/0)
|   |   |   |   |   |   1 = 2 : -5 (0/0)
|   |   |   |   |   |   1 = 3 : -5 (0/0)
|   |   |   |   |   |   1 = 4 : -5 (0/0)
|   |   |   |   |   |   1 = 5 : -5 (0/0)
|   |   |   |   |   2 = 1
|   |   |   |   |   |   1 = -5 : -5 (0/0)
|   |   |   |   |   |   1 = -4 : -5 (0/0)
|   |   |   |   |   |   1 = -3 : -5 (0/0)
|   |   |   |   |   |   1 = -2 : -5 (0/0)
|   |   |   |   |   |   1 = -1 : -5 (0/0)
|   |   |   |   |   |   1 = 0 : -1 (2/1)
|   |   |   |   |   |   1 = 1 : -1 (2/0)
|   |   |   |   |   |   1 = 2 : -5 (0/0)
|   |   |   |   |   |   1 = 3 : -5 (0/0)
|   |   |   |   |   |   1 = 4 : -5 (0/0)
|   |   |   |   |   |   1 = 5 : -5 (0/0)
|   |   |   |   |   2 = 2 : -5 (0/0)
|   |   |   |   |   2 = 3 : -5 (0/0)
|   |   |   |   |   2 = 4 : -5 (0/0)
|   |   |   |   |   2 = 5 : -5 (0/0)
|   |   |   |   4 = 0
|   |   |   |   |   7 = -5 : -5 (0/0)
|   |   |   |   |   7 = -4 : -5 (0/0)
|   |   |   |   |   7 = -3 : -5 (0/0)
|   |   |   |   |   7 = -2 : -5 (0/0)
|   |   |   |   |   7 = -1
|   |   |   |   |   |   2 = -5 : -5 (0/0)
|   |   |   |   |   |   2 = -4 : -5 (0/0)
|   |   |   |   |   |   2 = -3 : -5 (0/0)
|   |   |   |   |   |   2 = -2 : -5 (0/0)
|   |   |   |   |   |   2 = -1
|   |   |   |   |   |   |   1 = -5 : -5 (0/0)
|   |   |   |   |   |   |   1 = -4 : -5 (0/0)
|   |   |   |   |   |   |   1 = -3 : -5 (0/0)
|   |   |   |   |   |   |   1 = -2 : -5 (0/0)
|   |   |   |   |   |   |   1 = -1 : -1 (1/0)
|   |   |   |   |   |   |   1 = 0 : -2 (1/0)
|   |   |   |   |   |   |   1 = 1 : -5 (0/0)
|   |   |   |   |   |   |   1 = 2 : -5 (0/0)
|   |   |   |   |   |   |   1 = 3 : -5 (0/0)
|   |   |   |   |   |   |   1 = 4 : -5 (0/0)
|   |   |   |   |   |   |   1 = 5 : -5 (0/0)
|   |   |   |   |   |   2 = 0
|   |   |   |   |   |   |   1 = -5 : -5 (0/0)
|   |   |   |   |   |   |   1 = -4 : -5 (0/0)
|   |   |   |   |   |   |   1 = -3 : -5 (0/0)
|   |   |   |   |   |   |   1 = -2 : -5 (0/0)
|   |   |   |   |   |   |   1 = -1 : -5 (0/0)
|   |   |   |   |   |   |   1 = 0
|   |   |   |   |   |   |   |   6 = -5 : -5 (0/0)
|   |   |   |   |   |   |   |   6 = -4 : -5 (0/0)
|   |   |   |   |   |   |   |   6 = -3 : -5 (0/0)
|   |   |   |   |   |   |   |   6 = -2 : -5 (0/0)
|   |   |   |   |   |   |   |   6 = -1
|   |   |   |   |   |   |   |   |   3 = -5 : -5 (0/0)
|   |   |   |   |   |   |   |   |   3 = -4 : -5 (0/0)
|   |   |   |   |   |   |   |   |   3 = -3 : -5 (0/0)
|   |   |   |   |   |   |   |   |   3 = -2 : -5 (0/0)
|   |   |   |   |   |   |   |   |   3 = -1 : -5 (0/0)
|   |   |   |   |   |   |   |   |   3 = 0 : -2 (8/5)
|   |   |   |   |   |   |   |   |   3 = 1 : -2 (2/1)
|   |   |   |   |   |   |   |   |   3 = 2 : -5 (0/0)
|   |   |   |   |   |   |   |   |   3 = 3 : -5 (0/0)
|   |   |   |   |   |   |   |   |   3 = 4 : -5 (0/0)
|   |   |   |   |   |   |   |   |   3 = 5 : -5 (0/0)
|   |   |   |   |   |   |   |   6 = 0 : -1 (4/2)
|   |   |   |   |   |   |   |   6 = 1 : -5 (0/0)
|   |   |   |   |   |   |   |   6 = 2 : -5 (0/0)
|   |   |   |   |   |   |   |   6 = 3 : -5 (0/0)
|   |   |   |   |   |   |   |   6 = 4 : -5 (0/0)
|   |   |   |   |   |   |   |   6 = 5 : -5 (0/0)
|   |   |   |   |   |   |   1 = 1 : -1 (1/0)
|   |   |   |   |   |   |   1 = 2 : -5 (0/0)
|   |   |   |   |   |   |   1 = 3 : -5 (0/0)
|   |   |   |   |   |   |   1 = 4 : -5 (0/0)
|   |   |   |   |   |   |   1 = 5 : -5 (0/0)
|   |   |   |   |   |   2 = 1 : -1 (3/0)
|   |   |   |   |   |   2 = 2 : -5 (0/0)
|   |   |   |   |   |   2 = 3 : -5 (0/0)
|   |   |   |   |   |   2 = 4 : -5 (0/0)
|   |   |   |   |   |   2 = 5 : -5 (0/0)
|   |   |   |   |   7 = 0
|   |   |   |   |   |   6 = -5 : -5 (0/0)
|   |   |   |   |   |   6 = -4 : -5 (0/0)
|   |   |   |   |   |   6 = -3 : -5 (0/0)
|   |   |   |   |   |   6 = -2 : -5 (0/0)
|   |   |   |   |   |   6 = -1
|   |   |   |   |   |   |   1 = -5 : -5 (0/0)
|   |   |   |   |   |   |   1 = -4 : -5 (0/0)
|   |   |   |   |   |   |   1 = -3 : -5 (0/0)
|   |   |   |   |   |   |   1 = -2 : -5 (0/0)
|   |   |   |   |   |   |   1 = -1 : -1 (1/0)
|   |   |   |   |   |   |   1 = 0 : -5 (0/0)
|   |   |   |   |   |   |   1 = 1 : 0 (1/0)
|   |   |   |   |   |   |   1 = 2 : -5 (0/0)
|   |   |   |   |   |   |   1 = 3 : -5 (0/0)
|   |   |   |   |   |   |   1 = 4 : -5 (0/0)
|   |   |   |   |   |   |   1 = 5 : -5 (0/0)
|   |   |   |   |   |   6 = 0 : -2 (1/0)
|   |   |   |   |   |   6 = 1 : -5 (0/0)
|   |   |   |   |   |   6 = 2 : -5 (0/0)
|   |   |   |   |   |   6 = 3 : -5 (0/0)
|   |   |   |   |   |   6 = 4 : -5 (0/0)
|   |   |   |   |   |   6 = 5 : -5 (0/0)
|   |   |   |   |   7 = 1 : -5 (0/0)
|   |   |   |   |   7 = 2 : -5 (0/0)
|   |   |   |   |   7 = 3 : -5 (0/0)
|   |   |   |   |   7 = 4 : -5 (0/0)
|   |   |   |   |   7 = 5 : -5 (0/0)
|   |   |   |   4 = 1 : -5 (0/0)
|   |   |   |   4 = 2 : -5 (0/0)
|   |   |   |   4 = 3 : -5 (0/0)
|   |   |   |   4 = 4 : -5 (0/0)
|   |   |   |   4 = 5 : -5 (0/0)
|   |   |   0 = 1
|   |   |   |   2 = -5 : -5 (0/0)
|   |   |   |   2 = -4 : -5 (0/0)
|   |   |   |   2 = -3 : -5 (0/0)
|   |   |   |   2 = -2 : -5 (0/0)
|   |   |   |   2 = -1 : -1 (1/0)
|   |   |   |   2 = 0
|   |   |   |   |   4 = -5 : -5 (0/0)
|   |   |   |   |   4 = -4 : -5 (0/0)
|   |   |   |   |   4 = -3 : -5 (0/0)
|   |   |   |   |   4 = -2 : -5 (0/0)
|   |   |   |   |   4 = -1 : -2 (1/0)
|   |   |   |   |   4 = 0 : 0 (1/0)
|   |   |   |   |   4 = 1 : -1 (1/0)
|   |   |   |   |   4 = 2 : -5 (0/0)
|   |   |   |   |   4 = 3 : -5 (0/0)
|   |   |   |   |   4 = 4 : -5 (0/0)
|   |   |   |   |   4 = 5 : -5 (0/0)
|   |   |   |   2 = 1 : -5 (0/0)
|   |   |   |   2 = 2 : -5 (0/0)
|   |   |   |   2 = 3 : -5 (0/0)
|   |   |   |   2 = 4 : -5 (0/0)
|   |   |   |   2 = 5 : -5 (0/0)
|   |   |   0 = 2 : -5 (0/0)
|   |   |   0 = 3 : -5 (0/0)
|   |   |   0 = 4 : -5 (0/0)
|   |   |   0 = 5 : -5 (0/0)
|   |   9 = 0
|   |   |   6 = -5 : -5 (0/0)
|   |   |   6 = -4 : -5 (0/0)
|   |   |   6 = -3 : -5 (0/0)
|   |   |   6 = -2 : 1 (1/0)
|   |   |   6 = -1
|   |   |   |   4 = -5 : -5 (0/0)
|   |   |   |   4 = -4 : -5 (0/0)
|   |   |   |   4 = -3 : -5 (0/0)
|   |   |   |   4 = -2 : 0 (2/0)
|   |   |   |   4 = -1
|   |   |   |   |   3 = -5 : -5 (0/0)
|   |   |   |   |   3 = -4 : -5 (0/0)
|   |   |   |   |   3 = -3 : -5 (0/0)
|   |   |   |   |   3 = -2 : -5 (0/0)
|   |   |   |   |   3 = -1
|   |   |   |   |   |   7 = -5 : -5 (0/0)
|   |   |   |   |   |   7 = -4 : -5 (0/0)
|   |   |   |   |   |   7 = -3 : -5 (0/0)
|   |   |   |   |   |   7 = -2 : -5 (0/0)
|   |   |   |   |   |   7 = -1
|   |   |   |   |   |   |   2 = -5 : -5 (0/0)
|   |   |   |   |   |   |   2 = -4 : -5 (0/0)
|   |   |   |   |   |   |   2 = -3 : -5 (0/0)
|   |   |   |   |   |   |   2 = -2 : -5 (0/0)
|   |   |   |   |   |   |   2 = -1 : 0 (2/1)
|   |   |   |   |   |   |   2 = 0 : 0 (2/0)
|   |   |   |   |   |   |   2 = 1 : -5 (0/0)
|   |   |   |   |   |   |   2 = 2 : -5 (0/0)
|   |   |   |   |   |   |   2 = 3 : -5 (0/0)
|   |   |   |   |   |   |   2 = 4 : -5 (0/0)
|   |   |   |   |   |   |   2 = 5 : -5 (0/0)
|   |   |   |   |   |   7 = 0 : 0 (1/0)
|   |   |   |   |   |   7 = 1 : -5 (0/0)
|   |   |   |   |   |   7 = 2 : -5 (0/0)
|   |   |   |   |   |   7 = 3 : -5 (0/0)
|   |   |   |   |   |   7 = 4 : -5 (0/0)
|   |   |   |   |   |   7 = 5 : -5 (0/0)
|   |   |   |   |   3 = 0
|   |   |   |   |   |   7 = -5 : -5 (0/0)
|   |   |   |   |   |   7 = -4 : -5 (0/0)
|   |   |   |   |   |   7 = -3 : -5 (0/0)
|   |   |   |   |   |   7 = -2 : -5 (0/0)
|   |   |   |   |   |   7 = -1 : -1 (2/1)
|   |   |   |   |   |   7 = 0 : -1 (1/0)
|   |   |   |   |   |   7 = 1 : -5 (0/0)
|   |   |   |   |   |   7 = 2 : -5 (0/0)
|   |   |   |   |   |   7 = 3 : -5 (0/0)
|   |   |   |   |   |   7 = 4 : -5 (0/0)
|   |   |   |   |   |   7 = 5 : -5 (0/0)
|   |   |   |   |   3 = 1 : 0 (1/0)
|   |   |   |   |   3 = 2 : -5 (0/0)
|   |   |   |   |   3 = 3 : -5 (0/0)
|   |   |   |   |   3 = 4 : -5 (0/0)
|   |   |   |   |   3 = 5 : -5 (0/0)
|   |   |   |   4 = 0
|   |   |   |   |   2 = -5 : -5 (0/0)
|   |   |   |   |   2 = -4 : -5 (0/0)
|   |   |   |   |   2 = -3 : -5 (0/0)
|   |   |   |   |   2 = -2 : -5 (0/0)
|   |   |   |   |   2 = -1 : -5 (0/0)
|   |   |   |   |   2 = 0
|   |   |   |   |   |   3 = -5 : -5 (0/0)
|   |   |   |   |   |   3 = -4 : -5 (0/0)
|   |   |   |   |   |   3 = -3 : -5 (0/0)
|   |   |   |   |   |   3 = -2 : -5 (0/0)
|   |   |   |   |   |   3 = -1 : 1 (1/0)
|   |   |   |   |   |   3 = 0 : -1 (1/0)
|   |   |   |   |   |   3 = 1 : -5 (0/0)
|   |   |   |   |   |   3 = 2 : -5 (0/0)
|   |   |   |   |   |   3 = 3 : -5 (0/0)
|   |   |   |   |   |   3 = 4 : -5 (0/0)
|   |   |   |   |   |   3 = 5 : -5 (0/0)
|   |   |   |   |   2 = 1 : 1 (1/0)
|   |   |   |   |   2 = 2 : -5 (0/0)
|   |   |   |   |   2 = 3 : -5 (0/0)
|   |   |   |   |   2 = 4 : -5 (0/0)
|   |   |   |   |   2 = 5 : -5 (0/0)
|   |   |   |   4 = 1 : -5 (0/0)
|   |   |   |   4 = 2 : -5 (0/0)
|   |   |   |   4 = 3 : -5 (0/0)
|   |   |   |   4 = 4 : -5 (0/0)
|   |   |   |   4 = 5 : -5 (0/0)
|   |   |   6 = 0
|   |   |   |   3 = -5 : -5 (0/0)
|   |   |   |   3 = -4 : -5 (0/0)
|   |   |   |   3 = -3 : -5 (0/0)
|   |   |   |   3 = -2 : 0 (1/0)
|   |   |   |   3 = -1
|   |   |   |   |   4 = -5 : -5 (0/0)
|   |   |   |   |   4 = -4 : -5 (0/0)
|   |   |   |   |   4 = -3 : -5 (0/0)
|   |   |   |   |   4 = -2 : -5 (0/0)
|   |   |   |   |   4 = -1
|   |   |   |   |   |   7 = -5 : -5 (0/0)
|   |   |   |   |   |   7 = -4 : -5 (0/0)
|   |   |   |   |   |   7 = -3 : -5 (0/0)
|   |   |   |   |   |   7 = -2 : -5 (0/0)
|   |   |   |   |   |   7 = -1 : 0 (1/0)
|   |   |   |   |   |   7 = 0 : -1 (1/0)
|   |   |   |   |   |   7 = 1 : -5 (0/0)
|   |   |   |   |   |   7 = 2 : -5 (0/0)
|   |   |   |   |   |   7 = 3 : -5 (0/0)
|   |   |   |   |   |   7 = 4 : -5 (0/0)
|   |   |   |   |   |   7 = 5 : -5 (0/0)
|   |   |   |   |   4 = 0 : 0 (1/0)
|   |   |   |   |   4 = 1 : -5 (0/0)
|   |   |   |   |   4 = 2 : -5 (0/0)
|   |   |   |   |   4 = 3 : -5 (0/0)
|   |   |   |   |   4 = 4 : -5 (0/0)
|   |   |   |   |   4 = 5 : -5 (0/0)
|   |   |   |   3 = 0
|   |   |   |   |   1 = -5 : -5 (0/0)
|   |   |   |   |   1 = -4 : -5 (0/0)
|   |   |   |   |   1 = -3 : -5 (0/0)
|   |   |   |   |   1 = -2 : -5 (0/0)
|   |   |   |   |   1 = -1 : -1 (1/0)
|   |   |   |   |   1 = 0 : 0 (1/0)
|   |   |   |   |   1 = 1 : -5 (0/0)
|   |   |   |   |   1 = 2 : -5 (0/0)
|   |   |   |   |   1 = 3 : -5 (0/0)
|   |   |   |   |   1 = 4 : -5 (0/0)
|   |   |   |   |   1 = 5 : -5 (0/0)
|   |   |   |   3 = 1 : -5 (0/0)
|   |   |   |   3 = 2 : -5 (0/0)
|   |   |   |   3 = 3 : -5 (0/0)
|   |   |   |   3 = 4 : -5 (0/0)
|   |   |   |   3 = 5 : -5 (0/0)
|   |   |   6 = 1 : -5 (0/0)
|   |   |   6 = 2 : -5 (0/0)
|   |   |   6 = 3 : -5 (0/0)
|   |   |   6 = 4 : -5 (0/0)
|   |   |   6 = 5 : -5 (0/0)
|   |   9 = 1 : -5 (0/0)
|   |   9 = 2 : -5 (0/0)
|   |   9 = 3 : -5 (0/0)
|   |   9 = 4 : -5 (0/0)
|   |   9 = 5 : -5 (0/0)
|   5 = 0
|   |   0 = -5 : -5 (0/0)
|   |   0 = -4 : -5 (0/0)
|   |   0 = -3 : -5 (0/0)
|   |   0 = -2 : -5 (0/0)
|   |   0 = -1
|   |   |   4 = -5 : -5 (0/0)
|   |   |   4 = -4 : -5 (0/0)
|   |   |   4 = -3 : -5 (0/0)
|   |   |   4 = -2 : -2 (1/0)
|   |   |   4 = -1
|   |   |   |   2 = -5 : -5 (0/0)
|   |   |   |   2 = -4 : -5 (0/0)
|   |   |   |   2 = -3 : -5 (0/0)
|   |   |   |   2 = -2 : -5 (0/0)
|   |   |   |   2 = -1 : -1 (2/0)
|   |   |   |   2 = 0 : -2 (1/0)
|   |   |   |   2 = 1 : -5 (0/0)
|   |   |   |   2 = 2 : -5 (0/0)
|   |   |   |   2 = 3 : -5 (0/0)
|   |   |   |   2 = 4 : -5 (0/0)
|   |   |   |   2 = 5 : -5 (0/0)
|   |   |   4 = 0
|   |   |   |   3 = -5 : -5 (0/0)
|   |   |   |   3 = -4 : -5 (0/0)
|   |   |   |   3 = -3 : -5 (0/0)
|   |   |   |   3 = -2 : -5 (0/0)
|   |   |   |   3 = -1 : 1 (1/0)
|   |   |   |   3 = 0 : -1 (2/0)
|   |   |   |   3 = 1 : -5 (0/0)
|   |   |   |   3 = 2 : -5 (0/0)
|   |   |   |   3 = 3 : -5 (0/0)
|   |   |   |   3 = 4 : -5 (0/0)
|   |   |   |   3 = 5 : -5 (0/0)
|   |   |   4 = 1 : -1 (2/0)
|   |   |   4 = 2 : -5 (0/0)
|   |   |   4 = 3 : -5 (0/0)
|   |   |   4 = 4 : -5 (0/0)
|   |   |   4 = 5 : -5 (0/0)
|   |   0 = 0
|   |   |   6 = -5 : -5 (0/0)
|   |   |   6 = -4 : -5 (0/0)
|   |   |   6 = -3 : -5 (0/0)
|   |   |   6 = -2 : -5 (0/0)
|   |   |   6 = -1
|   |   |   |   1 = -5 : -5 (0/0)
|   |   |   |   1 = -4 : -5 (0/0)
|   |   |   |   1 = -3 : -5 (0/0)
|   |   |   |   1 = -2 : -5 (0/0)
|   |   |   |   1 = -1 : 0 (1/0)
|   |   |   |   1 = 0
|   |   |   |   |   9 = -5 : -5 (0/0)
|   |   |   |   |   9 = -4 : -5 (0/0)
|   |   |   |   |   9 = -3 : -5 (0/0)
|   |   |   |   |   9 = -2
|   |   |   |   |   |   4 = -5 : -5 (0/0)
|   |   |   |   |   |   4 = -4 : -5 (0/0)
|   |   |   |   |   |   4 = -3 : -5 (0/0)
|   |   |   |   |   |   4 = -2 : -5 (0/0)
|   |   |   |   |   |   4 = -1 : -2 (1/0)
|   |   |   |   |   |   4 = 0 : -1 (1/0)
|   |   |   |   |   |   4 = 1 : -1 (1/0)
|   |   |   |   |   |   4 = 2 : -5 (0/0)
|   |   |   |   |   |   4 = 3 : -5 (0/0)
|   |   |   |   |   |   4 = 4 : -5 (0/0)
|   |   |   |   |   |   4 = 5 : -5 (0/0)
|   |   |   |   |   9 = -1
|   |   |   |   |   |   4 = -5 : -5 (0/0)
|   |   |   |   |   |   4 = -4 : -5 (0/0)
|   |   |   |   |   |   4 = -3 : -5 (0/0)
|   |   |   |   |   |   4 = -2 : -5 (0/0)
|   |   |   |   |   |   4 = -1
|   |   |   |   |   |   |   3 = -5 : -5 (0/0)
|   |   |   |   |   |   |   3 = -4 : -5 (0/0)
|   |   |   |   |   |   |   3 = -3 : -5 (0/0)
|   |   |   |   |   |   |   3 = -2 : -5 (0/0)
|   |   |   |   |   |   |   3 = -1 : -2 (1/0)
|   |   |   |   |   |   |   3 = 0 : 0 (1/0)
|   |   |   |   |   |   |   3 = 1 : -5 (0/0)
|   |   |   |   |   |   |   3 = 2 : -5 (0/0)
|   |   |   |   |   |   |   3 = 3 : -5 (0/0)
|   |   |   |   |   |   |   3 = 4 : -5 (0/0)
|   |   |   |   |   |   |   3 = 5 : -5 (0/0)
|   |   |   |   |   |   4 = 0
|   |   |   |   |   |   |   3 = -5 : -5 (0/0)
|   |   |   |   |   |   |   3 = -4 : -5 (0/0)
|   |   |   |   |   |   |   3 = -3 : -5 (0/0)
|   |   |   |   |   |   |   3 = -2 : -5 (0/0)
|   |   |   |   |   |   |   3 = -1
|   |   |   |   |   |   |   |   2 = -5 : -5 (0/0)
|   |   |   |   |   |   |   |   2 = -4 : -5 (0/0)
|   |   |   |   |   |   |   |   2 = -3 : -5 (0/0)
|   |   |   |   |   |   |   |   2 = -2 : -5 (0/0)
|   |   |   |   |   |   |   |   2 = -1 : 0 (1/0)
|   |   |   |   |   |   |   |   2 = 0 : -1 (1/0)
|   |   |   |   |   |   |   |   2 = 1 : -5 (0/0)
|   |   |   |   |   |   |   |   2 = 2 : -5 (0/0)
|   |   |   |   |   |   |   |   2 = 3 : -5 (0/0)
|   |   |   |   |   |   |   |   2 = 4 : -5 (0/0)
|   |   |   |   |   |   |   |   2 = 5 : -5 (0/0)
|   |   |   |   |   |   |   3 = 0
|   |   |   |   |   |   |   |   7 = -5 : -5 (0/0)
|   |   |   |   |   |   |   |   7 = -4 : -5 (0/0)
|   |   |   |   |   |   |   |   7 = -3 : -5 (0/0)
|   |   |   |   |   |   |   |   7 = -2 : -5 (0/0)
|   |   |   |   |   |   |   |   7 = -1
|   |   |   |   |   |   |   |   |   2 = -5 : -5 (0/0)
|   |   |   |   |   |   |   |   |   2 = -4 : -5 (0/0)
|   |   |   |   |   |   |   |   |   2 = -3 : -5 (0/0)
|   |   |   |   |   |   |   |   |   2 = -2 : -5 (0/0)
|   |   |   |   |   |   |   |   |   2 = -1 : -5 (0/0)
|   |   |   |   |   |   |   |   |   2 = 0 : -1 (10/1)
|   |   |   |   |   |   |   |   |   2 = 1 : -1 (1/0)
|   |   |   |   |   |   |   |   |   2 = 2 : -5 (0/0)
|   |   |   |   |   |   |   |   |   2 = 3 : -5 (0/0)
|   |   |   |   |   |   |   |   |   2 = 4 : -5 (0/0)
|   |   |   |   |   |   |   |   |   2 = 5 : -5 (0/0)
|   |   |   |   |   |   |   |   7 = 0 : -1 (3/1)
|   |   |   |   |   |   |   |   7 = 1 : -5 (0/0)
|   |   |   |   |   |   |   |   7 = 2 : -5 (0/0)
|   |   |   |   |   |   |   |   7 = 3 : -5 (0/0)
|   |   |   |   |   |   |   |   7 = 4 : -5 (0/0)
|   |   |   |   |   |   |   |   7 = 5 : -5 (0/0)
|   |   |   |   |   |   |   3 = 1 : -1 (5/2)
|   |   |   |   |   |   |   3 = 2 : -5 (0/0)
|   |   |   |   |   |   |   3 = 3 : -5 (0/0)
|   |   |   |   |   |   |   3 = 4 : -5 (0/0)
|   |   |   |   |   |   |   3 = 5 : -5 (0/0)
|   |   |   |   |   |   4 = 1 : 0 (3/1)
|   |   |   |   |   |   4 = 2 : -1 (1/0)
|   |   |   |   |   |   4 = 3 : -5 (0/0)
|   |   |   |   |   |   4 = 4 : -5 (0/0)
|   |   |   |   |   |   4 = 5 : -5 (0/0)
|   |   |   |   |   9 = 0
|   |   |   |   |   |   7 = -5 : -5 (0/0)
|   |   |   |   |   |   7 = -4 : -5 (0/0)
|   |   |   |   |   |   7 = -3 : -5 (0/0)
|   |   |   |   |   |   7 = -2 : -5 (0/0)
|   |   |   |   |   |   7 = -1 : -2 (2/1)
|   |   |   |   |   |   7 = 0
|   |   |   |   |   |   |   3 = -5 : -5 (0/0)
|   |   |   |   |   |   |   3 = -4 : -5 (0/0)
|   |   |   |   |   |   |   3 = -3 : -5 (0/0)
|   |   |   |   |   |   |   3 = -2 : -5 (0/0)
|   |   |   |   |   |   |   3 = -1 : 0 (1/0)
|   |   |   |   |   |   |   3 = 0 : -1 (2/1)
|   |   |   |   |   |   |   3 = 1 : -5 (0/0)
|   |   |   |   |   |   |   3 = 2 : -5 (0/0)
|   |   |   |   |   |   |   3 = 3 : -5 (0/0)
|   |   |   |   |   |   |   3 = 4 : -5 (0/0)
|   |   |   |   |   |   |   3 = 5 : -5 (0/0)
|   |   |   |   |   |   7 = 1 : -5 (0/0)
|   |   |   |   |   |   7 = 2 : -5 (0/0)
|   |   |   |   |   |   7 = 3 : -5 (0/0)
|   |   |   |   |   |   7 = 4 : -5 (0/0)
|   |   |   |   |   |   7 = 5 : -5 (0/0)
|   |   |   |   |   9 = 1 : -5 (0/0)
|   |   |   |   |   9 = 2 : -5 (0/0)
|   |   |   |   |   9 = 3 : -5 (0/0)
|   |   |   |   |   9 = 4 : -5 (0/0)
|   |   |   |   |   9 = 5 : -5 (0/0)
|   |   |   |   1 = 1
|   |   |   |   |   2 = -5 : -5 (0/0)
|   |   |   |   |   2 = -4 : -5 (0/0)
|   |   |   |   |   2 = -3 : -5 (0/0)
|   |   |   |   |   2 = -2 : -5 (0/0)
|   |   |   |   |   2 = -1 : -5 (0/0)
|   |   |   |   |   2 = 0
|   |   |   |   |   |   3 = -5 : -5 (0/0)
|   |   |   |   |   |   3 = -4 : -5 (0/0)
|   |   |   |   |   |   3 = -3 : -5 (0/0)
|   |   |   |   |   |   3 = -2 : -5 (0/0)
|   |   |   |   |   |   3 = -1 : 0 (1/0)
|   |   |   |   |   |   3 = 0 : -1 (1/0)
|   |   |   |   |   |   3 = 1 : -5 (0/0)
|   |   |   |   |   |   3 = 2 : -5 (0/0)
|   |   |   |   |   |   3 = 3 : -5 (0/0)
|   |   |   |   |   |   3 = 4 : -5 (0/0)
|   |   |   |   |   |   3 = 5 : -5 (0/0)
|   |   |   |   |   2 = 1 : -1 (1/0)
|   |   |   |   |   2 = 2 : -5 (0/0)
|   |   |   |   |   2 = 3 : -5 (0/0)
|   |   |   |   |   2 = 4 : -5 (0/0)
|   |   |   |   |   2 = 5 : -5 (0/0)
|   |   |   |   1 = 2 : -5 (0/0)
|   |   |   |   1 = 3 : -5 (0/0)
|   |   |   |   1 = 4 : -5 (0/0)
|   |   |   |   1 = 5 : -5 (0/0)
|   |   |   6 = 0
|   |   |   |   2 = -5 : -5 (0/0)
|   |   |   |   2 = -4 : -5 (0/0)
|   |   |   |   2 = -3 : -5 (0/0)
|   |   |   |   2 = -2 : -5 (0/0)
|   |   |   |   2 = -1
|   |   |   |   |   9 = -5 : -5 (0/0)
|   |   |   |   |   9 = -4 : -5 (0/0)
|   |   |   |   |   9 = -3 : -5 (0/0)
|   |   |   |   |   9 = -2 : -2 (1/0)
|   |   |   |   |   9 = -1
|   |   |   |   |   |   4 = -5 : -5 (0/0)
|   |   |   |   |   |   4 = -4 : -5 (0/0)
|   |   |   |   |   |   4 = -3 : -5 (0/0)
|   |   |   |   |   |   4 = -2 : -5 (0/0)
|   |   |   |   |   |   4 = -1
|   |   |   |   |   |   |   3 = -5 : -5 (0/0)
|   |   |   |   |   |   |   3 = -4 : -5 (0/0)
|   |   |   |   |   |   |   3 = -3 : -5 (0/0)
|   |   |   |   |   |   |   3 = -2 : -5 (0/0)
|   |   |   |   |   |   |   3 = -1 : 0 (2/0)
|   |   |   |   |   |   |   3 = 0
|   |   |   |   |   |   |   |   1 = -5 : -5 (0/0)
|   |   |   |   |   |   |   |   1 = -4 : -5 (0/0)
|   |   |   |   |   |   |   |   1 = -3 : -5 (0/0)
|   |   |   |   |   |   |   |   1 = -2 : -5 (0/0)
|   |   |   |   |   |   |   |   1 = -1 : -1 (1/0)
|   |   |   |   |   |   |   |   1 = 0 : 0 (1/0)
|   |   |   |   |   |   |   |   1 = 1 : -5 (0/0)
|   |   |   |   |   |   |   |   1 = 2 : -5 (0/0)
|   |   |   |   |   |   |   |   1 = 3 : -5 (0/0)
|   |   |   |   |   |   |   |   1 = 4 : -5 (0/0)
|   |   |   |   |   |   |   |   1 = 5 : -5 (0/0)
|   |   |   |   |   |   |   3 = 1 : -5 (0/0)
|   |   |   |   |   |   |   3 = 2 : -5 (0/0)
|   |   |   |   |   |   |   3 = 3 : -5 (0/0)
|   |   |   |   |   |   |   3 = 4 : -5 (0/0)
|   |   |   |   |   |   |   3 = 5 : -5 (0/0)
|   |   |   |   |   |   4 = 0 : -1 (2/0)
|   |   |   |   |   |   4 = 1 : -5 (0/0)
|   |   |   |   |   |   4 = 2 : -5 (0/0)
|   |   |   |   |   |   4 = 3 : -5 (0/0)
|   |   |   |   |   |   4 = 4 : -5 (0/0)
|   |   |   |   |   |   4 = 5 : -5 (0/0)
|   |   |   |   |   9 = 0 : -5 (0/0)
|   |   |   |   |   9 = 1 : -5 (0/0)
|   |   |   |   |   9 = 2 : -5 (0/0)
|   |   |   |   |   9 = 3 : -5 (0/0)
|   |   |   |   |   9 = 4 : -5 (0/0)
|   |   |   |   |   9 = 5 : -5 (0/0)
|   |   |   |   2 = 0
|   |   |   |   |   9 = -5 : -5 (0/0)
|   |   |   |   |   9 = -4 : -5 (0/0)
|   |   |   |   |   9 = -3 : -5 (0/0)
|   |   |   |   |   9 = -2 : -5 (0/0)
|   |   |   |   |   9 = -1
|   |   |   |   |   |   1 = -5 : -5 (0/0)
|   |   |   |   |   |   1 = -4 : -5 (0/0)
|   |   |   |   |   |   1 = -3 : -5 (0/0)
|   |   |   |   |   |   1 = -2 : -5 (0/0)
|   |   |   |   |   |   1 = -1 : -1 (1/0)
|   |   |   |   |   |   1 = 0
|   |   |   |   |   |   |   3 = -5 : -5 (0/0)
|   |   |   |   |   |   |   3 = -4 : -5 (0/0)
|   |   |   |   |   |   |   3 = -3 : -5 (0/0)
|   |   |   |   |   |   |   3 = -2 : -5 (0/0)
|   |   |   |   |   |   |   3 = -1 : -1 (1/0)
|   |   |   |   |   |   |   3 = 0
|   |   |   |   |   |   |   |   7 = -5 : -5 (0/0)
|   |   |   |   |   |   |   |   7 = -4 : -5 (0/0)
|   |   |   |   |   |   |   |   7 = -3 : -5 (0/0)
|   |   |   |   |   |   |   |   7 = -2 : -5 (0/0)
|   |   |   |   |   |   |   |   7 = -1
|   |   |   |   |   |   |   |   |   4 = -5 : -5 (0/0)
|   |   |   |   |   |   |   |   |   4 = -4 : -5 (0/0)
|   |   |   |   |   |   |   |   |   4 = -3 : -5 (0/0)
|   |   |   |   |   |   |   |   |   4 = -2 : -5 (0/0)
|   |   |   |   |   |   |   |   |   4 = -1 : -5 (0/0)
|   |   |   |   |   |   |   |   |   4 = 0 : -1 (9/2)
|   |   |   |   |   |   |   |   |   4 = 1 : -2 (1/0)
|   |   |   |   |   |   |   |   |   4 = 2 : -5 (0/0)
|   |   |   |   |   |   |   |   |   4 = 3 : -5 (0/0)
|   |   |   |   |   |   |   |   |   4 = 4 : -5 (0/0)
|   |   |   |   |   |   |   |   |   4 = 5 : -5 (0/0)
|   |   |   |   |   |   |   |   7 = 0 : -1 (2/0)
|   |   |   |   |   |   |   |   7 = 1 : -5 (0/0)
|   |   |   |   |   |   |   |   7 = 2 : -5 (0/0)
|   |   |   |   |   |   |   |   7 = 3 : -5 (0/0)
|   |   |   |   |   |   |   |   7 = 4 : -5 (0/0)
|   |   |   |   |   |   |   |   7 = 5 : -5 (0/0)
|   |   |   |   |   |   |   3 = 1
|   |   |   |   |   |   |   |   7 = -5 : -5 (0/0)
|   |   |   |   |   |   |   |   7 = -4 : -5 (0/0)
|   |   |   |   |   |   |   |   7 = -3 : -5 (0/0)
|   |   |   |   |   |   |   |   7 = -2 : -5 (0/0)
|   |   |   |   |   |   |   |   7 = -1 : -2 (1/0)
|   |   |   |   |   |   |   |   7 = 0 : 0 (1/0)
|   |   |   |   |   |   |   |   7 = 1 : -5 (0/0)
|   |   |   |   |   |   |   |   7 = 2 : -5 (0/0)
|   |   |   |   |   |   |   |   7 = 3 : -5 (0/0)
|   |   |   |   |   |   |   |   7 = 4 : -5 (0/0)
|   |   |   |   |   |   |   |   7 = 5 : -5 (0/0)
|   |   |   |   |   |   |   3 = 2 : -5 (0/0)
|   |   |   |   |   |   |   3 = 3 : -5 (0/0)
|   |   |   |   |   |   |   3 = 4 : -5 (0/0)
|   |   |   |   |   |   |   3 = 5 : -5 (0/0)
|   |   |   |   |   |   1 = 1 : -1 (2/0)
|   |   |   |   |   |   1 = 2 : -5 (0/0)
|   |   |   |   |   |   1 = 3 : -5 (0/0)
|   |   |   |   |   |   1 = 4 : -5 (0/0)
|   |   |   |   |   |   1 = 5 : -5 (0/0)
|   |   |   |   |   9 = 0
|   |   |   |   |   |   3 = -5 : -5 (0/0)
|   |   |   |   |   |   3 = -4 : -5 (0/0)
|   |   |   |   |   |   3 = -3 : -5 (0/0)
|   |   |   |   |   |   3 = -2 : -5 (0/0)
|   |   |   |   |   |   3 = -1
|   |   |   |   |   |   |   4 = -5 : -5 (0/0)
|   |   |   |   |   |   |   4 = -4 : -5 (0/0)
|   |   |   |   |   |   |   4 = -3 : -5 (0/0)
|   |   |   |   |   |   |   4 = -2 : -5 (0/0)
|   |   |   |   |   |   |   4 = -1 : 1 (1/0)
|   |   |   |   |   |   |   4 = 0 : -1 (1/0)
|   |   |   |   |   |   |   4 = 1 : -5 (0/0)
|   |   |   |   |   |   |   4 = 2 : -5 (0/0)
|   |   |   |   |   |   |   4 = 3 : -5 (0/0)
|   |   |   |   |   |   |   4 = 4 : -5 (0/0)
|   |   |   |   |   |   |   4 = 5 : -5 (0/0)
|   |   |   |   |   |   3 = 0
|   |   |   |   |   |   |   4 = -5 : -5 (0/0)
|   |   |   |   |   |   |   4 = -4 : -5 (0/0)
|   |   |   |   |   |   |   4 = -3 : -5 (0/0)
|   |   |   |   |   |   |   4 = -2 : -5 (0/0)
|   |   |   |   |   |   |   4 = -1 : -1 (1/0)
|   |   |   |   |   |   |   4 = 0
|   |   |   |   |   |   |   |   7 = -5 : -5 (0/0)
|   |   |   |   |   |   |   |   7 = -4 : -5 (0/0)
|   |   |   |   |   |   |   |   7 = -3 : -5 (0/0)
|   |   |   |   |   |   |   |   7 = -2 : -5 (0/0)
|   |   |   |   |   |   |   |   7 = -1 : -1 (4/1)
|   |   |   |   |   |   |   |   7 = 0 : -1 (2/1)
|   |   |   |   |   |   |   |   7 = 1 : -5 (0/0)
|   |   |   |   |   |   |   |   7 = 2 : -5 (0/0)
|   |   |   |   |   |   |   |   7 = 3 : -5 (0/0)
|   |   |   |   |   |   |   |   7 = 4 : -5 (0/0)
|   |   |   |   |   |   |   |   7 = 5 : -5 (0/0)
|   |   |   |   |   |   |   4 = 1 : -5 (0/0)
|   |   |   |   |   |   |   4 = 2 : -5 (0/0)
|   |   |   |   |   |   |   4 = 3 : -5 (0/0)
|   |   |   |   |   |   |   4 = 4 : -5 (0/0)
|   |   |   |   |   |   |   4 = 5 : -5 (0/0)
|   |   |   |   |   |   3 = 1 : -5 (0/0)
|   |   |   |   |   |   3 = 2 : -5 (0/0)
|   |   |   |   |   |   3 = 3 : -5 (0/0)
|   |   |   |   |   |   3 = 4 : -5 (0/0)
|   |   |   |   |   |   3 = 5 : -5 (0/0)
|   |   |   |   |   9 = 1 : -5 (0/0)
|   |   |   |   |   9 = 2 : -5 (0/0)
|   |   |   |   |   9 = 3 : -5 (0/0)
|   |   |   |   |   9 = 4 : -5 (0/0)
|   |   |   |   |   9 = 5 : -5 (0/0)
|   |   |   |   2 = 1 : 0 (1/0)
|   |   |   |   2 = 2 : -5 (0/0)
|   |   |   |   2 = 3 : -5 (0/0)
|   |   |   |   2 = 4 : -5 (0/0)
|   |   |   |   2 = 5 : -5 (0/0)
|   |   |   6 = 1 : -2 (4/0)
|   |   |   6 = 2 : -5 (0/0)
|   |   |   6 = 3 : -5 (0/0)
|   |   |   6 = 4 : -5 (0/0)
|   |   |   6 = 5 : -5 (0/0)
|   |   0 = 1
|   |   |   6 = -5 : -5 (0/0)
|   |   |   6 = -4 : -5 (0/0)
|   |   |   6 = -3 : -5 (0/0)
|   |   |   6 = -2 : -5 (0/0)
|   |   |   6 = -1
|   |   |   |   1 = -5 : -5 (0/0)
|   |   |   |   1 = -4 : -5 (0/0)
|   |   |   |   1 = -3 : -5 (0/0)
|   |   |   |   1 = -2 : -5 (0/0)
|   |   |   |   1 = -1 : -5 (0/0)
|   |   |   |   1 = 0
|   |   |   |   |   9 = -5 : -5 (0/0)
|   |   |   |   |   9 = -4 : -5 (0/0)
|   |   |   |   |   9 = -3 : -4 (1/0)
|   |   |   |   |   9 = -2 : -5 (0/0)
|   |   |   |   |   9 = -1 : -5 (0/0)
|   |   |   |   |   9 = 0 : 3 (1/0)
|   |   |   |   |   9 = 1 : -5 (0/0)
|   |   |   |   |   9 = 2 : -5 (0/0)
|   |   |   |   |   9 = 3 : -5 (0/0)
|   |   |   |   |   9 = 4 : -5 (0/0)
|   |   |   |   |   9 = 5 : -5 (0/0)
|   |   |   |   1 = 1 : -5 (0/0)
|   |   |   |   1 = 2 : -5 (0/0)
|   |   |   |   1 = 3 : -1 (1/0)
|   |   |   |   1 = 4 : -5 (0/0)
|   |   |   |   1 = 5 : -5 (0/0)
|   |   |   6 = 0
|   |   |   |   7 = -5 : -5 (0/0)
|   |   |   |   7 = -4 : -5 (0/0)
|   |   |   |   7 = -3 : -5 (0/0)
|   |   |   |   7 = -2 : -5 (0/0)
|   |   |   |   7 = -1
|   |   |   |   |   2 = -5 : -5 (0/0)
|   |   |   |   |   2 = -4 : -5 (0/0)
|   |   |   |   |   2 = -3 : -5 (0/0)
|   |   |   |   |   2 = -2 : -5 (0/0)
|   |   |   |   |   2 = -1 : -5 (0/0)
|   |   |   |   |   2 = 0 : -1 (1/0)
|   |   |   |   |   2 = 1
|   |   |   |   |   |   1 = -5 : -5 (0/0)
|   |   |   |   |   |   1 = -4 : -5 (0/0)
|   |   |   |   |   |   1 = -3 : -5 (0/0)
|   |   |   |   |   |   1 = -2 : -5 (0/0)
|   |   |   |   |   |   1 = -1 : -5 (0/0)
|   |   |   |   |   |   1 = 0 : -2 (1/0)
|   |   |   |   |   |   1 = 1 : -1 (1/0)
|   |   |   |   |   |   1 = 2 : -5 (0/0)
|   |   |   |   |   |   1 = 3 : -5 (0/0)
|   |   |   |   |   |   1 = 4 : -5 (0/0)
|   |   |   |   |   |   1 = 5 : -5 (0/0)
|   |   |   |   |   2 = 2 : -5 (0/0)
|   |   |   |   |   2 = 3 : -5 (0/0)
|   |   |   |   |   2 = 4 : -5 (0/0)
|   |   |   |   |   2 = 5 : -5 (0/0)
|   |   |   |   7 = 0 : -2 (1/0)
|   |   |   |   7 = 1 : -2 (1/0)
|   |   |   |   7 = 2 : -5 (0/0)
|   |   |   |   7 = 3 : -5 (0/0)
|   |   |   |   7 = 4 : -5 (0/0)
|   |   |   |   7 = 5 : -5 (0/0)
|   |   |   6 = 1 : -5 (0/0)
|   |   |   6 = 2 : -5 (0/0)
|   |   |   6 = 3 : -5 (0/0)
|   |   |   6 = 4 : -5 (0/0)
|   |   |   6 = 5 : -5 (0/0)
|   |   0 = 2 : -5 (0/0)
|   |   0 = 3 : -5 (0/0)
|   |   0 = 4 : -5 (0/0)
|   |   0 = 5 : -5 (0/0)
|   5 = 1
|   |   6 = -5 : -5 (0/0)
|   |   6 = -4 : -5 (0/0)
|   |   6 = -3 : -5 (0/0)
|   |   6 = -2 : -5 (0/0)
|   |   6 = -1
|   |   |   0 = -5 : -5 (0/0)
|   |   |   0 = -4 : -5 (0/0)
|   |   |   0 = -3 : -5 (0/0)
|   |   |   0 = -2 : -5 (0/0)
|   |   |   0 = -1 : -5 (0/0)
|   |   |   0 = 0 : 0 (1/0)
|   |   |   0 = 1 : 1 (1/0)
|   |   |   0 = 2 : -5 (0/0)
|   |   |   0 = 3 : -5 (0/0)
|   |   |   0 = 4 : -5 (0/0)
|   |   |   0 = 5 : -5 (0/0)
|   |   6 = 0
|   |   |   4 = -5 : -5 (0/0)
|   |   |   4 = -4 : -5 (0/0)
|   |   |   4 = -3 : -5 (0/0)
|   |   |   4 = -2 : -5 (0/0)
|   |   |   4 = -1 : -5 (0/0)
|   |   |   4 = 0
|   |   |   |   9 = -5 : -5 (0/0)
|   |   |   |   9 = -4 : -5 (0/0)
|   |   |   |   9 = -3 : -5 (0/0)
|   |   |   |   9 = -2 : -5 (0/0)
|   |   |   |   9 = -1
|   |   |   |   |   0 = -5 : -5 (0/0)
|   |   |   |   |   0 = -4 : -5 (0/0)
|   |   |   |   |   0 = -3 : -5 (0/0)
|   |   |   |   |   0 = -2 : -5 (0/0)
|   |   |   |   |   0 = -1 : 0 (1/0)
|   |   |   |   |   0 = 0 : -1 (1/0)
|   |   |   |   |   0 = 1 : -1 (1/0)
|   |   |   |   |   0 = 2 : -5 (0/0)
|   |   |   |   |   0 = 3 : -5 (0/0)
|   |   |   |   |   0 = 4 : -5 (0/0)
|   |   |   |   |   0 = 5 : -5 (0/0)
|   |   |   |   9 = 0
|   |   |   |   |   0 = -5 : -5 (0/0)
|   |   |   |   |   0 = -4 : -5 (0/0)
|   |   |   |   |   0 = -3 : -5 (0/0)
|   |   |   |   |   0 = -2 : -5 (0/0)
|   |   |   |   |   0 = -1 : -5 (0/0)
|   |   |   |   |   0 = 0 : -1 (2/0)
|   |   |   |   |   0 = 1 : -1 (2/1)
|   |   |   |   |   0 = 2 : -5 (0/0)
|   |   |   |   |   0 = 3 : -5 (0/0)
|   |   |   |   |   0 = 4 : -5 (0/0)
|   |   |   |   |   0 = 5 : -5 (0/0)
|   |   |   |   9 = 1 : -5 (0/0)
|   |   |   |   9 = 2 : -5 (0/0)
|   |   |   |   9 = 3 : -5 (0/0)
|   |   |   |   9 = 4 : -5 (0/0)
|   |   |   |   9 = 5 : -5 (0/0)
|   |   |   4 = 1 : -1 (3/0)
|   |   |   4 = 2 : -5 (0/0)
|   |   |   4 = 3 : -5 (0/0)
|   |   |   4 = 4 : -5 (0/0)
|   |   |   4 = 5 : -5 (0/0)
|   |   6 = 1
|   |   |   2 = -5 : -5 (0/0)
|   |   |   2 = -4 : -5 (0/0)
|   |   |   2 = -3 : -5 (0/0)
|   |   |   2 = -2 : -5 (0/0)
|   |   |   2 = -1 : -5 (0/0)
|   |   |   2 = 0
|   |   |   |   7 = -5 : -5 (0/0)
|   |   |   |   7 = -4 : -5 (0/0)
|   |   |   |   7 = -3 : -5 (0/0)
|   |   |   |   7 = -2 : -5 (0/0)
|   |   |   |   7 = -1 : -1 (1/0)
|   |   |   |   7 = 0 : 0 (1/0)
|   |   |   |   7 = 1 : -5 (0/0)
|   |   |   |   7 = 2 : -5 (0/0)
|   |   |   |   7 = 3 : -5 (0/0)
|   |   |   |   7 = 4 : -5 (0/0)
|   |   |   |   7 = 5 : -5 (0/0)
|   |   |   2 = 1
|   |   |   |   1 = -5 : -5 (0/0)
|   |   |   |   1 = -4 : -5 (0/0)
|   |   |   |   1 = -3 : -5 (0/0)
|   |   |   |   1 = -2 : -5 (0/0)
|   |   |   |   1 = -1 : -5 (0/0)
|   |   |   |   1 = 0 : -1 (1/0)
|   |   |   |   1 = 1 : 0 (1/0)
|   |   |   |   1 = 2 : -5 (0/0)
|   |   |   |   1 = 3 : -5 (0/0)
|   |   |   |   1 = 4 : -5 (0/0)
|   |   |   |   1 = 5 : -5 (0/0)
|   |   |   2 = 2 : -1 (1/0)
|   |   |   2 = 3 : -5 (0/0)
|   |   |   2 = 4 : -5 (0/0)
|   |   |   2 = 5 : -5 (0/0)
|   |   6 = 2 : -5 (0/0)
|   |   6 = 3 : -5 (0/0)
|   |   6 = 4 : -5 (0/0)
|   |   6 = 5 : -5 (0/0)
|   5 = 2 : -1 (1/0)
|   5 = 3 : -5 (0/0)
|   5 = 4 : -5 (0/0)
|   5 = 5 : -5 (0/0)
8 = 0
|   3 = -5 : -5 (0/0)
|   3 = -4 : -5 (0/0)
|   3 = -3 : 0 (2/0)
|   3 = -2
|   |   6 = -5 : -5 (0/0)
|   |   6 = -4 : -5 (0/0)
|   |   6 = -3 : -5 (0/0)
|   |   6 = -2
|   |   |   4 = -5 : -5 (0/0)
|   |   |   4 = -4 : -5 (0/0)
|   |   |   4 = -3 : -5 (0/0)
|   |   |   4 = -2 : 2 (1/0)
|   |   |   4 = -1 : -2 (1/0)
|   |   |   4 = 0 : -5 (0/0)
|   |   |   4 = 1 : -5 (0/0)
|   |   |   4 = 2 : -5 (0/0)
|   |   |   4 = 3 : -5 (0/0)
|   |   |   4 = 4 : -5 (0/0)
|   |   |   4 = 5 : -5 (0/0)
|   |   6 = -1
|   |   |   5 = -5 : -5 (0/0)
|   |   |   5 = -4 : -5 (0/0)
|   |   |   5 = -3 : 1 (1/0)
|   |   |   5 = -2 : -5 (0/0)
|   |   |   5 = -1 : -1 (2/0)
|   |   |   5 = 0 : 0 (1/0)
|   |   |   5 = 1 : -5 (0/0)
|   |   |   5 = 2 : -5 (0/0)
|   |   |   5 = 3 : -5 (0/0)
|   |   |   5 = 4 : -5 (0/0)
|   |   |   5 = 5 : -5 (0/0)
|   |   6 = 0 : 0 (2/0)
|   |   6 = 1 : -5 (0/0)
|   |   6 = 2 : -5 (0/0)
|   |   6 = 3 : -5 (0/0)
|   |   6 = 4 : -5 (0/0)
|   |   6 = 5 : -5 (0/0)
|   3 = -1
|   |   9 = -5 : -5 (0/0)
|   |   9 = -4 : -5 (0/0)
|   |   9 = -3 : -5 (0/0)
|   |   9 = -2 : -5 (0/0)
|   |   9 = -1
|   |   |   7 = -5 : -5 (0/0)
|   |   |   7 = -4 : -5 (0/0)
|   |   |   7 = -3 : -5 (0/0)
|   |   |   7 = -2 : -5 (0/0)
|   |   |   7 = -1
|   |   |   |   5 = -5 : -5 (0/0)
|   |   |   |   5 = -4 : -5 (0/0)
|   |   |   |   5 = -3 : -5 (0/0)
|   |   |   |   5 = -2 : -5 (0/0)
|   |   |   |   5 = -1
|   |   |   |   |   1 = -5 : -5 (0/0)
|   |   |   |   |   1 = -4 : -5 (0/0)
|   |   |   |   |   1 = -3 : -5 (0/0)
|   |   |   |   |   1 = -2 : -5 (0/0)
|   |   |   |   |   1 = -1 : -1 (3/0)
|   |   |   |   |   1 = 0 : 0 (1/0)
|   |   |   |   |   1 = 1 : -5 (0/0)
|   |   |   |   |   1 = 2 : -5 (0/0)
|   |   |   |   |   1 = 3 : -5 (0/0)
|   |   |   |   |   1 = 4 : -5 (0/0)
|   |   |   |   |   1 = 5 : -5 (0/0)
|   |   |   |   5 = 0 : -1 (2/0)
|   |   |   |   5 = 1 : -5 (0/0)
|   |   |   |   5 = 2 : -5 (0/0)
|   |   |   |   5 = 3 : -5 (0/0)
|   |   |   |   5 = 4 : -5 (0/0)
|   |   |   |   5 = 5 : -5 (0/0)
|   |   |   7 = 0
|   |   |   |   0 = -5 : -5 (0/0)
|   |   |   |   0 = -4 : -5 (0/0)
|   |   |   |   0 = -3 : -5 (0/0)
|   |   |   |   0 = -2 : -5 (0/0)
|   |   |   |   0 = -1 : 0 (1/0)
|   |   |   |   0 = 0
|   |   |   |   |   6 = -5 : -5 (0/0)
|   |   |   |   |   6 = -4 : -5 (0/0)
|   |   |   |   |   6 = -3 : -5 (0/0)
|   |   |   |   |   6 = -2 : -5 (0/0)
|   |   |   |   |   6 = -1 : -2 (2/1)
|   |   |   |   |   6 = 0 : -2 (1/0)
|   |   |   |   |   6 = 1 : -5 (0/0)
|   |   |   |   |   6 = 2 : -5 (0/0)
|   |   |   |   |   6 = 3 : -5 (0/0)
|   |   |   |   |   6 = 4 : -5 (0/0)
|   |   |   |   |   6 = 5 : -5 (0/0)
|   |   |   |   0 = 1 : -5 (0/0)
|   |   |   |   0 = 2 : -5 (0/0)
|   |   |   |   0 = 3 : -5 (0/0)
|   |   |   |   0 = 4 : -5 (0/0)
|   |   |   |   0 = 5 : -5 (0/0)
|   |   |   7 = 1 : -1 (2/0)
|   |   |   7 = 2 : -5 (0/0)
|   |   |   7 = 3 : -5 (0/0)
|   |   |   7 = 4 : -5 (0/0)
|   |   |   7 = 5 : -5 (0/0)
|   |   9 = 0
|   |   |   6 = -5 : -5 (0/0)
|   |   |   6 = -4 : -5 (0/0)
|   |   |   6 = -3 : 0 (1/0)
|   |   |   6 = -2 : 1 (1/0)
|   |   |   6 = -1
|   |   |   |   2 = -5 : -5 (0/0)
|   |   |   |   2 = -4 : -5 (0/0)
|   |   |   |   2 = -3 : -5 (0/0)
|   |   |   |   2 = -2 : 0 (1/0)
|   |   |   |   2 = -1
|   |   |   |   |   5 = -5 : -5 (0/0)
|   |   |   |   |   5 = -4 : -5 (0/0)
|   |   |   |   |   5 = -3 : -5 (0/0)
|   |   |   |   |   5 = -2 : -5 (0/0)
|   |   |   |   |   5 = -1
|   |   |   |   |   |   1 = -5 : -5 (0/0)
|   |   |   |   |   |   1 = -4 : -5 (0/0)
|   |   |   |   |   |   1 = -3 : -5 (0/0)
|   |   |   |   |   |   1 = -2 : -5 (0/0)
|   |   |   |   |   |   1 = -1
|   |   |   |   |   |   |   7 = -5 : -5 (0/0)
|   |   |   |   |   |   |   7 = -4 : -5 (0/0)
|   |   |   |   |   |   |   7 = -3 : -5 (0/0)
|   |   |   |   |   |   |   7 = -2 : -5 (0/0)
|   |   |   |   |   |   |   7 = -1
|   |   |   |   |   |   |   |   0 = -5 : -5 (0/0)
|   |   |   |   |   |   |   |   0 = -4 : -5 (0/0)
|   |   |   |   |   |   |   |   0 = -3 : -5 (0/0)
|   |   |   |   |   |   |   |   0 = -2 : -5 (0/0)
|   |   |   |   |   |   |   |   0 = -1 : 0 (1/0)
|   |   |   |   |   |   |   |   0 = 0 : -1 (2/1)
|   |   |   |   |   |   |   |   0 = 1 : -5 (0/0)
|   |   |   |   |   |   |   |   0 = 2 : -5 (0/0)
|   |   |   |   |   |   |   |   0 = 3 : -5 (0/0)
|   |   |   |   |   |   |   |   0 = 4 : -5 (0/0)
|   |   |   |   |   |   |   |   0 = 5 : -5 (0/0)
|   |   |   |   |   |   |   7 = 0 : 0 (3/1)
|   |   |   |   |   |   |   7 = 1 : -5 (0/0)
|   |   |   |   |   |   |   7 = 2 : -5 (0/0)
|   |   |   |   |   |   |   7 = 3 : -5 (0/0)
|   |   |   |   |   |   |   7 = 4 : -5 (0/0)
|   |   |   |   |   |   |   7 = 5 : -5 (0/0)
|   |   |   |   |   |   1 = 0 : 0 (2/0)
|   |   |   |   |   |   1 = 1 : -5 (0/0)
|   |   |   |   |   |   1 = 2 : -5 (0/0)
|   |   |   |   |   |   1 = 3 : -5 (0/0)
|   |   |   |   |   |   1 = 4 : -5 (0/0)
|   |   |   |   |   |   1 = 5 : -5 (0/0)
|   |   |   |   |   5 = 0
|   |   |   |   |   |   0 = -5 : -5 (0/0)
|   |   |   |   |   |   0 = -4 : -5 (0/0)
|   |   |   |   |   |   0 = -3 : -5 (0/0)
|   |   |   |   |   |   0 = -2 : -5 (0/0)
|   |   |   |   |   |   0 = -1 : -1 (1/0)
|   |   |   |   |   |   0 = 0 : 0 (1/0)
|   |   |   |   |   |   0 = 1 : -5 (0/0)
|   |   |   |   |   |   0 = 2 : -5 (0/0)
|   |   |   |   |   |   0 = 3 : -5 (0/0)
|   |   |   |   |   |   0 = 4 : -5 (0/0)
|   |   |   |   |   |   0 = 5 : -5 (0/0)
|   |   |   |   |   5 = 1 : -5 (0/0)
|   |   |   |   |   5 = 2 : -5 (0/0)
|   |   |   |   |   5 = 3 : -5 (0/0)
|   |   |   |   |   5 = 4 : -5 (0/0)
|   |   |   |   |   5 = 5 : -5 (0/0)
|   |   |   |   2 = 0
|   |   |   |   |   4 = -5 : -5 (0/0)
|   |   |   |   |   4 = -4 : -5 (0/0)
|   |   |   |   |   4 = -3 : -5 (0/0)
|   |   |   |   |   4 = -2 : -5 (0/0)
|   |   |   |   |   4 = -1
|   |   |   |   |   |   0 = -5 : -5 (0/0)
|   |   |   |   |   |   0 = -4 : -5 (0/0)
|   |   |   |   |   |   0 = -3 : -5 (0/0)
|   |   |   |   |   |   0 = -2 : -5 (0/0)
|   |   |   |   |   |   0 = -1 : -5 (0/0)
|   |   |   |   |   |   0 = 0
|   |   |   |   |   |   |   1 = -5 : -5 (0/0)
|   |   |   |   |   |   |   1 = -4 : -5 (0/0)
|   |   |   |   |   |   |   1 = -3 : -5 (0/0)
|   |   |   |   |   |   |   1 = -2 : -5 (0/0)
|   |   |   |   |   |   |   1 = -1 : 1 (1/0)
|   |   |   |   |   |   |   1 = 0
|   |   |   |   |   |   |   |   5 = -5 : -5 (0/0)
|   |   |   |   |   |   |   |   5 = -4 : -5 (0/0)
|   |   |   |   |   |   |   |   5 = -3 : -5 (0/0)
|   |   |   |   |   |   |   |   5 = -2 : -5 (0/0)
|   |   |   |   |   |   |   |   5 = -1 : -1 (1/0)
|   |   |   |   |   |   |   |   5 = 0 : 0 (1/0)
|   |   |   |   |   |   |   |   5 = 1 : -5 (0/0)
|   |   |   |   |   |   |   |   5 = 2 : -5 (0/0)
|   |   |   |   |   |   |   |   5 = 3 : -5 (0/0)
|   |   |   |   |   |   |   |   5 = 4 : -5 (0/0)
|   |   |   |   |   |   |   |   5 = 5 : -5 (0/0)
|   |   |   |   |   |   |   1 = 1 : -5 (0/0)
|   |   |   |   |   |   |   1 = 2 : -5 (0/0)
|   |   |   |   |   |   |   1 = 3 : -5 (0/0)
|   |   |   |   |   |   |   1 = 4 : -5 (0/0)
|   |   |   |   |   |   |   1 = 5 : -5 (0/0)
|   |   |   |   |   |   0 = 1 : 0 (1/0)
|   |   |   |   |   |   0 = 2 : -5 (0/0)
|   |   |   |   |   |   0 = 3 : -5 (0/0)
|   |   |   |   |   |   0 = 4 : -5 (0/0)
|   |   |   |   |   |   0 = 5 : -5 (0/0)
|   |   |   |   |   4 = 0 : 0 (2/0)
|   |   |   |   |   4 = 1 : -5 (0/0)
|   |   |   |   |   4 = 2 : -5 (0/0)
|   |   |   |   |   4 = 3 : -5 (0/0)
|   |   |   |   |   4 = 4 : -5 (0/0)
|   |   |   |   |   4 = 5 : -5 (0/0)
|   |   |   |   2 = 1 : 1 (1/0)
|   |   |   |   2 = 2 : -5 (0/0)
|   |   |   |   2 = 3 : -5 (0/0)
|   |   |   |   2 = 4 : -5 (0/0)
|   |   |   |   2 = 5 : -5 (0/0)
|   |   |   6 = 0
|   |   |   |   7 = -5 : -5 (0/0)
|   |   |   |   7 = -4 : -5 (0/0)
|   |   |   |   7 = -3 : -5 (0/0)
|   |   |   |   7 = -2 : -5 (0/0)
|   |   |   |   7 = -1
|   |   |   |   |   2 = -5 : -5 (0/0)
|   |   |   |   |   2 = -4 : -5 (0/0)
|   |   |   |   |   2 = -3 : -5 (0/0)
|   |   |   |   |   2 = -2 : -5 (0/0)
|   |   |   |   |   2 = -1 : 0 (2/0)
|   |   |   |   |   2 = 0 : 1 (1/0)
|   |   |   |   |   2 = 1 : -5 (0/0)
|   |   |   |   |   2 = 2 : -5 (0/0)
|   |   |   |   |   2 = 3 : -5 (0/0)
|   |   |   |   |   2 = 4 : -5 (0/0)
|   |   |   |   |   2 = 5 : -5 (0/0)
|   |   |   |   7 = 0
|   |   |   |   |   2 = -5 : -5 (0/0)
|   |   |   |   |   2 = -4 : -5 (0/0)
|   |   |   |   |   2 = -3 : -5 (0/0)
|   |   |   |   |   2 = -2 : -5 (0/0)
|   |   |   |   |   2 = -1
|   |   |   |   |   |   1 = -5 : -5 (0/0)
|   |   |   |   |   |   1 = -4 : -5 (0/0)
|   |   |   |   |   |   1 = -3 : -5 (0/0)
|   |   |   |   |   |   1 = -2 : -5 (0/0)
|   |   |   |   |   |   1 = -1
|   |   |   |   |   |   |   5 = -5 : -5 (0/0)
|   |   |   |   |   |   |   5 = -4 : -5 (0/0)
|   |   |   |   |   |   |   5 = -3 : -5 (0/0)
|   |   |   |   |   |   |   5 = -2 : -5 (0/0)
|   |   |   |   |   |   |   5 = -1 : 0 (1/0)
|   |   |   |   |   |   |   5 = 0 : 0 (2/1)
|   |   |   |   |   |   |   5 = 1 : -5 (0/0)
|   |   |   |   |   |   |   5 = 2 : -5 (0/0)
|   |   |   |   |   |   |   5 = 3 : -5 (0/0)
|   |   |   |   |   |   |   5 = 4 : -5 (0/0)
|   |   |   |   |   |   |   5 = 5 : -5 (0/0)
|   |   |   |   |   |   1 = 0
|   |   |   |   |   |   |   4 = -5 : -5 (0/0)
|   |   |   |   |   |   |   4 = -4 : -5 (0/0)
|   |   |   |   |   |   |   4 = -3 : -5 (0/0)
|   |   |   |   |   |   |   4 = -2 : -5 (0/0)
|   |   |   |   |   |   |   4 = -1
|   |   |   |   |   |   |   |   5 = -5 : -5 (0/0)
|   |   |   |   |   |   |   |   5 = -4 : -5 (0/0)
|   |   |   |   |   |   |   |   5 = -3 : -5 (0/0)
|   |   |   |   |   |   |   |   5 = -2 : -5 (0/0)
|   |   |   |   |   |   |   |   5 = -1 : -1 (2/1)
|   |   |   |   |   |   |   |   5 = 0 : 1 (2/0)
|   |   |   |   |   |   |   |   5 = 1 : -5 (0/0)
|   |   |   |   |   |   |   |   5 = 2 : -5 (0/0)
|   |   |   |   |   |   |   |   5 = 3 : -5 (0/0)
|   |   |   |   |   |   |   |   5 = 4 : -5 (0/0)
|   |   |   |   |   |   |   |   5 = 5 : -5 (0/0)
|   |   |   |   |   |   |   4 = 0 : 0 (2/0)
|   |   |   |   |   |   |   4 = 1 : 0 (1/0)
|   |   |   |   |   |   |   4 = 2 : -5 (0/0)
|   |   |   |   |   |   |   4 = 3 : -5 (0/0)
|   |   |   |   |   |   |   4 = 4 : -5 (0/0)
|   |   |   |   |   |   |   4 = 5 : -5 (0/0)
|   |   |   |   |   |   1 = 1 : -5 (0/0)
|   |   |   |   |   |   1 = 2 : -5 (0/0)
|   |   |   |   |   |   1 = 3 : -5 (0/0)
|   |   |   |   |   |   1 = 4 : -5 (0/0)
|   |   |   |   |   |   1 = 5 : -5 (0/0)
|   |   |   |   |   2 = 0
|   |   |   |   |   |   0 = -5 : -5 (0/0)
|   |   |   |   |   |   0 = -4 : -5 (0/0)
|   |   |   |   |   |   0 = -3 : -5 (0/0)
|   |   |   |   |   |   0 = -2 : -5 (0/0)
|   |   |   |   |   |   0 = -1 : 0 (1/0)
|   |   |   |   |   |   0 = 0
|   |   |   |   |   |   |   5 = -5 : -5 (0/0)
|   |   |   |   |   |   |   5 = -4 : -5 (0/0)
|   |   |   |   |   |   |   5 = -3 : -5 (0/0)
|   |   |   |   |   |   |   5 = -2 : -5 (0/0)
|   |   |   |   |   |   |   5 = -1
|   |   |   |   |   |   |   |   4 = -5 : -5 (0/0)
|   |   |   |   |   |   |   |   4 = -4 : -5 (0/0)
|   |   |   |   |   |   |   |   4 = -3 : -5 (0/0)
|   |   |   |   |   |   |   |   4 = -2 : -5 (0/0)
|   |   |   |   |   |   |   |   4 = -1 : 0 (2/1)
|   |   |   |   |   |   |   |   4 = 0 : 0 (1/0)
|   |   |   |   |   |   |   |   4 = 1 : -5 (0/0)
|   |   |   |   |   |   |   |   4 = 2 : -5 (0/0)
|   |   |   |   |   |   |   |   4 = 3 : -5 (0/0)
|   |   |   |   |   |   |   |   4 = 4 : -5 (0/0)
|   |   |   |   |   |   |   |   4 = 5 : -5 (0/0)
|   |   |   |   |   |   |   5 = 0 : 0 (2/0)
|   |   |   |   |   |   |   5 = 1 : -5 (0/0)
|   |   |   |   |   |   |   5 = 2 : -5 (0/0)
|   |   |   |   |   |   |   5 = 3 : -5 (0/0)
|   |   |   |   |   |   |   5 = 4 : -5 (0/0)
|   |   |   |   |   |   |   5 = 5 : -5 (0/0)
|   |   |   |   |   |   0 = 1 : -5 (0/0)
|   |   |   |   |   |   0 = 2 : -5 (0/0)
|   |   |   |   |   |   0 = 3 : -5 (0/0)
|   |   |   |   |   |   0 = 4 : -5 (0/0)
|   |   |   |   |   |   0 = 5 : -5 (0/0)
|   |   |   |   |   2 = 1 : -5 (0/0)
|   |   |   |   |   2 = 2 : -5 (0/0)
|   |   |   |   |   2 = 3 : -5 (0/0)
|   |   |   |   |   2 = 4 : -5 (0/0)
|   |   |   |   |   2 = 5 : -5 (0/0)
|   |   |   |   7 = 1 : -1 (1/0)
|   |   |   |   7 = 2 : -5 (0/0)
|   |   |   |   7 = 3 : -5 (0/0)
|   |   |   |   7 = 4 : -5 (0/0)
|   |   |   |   7 = 5 : -5 (0/0)
|   |   |   6 = 1
|   |   |   |   0 = -5 : -5 (0/0)
|   |   |   |   0 = -4 : -5 (0/0)
|   |   |   |   0 = -3 : -5 (0/0)
|   |   |   |   0 = -2 : -5 (0/0)
|   |   |   |   0 = -1 : -1 (1/0)
|   |   |   |   0 = 0 : 0 (1/0)
|   |   |   |   0 = 1 : -5 (0/0)
|   |   |   |   0 = 2 : -5 (0/0)
